tree
version=v4
num_class=1
num_tree_per_iteration=1
label_index=0
max_feature_idx=4
objective=regression
feature_names=Column_0 Column_1 Column_2 Column_3 Column_4
feature_infos=[0:0.99999999999999989] [0:0.99999999999999989] [0:0.99999999999999989] [0:0.99999999999999989] [0:0.99999999999999989]
tree_sizes=1443 1531 1532 1624 1539 1550 1549 1542 1546 1548 1714 1629 1543 1545 1712 1535 1538 1710 1448 1632 1538 1543 1542 1537 1720 1458 1374 1461 1461 1376 1631 1721 1543 1632 1549 1628 1543 1460 1548 1650 1463 1463 1380 1463 1460 1372 1376 1455 1460 1553 1549 1544 1629 1552 1545 1552 1452 1464 1551 1639 1639 1553 1373 1374 1553 1640 1642 1637 1642 1641 1457 1547 1548 1556 1463 1546 1548 1540 1633 1549 1641 1643 1561 1648 1564 1552 1550 1638 1468 1731 1563 1645 1550 1548 1644 1376 1373 1467 1462 1545

Tree=0
num_leaves=16
num_cat=0
split_feature=0 1 4 0 1 1 3 0 1 1 0 2 0 2 1
split_gain=1.30122 0.502418 0.232418 0.215421 0.189278 0.192929 0.180287 0.362375 0.301884 0.183429 0.158525 0.245874 0.117795 0.0439942 0.0415881
threshold=0.85574889339525972 0.37140489740738319 0.4615577505941868 0.20663526743856436 0.2160005233204684 0.31290203004731698 0.51388979743136887 0.64752185953206431 0.5182289963149519 0.61929526176925942 0.45846143782298693 0.34485728614727118 0.4241512396153595 0.39909727219205871 0.48757113887616937
decision_type=2 2 2 2 2 2 2 2 2 2 2 2 2 2 2
left_child=1 2 10 -3 -4 -6 7 9 -8 12 11 -1 14 -14 -5
right_child=-2 3 4 6 5 -7 8 -9 -10 -11 -12 -13 13 -15 -16
leaf_value=0.44979766590046777 0.45942123135737539 0.45414769267056354 0.45233175202275117 0.44567976702622608 0.44306826604987576 0.44993003047617458 0.45118861274319783 0.45668691336634654 0.44415189767314606 0.45348672890885655 0.44158076148198905 0.44303132147343299 0.45208640409542067 0.44903502053831579 0.4484066558938023
leaf_weight=25 30 28 22 29 20 21 27 20 35 23 29 29 21 27 27
leaf_count=25 30 28 22 29 20 21 27 20 35 23 29 29 21 27 27
internal_value=0.449393 0.448608 0.446301 0.450029 0.44859 0.446583 0.449477 0.450431 0.447216 0.449446 0.444563 0.446164 0.448552 0.45037 0.446995
internal_weight=413 383 146 237 63 41 209 147 62 127 83 54 104 48 56
internal_count=413 383 146 237 63 41 209 147 62 127 83 54 104 48 56
is_linear=0
shrinkage=1


Tree=1
num_leaves=16
num_cat=0
split_feature=0 1 4 0 1 3 3 0 1 1 0 2 0 2 1
split_gain=1.17435 0.453433 0.209757 0.194417 0.170823 0.185057 0.162709 0.327043 0.27245 0.165545 0.143069 0.221901 0.10631 0.0397048 0.0375555
threshold=0.85574889339525972 0.37140489740738319 0.4615577505941868 0.20663526743856436 0.2160005233204684 0.44123547240574784 0.51388979743136887 0.64752185953206431 0.5182289963149519 0.61929526176925942 0.45846143782298693 0.34485728614727118 0.4241512396153595 0.39909727219205871 0.4677176686073134
decision_type=2 2 2 2 2 2 2 2 2 2 2 2 2 2 2
left_child=1 2 10 -3 -4 -6 7 9 -8 12 11 -1 14 -14 -5
right_child=-2 3 4 6 5 -7 8 -9 -10 -11 -12 -13 13 -15 -16
leaf_value=0.00010081478208303452 0.0092432020388271974 0.004233339954433697 0.0025081963352435693 -0.0041131544291325246 -0.0062314852542753908 0.0004888336826115847 0.0014222141562236681 0.0066455997541197583 -0.0052626650314778096 0.0036054245257021293 -0.0077052443834214378 -0.0063272123613669785 0.0022751159963220182 -0.00062369832217141433 -0.0014811921716583049
leaf_weight=25 30 28 22 23 21 20 27 20 35 23 29 29 21 27 33
leaf_count=25 30 28 22 23 21 20 27 20 35 23 29 29 21 27 33
internal_value=-0.000283285 -0.00102948 -0.0032214 0.000320812 -0.0010461 -0.00295328 -0.000203354 0.00070267 -0.00235151 -0.000233225 -0.00487254 -0.00335127 -0.00108216 0.000644533 -0.00256218
internal_weight=413 383 146 237 63 41 209 147 62 127 83 54 104 48 56
internal_count=413 383 146 237 63 41 209 147 62 127 83 54 104 48 56
is_linear=0
shrinkage=0.05


Tree=2
num_leaves=16
num_cat=0
split_feature=0 1 4 2 4 3 1 1 1 1 0 2 2 0 2
split_gain=1.05985 0.409223 0.189306 0.181444 0.236728 0.172309 0.393443 0.198995 0.154168 0.172796 0.12912 0.200266 0.119847 0.0841318 0.00925748
threshold=0.85574889339525972 0.37140489740738319 0.4615577505941868 0.1580536839580472 0.53802795403501891 0.47962320926277235 0.53802795403501891 0.51346459955081669 0.2160005233204684 0.31290203004731698 0.45846143782298693 0.34485728614727118 0.5005560279976452 0.4241512396153595 0.44619611434552242
decision_type=2 2 2 2 2 2 2 2 2 2 2 2 2 2 2
left_child=1 2 10 -3 5 7 -7 13 -4 -10 11 -1 -6 -5 -9
right_child=-2 3 8 4 12 6 -8 14 9 -11 -12 -13 -14 -15 -16
leaf_value=9.5773935317993174e-05 0.0087810417637228973 0.0047417179046620045 0.002382786690511487 -0.0034403718199909612 -5.4437968879938126e-05 0.00037813704653546728 -0.0083787431120467583 0.0019479420163579994 -0.0061317479657009254 0.00036212697270370669 -0.0073199822037512885 -0.0060108517571593285 0.0045059358660022126 0.00022553847942115933 0.0034325841481664351
leaf_weight=25 30 21 22 34 25 29 23 21 20 21 29 29 34 29 21
leaf_count=25 30 21 22 34 25 29 23 21 20 21 29 29 34 29 21
internal_value=-0.00026912 -0.00097801 -0.00306033 0.000304772 -0.000126598 -0.00114131 -0.0034951 2.43717e-05 -0.000993793 -0.00280562 -0.00462891 -0.00318371 0.00257357 -0.00175289 0.00269026
internal_weight=413 383 146 237 216 157 52 105 63 41 83 54 59 63 42
internal_count=413 383 146 237 216 157 52 105 63 41 83 54 59 63 42
is_linear=0
shrinkage=0.05


Tree=3
num_leaves=17
num_cat=0
split_feature=0 1 0 1 4 0 4 1 3 0 2 4 4 3 0 1
split_gain=0.956516 0.369324 0.175308 0.245148 0.241764 0.214651 0.170848 0.139136 0.165762 0.11653 0.18074 0.100585 0.0818377 0.148887 0.0691807 0.0722793
threshold=0.85574889339525972 0.37140489740738319 0.27578988683194877 0.59353263121170508 0.20919735723163477 0.35640304398072442 0.4615577505941868 0.2160005233204684 0.44123547240574784 0.45846143782298693 0.34485728614727118 0.33022611805237573 0.53364514511240502 0.49503390680534665 0.55662763568173401 0.49799393820457477
decision_type=2 2 2 2 2 2 2 2 2 2 2 2 2 2 2 2
left_child=1 6 3 -3 -4 -6 9 -8 -9 10 -1 -7 14 -14 15 -13
right_child=-2 2 4 -5 5 11 7 8 -10 -11 -12 12 13 -15 -16 -17
leaf_value=9.0985268354415902e-05 0.0083419895047942803 -0.00034249998507616318 -0.005416837769250075 0.0072265207767486577 -0.003363334302875129 0.0037997691871299016 0.0022636472882533619 -0.0057679394880930587 0.00059239787049591552 -0.0069539830345531992 -0.0057103090429807025 0.00029897369322893418 0.0047845745692029597 -0.001056649573147297 0.0017479275087160723 -0.0036234658139316402
leaf_weight=25 30 23 21 20 33 28 22 21 20 29 29 23 24 20 21 24
leaf_count=25 30 23 21 20 33 28 22 21 20 29 29 23 24 20 21 24
internal_value=-0.000255664 -0.00092911 0.000289533 0.00317797 -0.000350689 0.000264277 -0.00290732 -0.000944104 -0.00266534 -0.00439747 -0.00302452 0.00111936 0.000449254 0.00212947 -0.000637946 -0.00170397
internal_weight=413 383 237 43 194 173 146 63 41 83 54 140 112 44 68 47
internal_count=413 383 237 43 194 173 146 63 41 83 54 140 112 44 68 47
is_linear=0
shrinkage=0.05


Tree=4
num_leaves=16
num_cat=0
split_feature=0 1 0 3 1 0 4 1 1 1 0 2 0 2 1
split_gain=0.863256 0.333315 0.15905 0.157832 0.279359 0.275779 0.154191 0.141394 0.125571 0.154764 0.105169 0.163118 0.0895885 0.0379504 0.0377488
threshold=0.85574889339525972 0.37140489740738319 0.22959595298837795 0.51388979743136887 0.5182289963149519 0.64752185953206431 0.4615577505941868 0.61929526176925942 0.2160005233204684 0.31290203004731698 0.45846143782298693 0.34485728614727118 0.4241512396153595 0.39909727219205871 0.4677176686073134
decision_type=2 2 2 2 2 2 2 2 2 2 2 2 2 2 2
left_child=1 6 -3 5 -5 7 10 12 -8 -10 11 -1 14 -14 -4
right_child=-2 2 3 4 -6 -7 8 -9 9 -11 -12 -13 13 -15 -16
leaf_value=8.6435966193676005e-05 0.007924890300879877 0.0034400363028159035 -0.0040613814944994052 0.0013644351761926104 -0.0054934214751207917 0.0060933235147967932 0.0021504648326134139 0.0032974708440673094 -0.0056798711698502306 0.00046583736492764385 -0.0066062838073964389 -0.0054247937422117285 0.0021014482381620579 -0.00073260076180169434 -0.0013345943732808035
leaf_weight=25 30 34 22 27 33 20 22 23 20 21 29 29 21 27 30
leaf_count=25 30 34 22 27 33 20 22 23 20 21 29 29 21 27 30
internal_value=-0.000242881 -0.000882654 0.000275056 -0.000255039 -0.00240739 0.000648044 -0.00276195 -0.000237367 -0.000896899 -0.00253207 -0.00417759 -0.0028733 -0.00105038 0.000507296 -0.00248824
internal_weight=413 383 237 203 60 143 146 123 63 41 83 54 100 48 52
internal_count=413 383 237 203 60 143 146 123 63 41 83 54 100 48 52
is_linear=0
shrinkage=0.05


Tree=5
num_leaves=16
num_cat=0
split_feature=0 0 1 0 0 0 0 1 2 4 3 3 0 4 0
split_gain=0.670529 0.500638 0.223034 0.179008 0.198212 0.187515 0.141802 0.140483 0.14912 0.104297 0.0843406 0.0671459 0.0513381 0.0482018 0.118134
threshold=0.82948474738884903 0.14812149756874038 0.35065742133839217 0.68311855389110587 0.58654412245698972 0.2833889361330979 0.33195961710385735 0.19282178757549989 0.51388979743136887 0.29966638320141309 0.59353263121170508 0.48670984060530742 0.42673513442794531 0.37892762914022809 0.4518109068707617
decision_type=2 2 2 2 2 2 2 2 2 2 2 2 2 2 2
left_child=1 -1 7 4 5 -4 -7 -3 11 -8 13 12 -9 -11 -15
right_child=-2 2 3 -5 -6 6 9 8 -10 10 -12 -13 -14 14 -16
leaf_value=0.0055615816666776769 0.0076986531242728244 9.219556481444411e-05 0.0030623435290181079 -0.0048866420128615574 0.0047987713245674973 -0.0047633055354590007 -0.0029696461683973514 -0.0026199092778066797 -0.0077726471028290696 0.0013756416030228139 0.0030873048119246962 -0.00066374694604588594 -0.0058902959339320665 -0.0040343709300150691 0.00057851544714399743
leaf_weight=29 25 28 32 20 20 23 33 30 20 25 21 23 20 23 35
leaf_count=29 25 28 32 20 20 23 33 30 20 25 21 23 20 23 35
internal_value=-0.000234456 -0.000753638 -0.00127245 -0.000364805 6.17831e-05 -0.000431653 -0.00113045 -0.00301273 -0.00394755 -0.000520557 0.000256557 -0.00289958 -0.00392806 -0.000459656 -0.00125073
internal_weight=407 382 353 232 212 192 160 121 93 137 104 73 50 83 58
internal_count=407 382 353 232 212 192 160 121 93 137 104 73 50 83 58
is_linear=0
shrinkage=0.05


Tree=6
num_leaves=16
num_cat=0
split_feature=0 0 1 0 0 0 0 1 2 3 2 0 3 3 0
split_gain=0.605153 0.451826 0.201288 0.161555 0.178886 0.169232 0.127976 0.126786 0.13458 0.0993992 0.122504 0.0892552 0.0667633 0.0605992 0.0463326
threshold=0.82948474738884903 0.14812149756874038 0.35065742133839217 0.68311855389110587 0.58654412245698972 0.2833889361330979 0.33195961710385735 0.19282178757549989 0.51388979743136887 0.39027714179804196 0.35640304398072442 0.43963280347135913 0.45139661149996735 0.48670984060530742 0.42673513442794531
decision_type=2 2 2 2 2 2 2 2 2 2 2 2 2 2 2
left_child=1 -1 7 4 5 -4 -7 -3 13 11 -11 -8 -12 14 -9
right_child=-2 2 3 -5 -6 6 9 8 -10 10 12 -13 -14 -15 -16
leaf_value=0.0052835028071121053 0.0073137203939259059 8.7585757553045247e-05 0.0029092263233906125 -0.0046423098334344107 0.0045588327664881946 -0.0045251402760977336 -0.0043821094184143781 -0.0024889137937376899 -0.0073840146814472974 0.0040611740318126982 0.0018404724332503975 -0.00044565309977365864 -0.0017451174563501736 -0.00063055953132393574 -0.0055957811092957853
leaf_weight=29 25 28 32 20 20 23 24 30 20 20 20 36 37 23 20
leaf_count=29 25 28 32 20 20 23 24 30 20 20 20 36 37 23 20
internal_value=-0.000222733 -0.000715956 -0.00120883 -0.000346565 5.86939e-05 -0.000410071 -0.00107393 -0.0028621 -0.00375017 -0.00049453 0.000694332 -0.00202024 -0.000487016 -0.0027546 -0.00373166
internal_weight=407 382 353 232 212 192 160 121 93 137 77 60 57 73 50
internal_count=407 382 353 232 212 192 160 121 93 137 77 60 57 73 50
is_linear=0
shrinkage=0.05


Tree=7
num_leaves=16
num_cat=0
split_feature=0 0 3 3 2 3 1 2 0 2 4 4 2 2 3
split_gain=0.546151 0.407773 0.186645 0.327471 0.125583 0.176017 0.233497 0.198404 0.150689 0.146741 0.100512 0.0962584 0.119757 0.0558416 0.0173284
threshold=0.82948474738884903 0.14812149756874038 0.78386864656243882 0.62634918558252117 0.20841237652907704 0.4436994396109985 0.52214299731798275 0.44619611434552242 0.33497961230675305 0.52178321449597709 0.52178321449597709 0.33115283138178414 0.437921109439393 0.35065742133839217 0.51801094611979692
decision_type=2 2 2 2 2 2 2 2 2 2 2 2 2 2 2
left_child=1 -1 3 4 -3 6 8 -8 -6 13 11 -10 -13 -7 -15
right_child=-2 2 -4 -5 5 9 7 -9 10 -11 -12 12 -14 14 -16
leaf_value=0.0050193277508791155 0.0069480348490178591 0.0017119352502519296 -0.0049209106899797926 0.0042710887107612755 -0.0045302469283342367 -0.00044758849398931491 -0.0011162433921444144 0.0054574166783519715 0.00061915595239649221 -0.0072604071823298005 0.00202891253575217 -0.00072936511841481142 -0.0060196088650263848 -0.0025026127198626374 -0.0045361286518163981
leaf_weight=29 25 31 30 29 37 24 22 24 27 20 24 23 20 22 20
leaf_count=29 25 31 30 29 37 24 22 24 27 20 24 23 20 22 20
internal_value=-0.000211596 -0.000680158 -0.00114839 -0.000797999 -0.00129801 -0.0016528 -0.000751158 0.00231349 -0.00182729 -0.00350849 -0.000763367 -0.00172072 -0.00318994 -0.00237155 -0.00347095
internal_weight=407 382 353 323 294 263 177 46 131 86 94 70 43 66 42
internal_count=407 382 353 323 294 263 177 46 131 86 94 70 43 66 42
is_linear=0
shrinkage=0.05


Tree=8
num_leaves=16
num_cat=0
split_feature=4 1 0 0 0 0 0 2 1 1 4 0 4 3 0
split_gain=0.50758 0.370695 0.241888 0.260866 0.143806 0.259341 0.133693 0.093151 0.0780806 0.0967394 0.112438 0.0866508 0.0717559 0.0624163 0.0253439
threshold=0.13422079762761391 0.35065742133839217 0.76430136717472374 0.2160005233204684 0.45846143782298693 0.35313229105340055 0.32548352630775618 0.31290203004731698 0.6787575499880073 0.52214299731798275 0.36310808748173834 0.4241512396153595 0.43212097424827201 0.33448899936765442 0.26104969363947583
decision_type=2 2 2 2 2 2 2 2 2 2 2 2 2 2 2
left_child=-1 4 3 -3 5 7 -5 -2 9 11 -11 -8 -13 -6 -9
right_child=1 2 -4 6 13 -7 8 14 -10 10 -12 12 -14 -15 -16
leaf_value=0.0062952747244188305 -0.00040754015557467935 0.0043335135498394567 0.0056065757138033714 -0.0035757315443885151 -0.002747559950997432 0.0031526966232129118 -0.0026518238839003064 -0.0058453206671401862 -0.002713052429802095 -0.00027713110479949554 0.0047227170627118786 0.0024184813660602751 -0.0010474536014953629 -0.0062780122573096913 -0.0033281827042810617
leaf_weight=28 20 30 21 33 21 22 32 20 24 22 23 28 32 31 20
leaf_count=28 20 30 21 33 21 22 32 20 24 22 23 28 32 31 20
internal_value=-0.000201016 -0.000680954 0.000475499 -5.53922e-06 -0.00279536 -0.00149099 -0.000676527 -0.00319368 -8.22798e-05 0.000378585 0.00227835 -0.000550646 0.000569983 -0.00485225 -0.00458675
internal_weight=407 379 245 224 134 82 194 60 161 137 45 92 60 52 40
internal_count=407 379 245 224 134 82 194 60 161 137 45 92 60 52 40
is_linear=0
shrinkage=0.05


Tree=9
num_leaves=16
num_cat=0
split_feature=0 0 3 3 1 1 2 0 1 1 0 0 3 3 4
split_gain=0.468548 0.351038 0.171126 0.300633 0.111396 0.232341 0.179826 0.13621 0.0971309 0.0730528 0.0866449 0.074703 0.0656718 0.0379834 0.0285383
threshold=0.82948474738884903 0.14812149756874038 0.78386864656243882 0.62634918558252117 0.19282178757549989 0.35065742133839217 0.42505614792525243 0.27578988683194877 0.6787575499880073 0.54067726390615134 0.4241512396153595 0.4799175770262315 0.42987505723817626 0.39909727219205871 0.44123547240574784
decision_type=2 2 2 2 2 2 2 2 2 2 2 2 2 2 2
left_child=1 -1 3 4 -3 6 12 -7 9 10 13 -12 -6 -9 -13
right_child=-2 2 -4 -5 5 7 -8 8 -10 -11 11 14 -14 -15 -16
leaf_value=0.0046631852823213254 0.0064405329502187671 0.0023994167451746764 -0.0046716786983112503 0.0041330337548499988 -0.0033719009336303264 0.0031946215175346218 -0.0069364368923873244 -0.0040298975257498501 -0.003864731082576327 0.0015372155023642871 0.0026088774757226929 8.5883971769362696e-05 0.00018434474685428932 -0.0011315933940932155 -0.0024714652402326467
leaf_weight=29 25 20 30 29 34 22 28 26 25 34 20 24 21 20 20
leaf_count=29 25 20 30 29 34 22 28 26 25 34 20 24 21 20 20
internal_value=-0.000190966 -0.000624964 -0.0010594 -0.000723896 -0.00120298 -0.00146593 -0.00367462 -0.000506131 -0.000987886 -0.000488433 -0.00111454 7.51478e-05 -0.00201406 -0.00276977 -0.00107655
internal_weight=407 382 353 323 294 274 83 191 169 144 110 64 55 46 44
internal_count=407 382 353 323 294 274 83 191 169 144 110 64 55 46 44
is_linear=0
shrinkage=0.05


Tree=10
num_leaves=18
num_cat=0
split_feature=0 0 4 3 2 0 2 3 3 1 2 2 3 3 1 3 3
split_gain=0.491492 0.407228 0.241572 0.211578 0.173671 0.157828 0.240105 0.141078 0.117186 0.115852 0.0973455 0.136268 0.262599 0.133026 0.056737 0.0531239 0.0400204
threshold=0.80711279736595387 0.081016550009812296 0.52555548287215725 0.20955714005364037 0.52178321449597709 0.27775233858834308 0.46559167920455291 0.49285885610867625 0.51388979743136887 0.26104969363947583 0.47724646213558364 0.34898933734545701 0.44123547240574784 0.51272322888728994 0.4241512396153595 0.32020671158500691 0.39027714179804196
decision_type=2 2 2 2 2 2 2 2 2 2 2 2 2 2 2 2 2
left_child=1 -1 3 -3 9 -4 14 -8 -6 -5 11 12 15 16 -7 -11 -13
right_child=-2 2 5 4 8 6 7 -9 -10 10 -12 13 -14 -15 -16 -17 -18
leaf_value=0.0065746714267879737 0.005998889497961059 0.0026682387983713012 0.0050267754799940374 -0.0047416989757700576 -0.0027175277269755804 -0.0043981022061780096 0.0056607941123233601 -0.00014147721696645022 -0.007658547970349901 -0.00062134408624842769 0.0023910822294419634 -0.0030277629510410842 0.0038055289745459273 -0.0064023096242453907 -0.000631902685854584 -0.0042656523920595645 2.3813163649968126e-05
leaf_weight=20 33 26 22 22 30 20 22 20 20 20 20 21 29 20 20 20 22
leaf_count=20 33 26 22 22 30 20 22 20 20 20 20 21 29 20 20 20 22
internal_value=0.00014951 -0.000366612 -0.000758775 -0.00160121 -0.00209677 0.00126632 0.000257413 0.00289781 -0.00469394 -0.00135046 -0.000859627 -0.00135216 0.000182905 -0.00303342 -0.002515 -0.0024435 -0.00146649
internal_weight=407 374 354 250 224 104 82 42 50 174 152 132 69 63 40 40 43
internal_count=407 374 354 250 224 104 82 42 50 174 152 132 69 63 40 40 43
is_linear=0
shrinkage=0.05


Tree=11
num_leaves=17
num_cat=0
split_feature=0 0 4 3 2 0 2 3 3 1 0 2 3 2 1 1
split_gain=0.443571 0.367523 0.218018 0.190949 0.156738 0.14244 0.216695 0.127323 0.10576 0.104557 0.0966237 0.0881576 0.288684 0.150211 0.1033 0.0512052
threshold=0.80711279736595387 0.081016550009812296 0.52555548287215725 0.20955714005364037 0.52178321449597709 0.27775233858834308 0.46559167920455291 0.49285885610867625 0.51388979743136887 0.26104969363947583 0.27001155666034327 0.35065742133839217 0.42987505723817626 0.46334576219445722 0.44168247530581545 0.4241512396153595
decision_type=2 2 2 2 2 2 2 2 2 2 2 2 2 2 2 2
left_child=1 -1 3 -3 9 -4 15 -8 -6 -5 -11 12 -12 14 -13 -7
right_child=-2 2 5 4 8 6 7 -9 -10 10 11 13 -14 -15 -16 -17
leaf_value=0.0062459377432242044 0.0056989450255059641 0.0025348269407494137 0.0047754367305473848 -0.0045046140381600711 -0.0025816513205063531 -0.0041781972814351328 0.0053777544740693309 -0.00013440325390547513 -0.0072756206334452156 -0.0034695518964976409 -0.0019666080347037519 -0.00040310436642080867 0.0055344045364662357 0.0020923429295759311 -0.0049630543424023527 -0.00060030751163139948
leaf_weight=20 33 26 22 22 30 20 22 20 20 28 29 23 23 22 27 20
leaf_count=20 33 26 22 22 30 20 22 20 20 28 29 23 23 22 27 20
internal_value=0.000142034 -0.000348281 -0.000720836 -0.00152115 -0.00199194 0.001203 0.000244542 0.00275292 -0.00445924 -0.00128294 -0.000816645 -0.000217602 0.00135115 -0.00135059 -0.00286548 -0.00238925
internal_weight=407 374 354 250 224 104 82 42 50 174 152 124 52 72 50 40
internal_count=407 374 354 250 224 104 82 42 50 174 152 124 52 72 50 40
is_linear=0
shrinkage=0.05


Tree=12
num_leaves=16
num_cat=0
split_feature=1 0 0 3 3 1 2 2 3 3 0 4 2 1 4
split_gain=0.413264 0.262167 0.189461 0.149719 0.377254 0.090751 0.295526 0.358851 0.262807 0.204944 0.134282 0.133583 0.108104 0.0627891 0.0545043
threshold=0.65808639148732062 0.71738514205970227 0.34485728614727118 0.78386864656243882 0.65258062405965855 0.35065742133839217 0.56388870718039297 0.47039968600771903 0.46334576219445722 0.20955714005364037 0.43082357558710022 0.53802795403501891 0.2833889361330979 0.45846143782298693 0.38739887922199695
decision_type=2 2 2 2 2 2 2 2 2 2 2 2 2 2 2
left_child=3 2 -2 4 5 6 7 8 10 -7 -1 12 -11 -14 -15
right_child=1 -3 -4 -5 -6 9 -8 -9 -10 11 -12 -13 13 14 -16
leaf_value=-0.0021789695260564 0.0054360445425845685 0.0084853555448353296 -0.00088973571686877008 -0.0042302963395531362 0.0061909609341195652 0.0045061239443550056 -0.0073419895283586807 0.0048039657018228397 0.0022288349416592847 0.0018067568219045087 -0.0071640393315729779 0.0023033815979336698 -0.00054797560190530243 -0.0045656616017367927 -0.0014836247938756761
leaf_weight=35 20 20 29 26 21 22 20 23 23 21 22 30 37 32 26
leaf_count=35 20 20 29 26 21 22 20 23 23 21 22 30 37 32 26
internal_value=0.000134932 0.00366124 0.00169222 -0.000584935 -0.000281155 -0.000748215 -0.00178015 -0.000700178 -0.00228262 7.30687e-06 -0.00410303 -0.000670597 -0.00143973 -0.00215737 -0.00318406
internal_weight=407 69 49 338 312 291 123 103 80 168 57 146 116 95 58
internal_count=407 69 49 338 312 291 123 103 80 168 57 146 116 95 58
is_linear=0
shrinkage=0.05


Tree=13
num_leaves=16
num_cat=0
split_feature=0 0 4 1 3 0 2 2 3 0 3 2 3 2 1
split_gain=0.386798 0.322089 0.159226 0.159256 0.164139 0.136591 0.177852 0.108645 0.110424 0.089775 0.0881605 0.0780358 0.254394 0.131118 0.0929949
threshold=0.78386864656243882 0.081016550009812296 0.52555548287215725 0.25762630557554361 0.20955714005364037 0.27775233858834308 0.46559167920455291 0.52178321449597709 0.437921109439393 0.27001155666034327 0.49285885610867625 0.35065742133839217 0.42987505723817626 0.46334576219445722 0.44168247530581545
decision_type=2 2 2 2 2 2 2 2 2 2 2 2 2 2 2
left_child=1 -1 3 -3 -5 -4 -7 9 -9 -6 -8 12 -11 14 -13
right_child=-2 2 5 4 7 6 10 8 -10 11 -12 13 -14 -15 -16
leaf_value=0.0057967243785969919 0.0048630402614481946 -0.0047596514540454073 0.0044355540726841855 0.0032726482133425419 -0.0033023849046523016 -0.0025386338084432726 0.0045054132495785043 -0.0010617522879990495 -0.0060713778249919421 -0.0018063424139058795 -0.0001330528175458312 -0.0003127835245560045 0.0052351048945084864 0.0019829188600521195 -0.0046393043110482621
leaf_weight=20 39 31 22 21 28 37 21 22 22 29 20 23 23 22 27
leaf_count=20 39 31 22 21 28 37 21 22 22 29 20 23 23 22 27
internal_value=0.000128186 -0.000373606 -0.000728222 -0.00140737 -0.000928468 0.000956054 -2.5344e-05 -0.00137859 -0.00356657 -0.000745226 0.00224275 -0.000167803 0.00130814 -0.00123376 -0.0026491
internal_weight=407 368 348 248 217 100 78 196 44 152 41 124 52 72 50
internal_count=407 368 348 248 217 100 78 196 44 152 41 124 52 72 50
is_linear=0
shrinkage=0.05


Tree=14
num_leaves=18
num_cat=0
split_feature=1 0 0 4 3 3 2 2 3 3 4 0 2 1 4 2 4
split_gain=0.359487 0.226984 0.161361 0.137789 0.175519 0.239089 0.145971 0.179377 0.157208 0.138013 0.122213 0.113096 0.112212 0.088793 0.0746102 0.0541942 0.024844
threshold=0.65808639148732062 0.71738514205970227 0.34485728614727118 0.23312836614988777 0.76430136717472374 0.61929526176925942 0.48817077691284538 0.437921109439393 0.21180305706373609 0.37140489740738319 0.48670984060530742 0.43606768278057617 0.26104969363947583 0.48379887049998915 0.47039968600771903 0.36310808748173834 0.37140489740738319
decision_type=2 2 2 2 2 2 2 2 2 2 2 2 2 2 2 2 2
left_child=3 2 -2 15 5 6 7 9 -8 12 11 -10 -5 14 -11 -1 -14
right_child=1 -3 -4 4 -6 -7 8 -9 10 13 -12 -13 16 -15 -16 -17 -18
leaf_value=0.0040462717710761358 0.0050335686828475446 0.0078994095977395779 -0.00080428715506247403 -0.0059650997282005847 -0.0051154007315230765 0.0045587675778993543 0.0044210244014504406 -0.005774043311364949 0.00024670089643104407 -0.00025366000579730286 0.0022517424188554288 -0.004894304270674184 -0.0027468415553725902 -0.0023563108089464635 0.003559699622185334 0.00036543510854244234 -0.00041402715584263212
leaf_weight=20 20 20 29 20 23 21 21 25 23 29 25 20 21 22 23 20 25
leaf_count=20 20 20 29 20 23 21 21 25 23 29 25 20 21 22 23 20 25
internal_value=0.000121777 0.00341066 0.00157851 -0.000549622 -0.000919484 -0.000568553 -0.000992465 -0.00187278 0.000639585 -0.00117613 -0.000528212 -0.00214446 -0.00283843 0.000306461 0.00143302 0.00220585 -0.00147901
internal_weight=407 69 49 338 298 275 254 165 89 140 68 43 66 74 52 40 46
internal_count=407 69 49 338 298 275 254 165 89 140 68 43 66 74 52 40 46
is_linear=0
shrinkage=0.05


Tree=15
num_leaves=16
num_cat=0
split_feature=1 2 0 2 3 2 0 1 1 2 4 3 1 4 4
split_gain=0.332691 0.353405 0.302663 0.297798 0.258478 0.196385 0.151508 0.249894 0.127776 0.127558 0.120562 0.0680178 0.0461422 0.0360296 0.0126772
threshold=0.50827500490612953 0.55226663177863566 0.78608185604326131 0.50927803580384212 0.52555548287215725 0.35640304398072442 0.2833889361330979 0.6787575499880073 0.32548352630775618 0.49285885610867625 0.28444647957959929 0.37140489740738319 0.27775233858834308 0.53802795403501891 0.42879570877215939
decision_type=2 2 2 2 2 2 2 2 2 2 2 2 2 2 2
left_child=1 3 6 4 10 -6 -2 9 -3 -8 -1 12 -12 -13 -14
right_child=2 8 -4 -5 5 -7 7 -9 -10 -11 11 13 14 -15 -16
leaf_value=0.0014948083520047713 0.0045691888315979251 -0.0065793771312261627 0.007850707434117794 0.0052129031233489513 0.0061508957338942726 -0.00069488264387473474 5.9919791056017857e-05 -0.0032378026390109554 -0.0018829395262790578 0.0047264311428147337 -0.0014962871670528937 -0.0018331494540880637 -0.0033335625947940916 0.00078869512421078983 -0.0050327218517296664
leaf_weight=27 26 30 20 25 22 20 32 33 28 27 24 38 21 20 23
leaf_count=27 26 30 20 25 22 20 32 33 28 27 24 38 21 20 23
internal_value=0.000156114 -0.00084012 0.00216302 7.5229e-05 -0.000583447 0.002891 0.001199 0.000246561 -0.00431213 0.00219544 -0.00153722 -0.00218694 -0.00325983 -0.000929065 -0.00422176
internal_weight=416 278 138 220 195 42 118 92 58 59 153 126 68 58 44
internal_count=416 278 138 220 195 42 118 92 58 59 153 126 68 58 44
is_linear=0
shrinkage=0.05


Tree=16
num_leaves=16
num_cat=0
split_feature=1 2 0 2 3 2 0 1 1 2 4 3 1 3 4
split_gain=0.300254 0.318948 0.273153 0.268762 0.233277 0.177238 0.136736 0.22553 0.115318 0.115121 0.108807 0.0613861 0.0416434 0.0345916 0.0114412
threshold=0.50827500490612953 0.55226663177863566 0.78608185604326131 0.50927803580384212 0.52555548287215725 0.35640304398072442 0.2833889361330979 0.6787575499880073 0.32548352630775618 0.49285885610867625 0.28444647957959929 0.37140489740738319 0.27775233858834308 0.47039968600771903 0.42879570877215939
decision_type=2 2 2 2 2 2 2 2 2 2 2 2 2 2 2
left_child=1 3 6 4 10 -6 -2 9 -3 -8 -1 12 -12 -13 -14
right_child=2 8 -4 -5 5 -7 7 -9 -10 -11 11 13 14 -15 -16
leaf_value=0.0014200679470646989 0.0043407293582836603 -0.0062504083539048835 0.0074581721122376626 0.0049522579731419688 0.005843350985510783 -0.00066013854579068717 5.692382196684776e-05 -0.0030759125185961076 -0.0017887925903778525 0.0044901096486245039 -0.0014214728250711538 3.2464154125926528e-06 -0.003166884547542958 -0.0025657426158431917 -0.0047810856475616285
leaf_weight=27 26 30 20 25 22 20 32 33 28 27 24 38 21 20 23
leaf_count=27 26 30 20 25 22 20 32 33 28 27 24 38 21 20 23
internal_value=0.000148308 -0.000798114 0.00205487 7.14675e-05 -0.000554275 0.00274645 0.00113905 0.000234233 -0.00409652 0.00208567 -0.00146036 -0.00207759 -0.00309684 -0.000882612 -0.00401067
internal_weight=416 278 138 220 195 42 118 92 58 59 153 126 68 58 44
internal_count=416 278 138 220 195 42 118 92 58 59 153 126 68 58 44
is_linear=0
shrinkage=0.05


Tree=17
num_leaves=18
num_cat=0
split_feature=1 2 0 2 3 0 4 4 2 1 0 0 2 4 0 4 0
split_gain=0.270979 0.28785 0.246521 0.242558 0.217305 0.338627 0.124513 0.124181 0.106912 0.104074 0.0806493 0.0762239 0.0588099 0.0544874 0.0376893 0.0268412 0.0574229
threshold=0.50827500490612953 0.55226663177863566 0.78608185604326131 0.50927803580384212 0.46334576219445722 0.30120363707725528 0.57713525653605469 0.21086544122456993 0.7248969712827894 0.32548352630775618 0.4677176686073134 0.53364514511240502 0.35640304398072442 0.35041756612372177 0.28205882994265286 0.43475938160964661 0.4241512396153595
decision_type=2 2 2 2 2 2 2 2 2 2 2 2 2 2 2 2 2
left_child=1 3 7 4 6 -6 11 -2 10 -3 13 14 -7 -9 -1 16 -16
right_child=2 9 -4 -5 5 12 -8 8 -10 -11 -12 -13 -14 -15 15 -17 -18
leaf_value=-0.0036550658626947549 -0.0024039439014380891 -0.005937887934948473 0.0070852635242044928 0.0047046451028436428 0.0068406733726574624 0.001099681881411622 -0.0053913910221308472 0.0043168750847689804 0.0049017180477015001 -0.0016993529429393157 -0.00081504064998755765 0.0016074352432042362 -0.0024006134972296422 0.00062609466614958363 -0.0001092392374717054 0.00019870767187651087 -0.0038527565327240152
leaf_weight=20 21 30 20 25 22 24 20 20 22 28 35 21 24 20 21 23 20
leaf_count=20 21 30 20 25 22 24 20 20 22 28 35 21 24 20 21 23 20
internal_value=0.000140893 -0.000758208 0.00195212 6.78941e-05 -0.000526561 0.00170389 -0.00177562 0.0010821 0.00183681 -0.0038917 0.000937773 -0.0010869 -0.000650466 0.00247148 -0.00176048 -0.00116842 -0.00193535
internal_weight=416 278 138 220 195 70 125 118 97 58 75 105 48 40 84 64 41
internal_count=416 278 138 220 195 70 125 118 97 58 75 105 48 40 84 64 41
is_linear=0
shrinkage=0.05


Tree=18
num_leaves=15
num_cat=0
split_feature=1 2 0 2 3 0 0 1 4 2 1 2 0 2
split_gain=0.244559 0.259785 0.222485 0.220456 0.209669 0.362238 0.119148 0.20011 0.104941 0.0992775 0.0939269 0.0656404 0.0608426 0.0449811
threshold=0.50827500490612953 0.55226663177863566 0.78608185604326131 0.50403392861036622 0.45899566080111642 0.27775233858834308 0.2833889361330979 0.6787575499880073 0.50927803580384212 0.49285885610867625 0.32548352630775618 0.39027714179804196 0.50500425197880561 0.36099300058873557
decision_type=2 2 2 2 2 2 2 2 2 2 2 2 2 2
left_child=1 3 6 4 8 -6 -2 9 12 -8 -3 -7 13 -1
right_child=2 10 -4 -5 5 11 7 -9 -10 -11 -12 -13 -14 -15
leaf_value=-0.0028313168532469336 0.004016678410250908 -0.0056409933588777985 0.0067310003377497197 0.0041264718282036485 0.0070963601337834491 0.00072009345749393108 4.3368788578845854e-05 -0.0029346565446096728 -0.0042482910642513269 0.0041602139887227507 -0.0016143852927988128 -0.0029313738405471672 0.001146227600052953 9.5941697839986194e-06
leaf_weight=38 26 30 20 29 21 32 32 33 33 27 28 20 25 22
leaf_count=38 26 30 20 29 21 32 32 33 33 27 28 20 25 22
internal_value=0.000133848 -0.000720298 0.00185452 6.44994e-05 -0.00055224 0.00155396 0.001028 0.000183369 -0.00185523 0.00192735 -0.00369711 -0.000684317 -0.000926156 -0.00178965
internal_weight=416 278 138 220 191 73 118 92 118 59 58 52 85 60
internal_count=416 278 138 220 191 73 118 92 118 59 58 52 85 60
is_linear=0
shrinkage=0.05


Tree=19
num_leaves=17
num_cat=0
split_feature=1 2 4 0 2 3 4 2 1 4 0 1 2 2 2 4
split_gain=0.220714 0.234456 0.203866 0.200793 0.1459 0.131925 0.108995 0.0943879 0.084769 0.0847579 0.0802442 0.118645 0.0787985 0.0643076 0.0454939 0.0239205
threshold=0.50827500490612953 0.55226663177863566 0.20129303765726872 0.78608185604326131 0.50403392861036622 0.59353263121170508 0.21086544122456993 0.7248969712827894 0.32548352630775618 0.61929526176925942 0.38493491201674629 0.31019820762739592 0.28899282614857946 0.47724646213558364 0.31904014304092809 0.42987505723817626
decision_type=2 2 2 2 2 2 2 2 2 2 2 2 2 2 2 2
left_child=1 2 -1 6 5 9 -2 12 -3 10 11 -4 -8 -14 -12 -16
right_child=3 8 4 -5 -6 -7 7 -9 -10 -11 14 -13 13 -15 15 -17
leaf_value=0.0045157871614007845 -0.0022893474126855534 -0.0053589436964830393 -5.6311183392868515e-05 0.0063944504782557495 0.0032838264384064016 0.0028668448247481139 0.0032758067047562577 0.0045634517488493164 -0.0015336659770192845 -0.0044859076454304165 0.0015872077752525607 -0.004581833748767773 -0.0018668323655999432 0.0016602702104895192 0.00012947714154142885 -0.0021595671900459345
leaf_weight=23 21 30 28 20 23 20 23 22 28 20 30 30 28 24 25 21
leaf_count=23 21 30 28 20 23 20 23 22 28 20 30 30 28 24 25 21
internal_value=0.000127156 -0.000684283 6.12745e-05 0.00176179 -0.000458796 -0.00095351 0.000976596 0.00168366 -0.00351226 -0.00144966 -0.000996489 -0.0023971 0.000838916 -0.000238939 7.2398e-05 -0.000915521
internal_weight=416 278 220 138 197 174 118 97 58 154 134 58 75 52 76 46
internal_count=416 278 220 138 197 174 118 97 58 154 134 58 75 52 76 46
is_linear=0
shrinkage=0.05


Tree=20
num_leaves=16
num_cat=0
split_feature=3 2 4 4 0 3 3 2 1 1 4 1 2 1 4
split_gain=0.20405 0.24772 0.337319 0.251031 0.303395 0.185341 0.135422 0.0805317 0.058763 0.0726823 0.0665483 0.137578 0.0910583 0.0442113 0.0265947
threshold=0.14656243867338267 0.20841237652907704 0.48670984060530742 0.53802795403501891 0.64752185953206431 0.6787575499880073 0.51388979743136887 0.49285885610867625 0.26104969363947583 0.41449161596999634 0.25510782582150421 0.53117027539739659 0.50927803580384212 0.37559146115435771 0.44619611434552242
decision_type=2 2 2 2 2 2 2 2 2 2 2 2 2 2 2
left_child=-1 2 -2 4 8 6 7 -5 -3 13 -11 12 -12 14 -10
right_child=1 3 -4 5 -6 -7 -8 -9 9 10 11 -13 -14 -15 -16
leaf_value=0.0048523633376411773 0.006296640731549512 -0.0040224801951778992 -0.0019325385734555315 0.00014379620391490131 0.0029500563777724491 0.0056339712165620025 -0.0030167854554019871 0.0042094450532680471 -0.0020260595032989327 -0.0050398005216958979 -0.0050005063114119423 0.00076354289532548961 -0.00081293663409139441 0.0014517020212397689 0.00023696579388342797
leaf_weight=23 33 31 20 29 36 23 20 21 37 21 34 31 21 21 20
leaf_count=23 33 31 20 29 36 23 20 21 37 21 34 31 21 21 20
internal_value=0.00027332 8.70244e-06 0.00319129 -0.000480217 -0.00129956 0.00173994 0.000460468 0.00185137 -0.00200783 -0.00167024 -0.0025164 -0.00190022 -0.00340162 -0.000509476 -0.00123202
internal_weight=421 398 53 345 252 93 70 50 216 185 107 86 55 78 57
internal_count=421 398 53 345 252 93 70 50 216 185 107 86 55 78 57
is_linear=0
shrinkage=0.05


Tree=21
num_leaves=16
num_cat=0
split_feature=3 2 3 4 0 3 3 2 2 3 1 1 4 4 1
split_gain=0.184155 0.223567 0.309049 0.226555 0.273814 0.167271 0.122219 0.0726799 0.0582796 0.104427 0.0566877 0.121362 0.0383595 0.0589188 0.039552
threshold=0.14656243867338267 0.20841237652907704 0.40940014391312884 0.53802795403501891 0.64752185953206431 0.6787575499880073 0.51388979743136887 0.49285885610867625 0.53329626480015702 0.47163166961034436 0.53117027539739659 0.47363773140576965 0.40219358496325858 0.47039968600771903 0.33195961710385735
decision_type=2 2 2 2 2 2 2 2 2 2 2 2 2 2 2
left_child=-1 2 -2 4 8 6 7 -5 10 -10 11 12 14 -14 -3
right_child=1 3 -4 5 -6 -7 -8 -9 9 -11 -12 -13 13 -15 -16
leaf_value=0.0046097452833276731 -0.0018726974749006331 -0.0016759321596639763 0.0060041030132472802 0.00013660639363886982 0.0028025535633787514 0.0053522728990925399 -0.0028659461799543356 0.0039989727593603584 -0.0013287131662544764 -0.0057874219424168894 0.00075162309641018516 -0.0053358788202915878 -0.0040458338985141984 -0.00046355755872685804 0.00068453467797048194
leaf_weight=23 20 35 33 29 36 23 20 21 29 24 25 21 24 22 36
leaf_count=23 20 35 33 29 36 23 20 21 29 24 25 21 24 22 36
internal_value=0.000259654 8.26734e-06 0.00303173 -0.000456206 -0.00123458 0.00165294 0.000437444 0.0017588 -0.00190744 -0.00334775 -0.00143911 -0.00183599 -0.0012078 -0.00233257 -0.000479076
internal_weight=421 398 53 345 252 93 70 50 216 53 163 138 117 46 71
internal_count=421 398 53 345 252 93 70 50 216 53 163 138 117 46 71
is_linear=0
shrinkage=0.05


Tree=22
num_leaves=16
num_cat=0
split_feature=3 2 4 4 0 3 0 3 4 3 2 2 0 2 4
split_gain=0.1662 0.201769 0.308253 0.206902 0.161191 0.127451 0.112918 0.109599 0.0559714 0.053638 0.121527 0.0946403 0.0386992 0.0383674 0.0949344
threshold=0.14656243867338267 0.20841237652907704 0.48670984060530742 0.47039968600771903 0.64752185953206431 0.6787575499880073 0.45846143782298693 0.34314559211530499 0.38493491201674629 0.40940014391312884 0.52178321449597709 0.39027714179804196 0.50500425197880561 0.34898933734545701 0.29966638320141309
decision_type=2 2 2 2 2 2 2 2 2 2 2 2 2 2 2
left_child=-1 2 -2 4 6 7 8 -5 13 -9 11 -11 -8 -3 -15
right_child=1 3 -4 5 -6 -7 12 9 -10 10 -12 -13 -14 14 -16
leaf_value=0.0043792580294868223 0.0058486871181451013 0.0011560648176819088 -0.0020179647789336742 0.0027927628281759101 0.0019106944371014836 0.0041097480631260962 -0.0056675403285771607 -0.0028329820372164252 -0.0029427735833451154 -0.00075050003237265629 -0.0028298179310260584 0.0040554076898843055 -0.0029243941609618362 -0.0032099885956368189 0.00083574973596741678
leaf_weight=23 33 25 20 32 30 27 20 21 32 20 23 21 36 29 29
leaf_count=23 33 25 20 32 30 27 20 21 32 20 23 21 36 29 29
internal_value=0.000246672 7.85399e-06 0.00288014 -0.000433396 -0.00146979 0.00101324 -0.00206286 0.000298663 -0.00116626 -0.000640293 7.91836e-05 0.00171106 -0.00390409 -0.000481341 -0.00118712
internal_weight=421 398 53 345 201 144 171 117 115 85 64 41 56 83 58
internal_count=421 398 53 345 201 144 171 117 115 85 64 41 56 83 58
is_linear=0
shrinkage=0.05


Tree=23
num_leaves=16
num_cat=0
split_feature=3 2 3 4 0 3 3 2 1 1 4 1 2 1 0
split_gain=0.149995 0.182097 0.282572 0.186881 0.229619 0.139252 0.109675 0.0663704 0.0519061 0.061353 0.0579584 0.119019 0.08071 0.0397778 0.0268629
threshold=0.14656243867338267 0.20841237652907704 0.40940014391312884 0.53802795403501891 0.64752185953206431 0.6787575499880073 0.51388979743136887 0.49285885610867625 0.26104969363947583 0.41449161596999634 0.25510782582150421 0.53117027539739659 0.50927803580384212 0.37559146115435771 0.39294825668868977
decision_type=2 2 2 2 2 2 2 2 2 2 2 2 2 2 2
left_child=-1 2 -2 4 8 6 7 -5 -3 13 -11 12 -12 14 -10
right_child=1 3 -4 5 -6 -7 -8 -9 9 10 11 -13 -14 -15 -16
leaf_value=0.0041602950867103495 -0.0019534973544068635 -0.0036282992388512341 0.0055783318849562703 9.6364182837564371e-05 0.0025783264353877815 0.0048791717535451706 -0.002734457370679593 0.0037872745877220518 -0.0020305057781496868 -0.0045498937678833803 -0.0045216964763205719 0.00085765812546014788 -0.0005792496537434913 0.0015091612691148408 0.0001487905320783074
leaf_weight=23 20 31 33 29 36 23 20 21 31 21 34 31 21 21 26
leaf_count=23 20 31 33 29 36 23 20 21 31 21 34 31 21 21 26
internal_value=0.000234338 7.46126e-06 0.00273613 -0.000411726 -0.00111867 0.00150386 0.000394831 0.00164655 -0.00173483 -0.00141755 -0.00219497 -0.00161994 -0.0030164 -0.000351086 -0.00103644
internal_weight=421 398 53 345 252 93 70 50 216 185 107 86 55 78 57
internal_count=421 398 53 345 252 93 70 50 216 185 107 86 55 78 57
is_linear=0
shrinkage=0.05


Tree=24
num_leaves=18
num_cat=0
split_feature=3 2 4 4 4 0 2 3 3 0 4 4 3 0 3 3 3
split_gain=0.135371 0.164342 0.281693 0.174032 0.13379 0.281204 0.185003 0.101655 0.0956186 0.0896717 0.103972 0.0496938 0.0752594 0.0361339 0.0358067 0.0351946 0.00628168
threshold=0.14656243867338267 0.20841237652907704 0.48670984060530742 0.47039968600771903 0.40940014391312884 0.64752185953206431 0.55787052179411722 0.6787575499880073 0.34314559211530499 0.2993502104184384 0.29966638320141309 0.57312313294520412 0.49503390680534665 0.43082357558710022 0.44619611434552242 0.42987505723817626 0.40391618150498249
decision_type=2 2 2 2 2 2 2 2 2 2 2 2 2 2 2 2 2
left_child=-1 2 -2 4 5 6 9 8 -5 -3 16 14 -13 -12 -10 -6 -11
right_child=1 3 -4 7 15 -7 -8 -9 11 10 13 12 -14 -15 -16 -17 -18
leaf_value=0.0039522803388535978 0.0054371021786761113 0.0015591984752973077 -0.0020830056560225785 0.0026270487520378086 -0.0053910620091482996 0.0045612256614152684 -0.0055155301039728028 0.0037010592844496761 -0.0008874913631007075 -0.0039762062273803172 -0.0012297800049141405 0.0002692809222604741 -0.0039154131763747763 0.0017397960543166847 0.0020356525182829831 -0.0024603358026416529 -0.0027380505499119564
leaf_weight=23 33 32 20 32 20 22 24 27 20 20 21 22 21 20 22 21 21
leaf_count=23 33 32 20 32 20 22 24 27 20 20 21 22 21 20 22 21 21
internal_value=0.000222621 7.08821e-06 0.00259933 -0.00039114 -0.00134165 -0.00068865 -0.00152559 0.000935619 0.000297441 -0.000685599 -0.00156162 -0.000579588 -0.00177441 0.000218794 0.000643679 -0.00388996 -0.00334203
internal_weight=421 398 53 345 201 160 138 144 117 114 82 85 43 41 42 41 41
internal_count=421 398 53 345 201 160 138 144 117 114 82 85 43 41 42 41 41
is_linear=0
shrinkage=0.05


Tree=25
num_leaves=15
num_cat=0
split_feature=4 1 3 0 3 3 3 3 0 3 2 1 4 0
split_gain=0.268219 0.152899 0.259476 0.237403 0.197827 0.162199 0.422161 0.202885 0.390347 0.0831911 0.100279 0.0963046 0.0690814 0.10822
threshold=0.099583524127254117 0.12147576372080855 0.15316935958657685 0.82948474738884903 0.27193039837770661 0.76430136717472374 0.65258062405965855 0.55516669937419605 0.54978085955386946 0.42987505723817626 0.33042236322801516 0.47081398137851338 0.52555548287215725 0.35065742133839217
decision_type=2 2 2 2 2 2 2 2 2 2 2 2 2 2
left_child=-1 -2 -3 4 -4 6 7 8 9 10 -6 -12 13 -11
right_child=1 2 3 -5 5 -7 -8 -9 -10 12 11 -13 -14 -15
leaf_value=0.0057493382081884193 -0.0038926159940624178 0.0053371806629002099 -0.0042203576872399187 0.0049969516205601401 -0.0043926510276893777 -0.0039195840887259695 0.0061272541837145891 -0.0047414394030347471 0.004815094478129011 -0.003282191540876573 0.00074842282208717535 -0.0035121699418163019 0.0027566169773490402 0.0016229853905869
leaf_weight=20 26 22 34 20 30 26 27 25 35 22 36 21 20 23
leaf_count=20 26 22 34 20 30 26 27 25 35 22 36 21 20 23
internal_value=0.000110655 -0.00019663 8.51752e-05 -0.000277032 -0.000629807 -0.000169132 0.000238867 -0.00051107 5.44878e-05 -0.0010417 -0.00205278 -0.000821269 0.000311581 -0.000775101
internal_weight=387 367 341 319 299 265 239 212 187 152 87 57 65 45
internal_count=387 367 341 319 299 265 239 212 187 152 87 57 65 45
is_linear=0
shrinkage=0.05


Tree=26
num_leaves=14
num_cat=0
split_feature=4 1 3 0 3 4 3 3 0 4 2 1 0
split_gain=0.242068 0.137992 0.234177 0.214257 0.178539 0.157229 0.178373 0.315918 0.198972 0.0578313 0.0398265 0.029079 0.021217
threshold=0.099583524127254117 0.12147576372080855 0.15316935958657685 0.82948474738884903 0.27193039837770661 0.21086544122456993 0.63270534877128715 0.76430136717472374 0.54978085955386946 0.52555548287215725 0.2841848193454134 0.48757113887616937 0.33497961230675305
decision_type=2 2 2 2 2 2 2 2 2 2 2 2 2
left_child=-1 -2 -3 4 -4 -6 8 -8 9 10 -7 12 -12
right_child=1 2 3 -5 5 6 7 -9 -10 -11 11 -13 -14
leaf_value=0.0054618711653165522 -0.0036979850918914267 0.0050703216820362617 -0.0040093397255986929 0.004747103936970234 -0.0042083419033918873 7.0411360154495285e-05 0.0062493453797852171 -0.0018032067444199214 0.0027586332332391883 0.00050967955629208257 -0.0027227195114112243 -0.0034493796734640261 -0.0008690873087432824
leaf_weight=20 26 22 34 20 22 23 29 21 38 35 26 33 38
leaf_count=20 26 22 34 20 22 23 29 21 38 35 26 33 38
internal_value=0.000105122 -0.000186799 8.09165e-05 -0.00026318 -0.000598317 -0.000160676 0.00020578 0.00286727 -0.000483727 -0.00127863 -0.00180022 -0.00224377 -0.00162213
internal_weight=387 367 341 319 299 265 243 50 193 155 120 97 64
internal_count=387 367 341 319 299 265 243 50 193 155 120 97 64
is_linear=0
shrinkage=0.05


Tree=27
num_leaves=15
num_cat=0
split_feature=4 3 3 1 0 4 2 4 0 2 1 3 2 2
split_gain=0.222288 0.151303 0.427254 0.167307 0.17874 0.159894 0.102368 0.0801423 0.0588614 0.0535339 0.0698405 0.0520603 0.019536 0.00283601
threshold=0.13422079762761391 0.76430136717472374 0.66832384814984425 0.35065742133839217 0.64752185953206431 0.6028106670155472 0.62634918558252117 0.35041756612372177 0.46226641372844035 0.35313229105340055 0.48948998059353266 0.33022611805237573 0.44619611434552242 0.37140489740738319
decision_type=2 2 2 2 2 2 2 2 2 2 2 2 2 2
left_child=-1 2 3 5 6 7 9 -2 13 10 -5 -11 -13 -9
right_child=1 -3 -4 4 -6 -7 -8 8 -10 11 -12 12 -14 -15
leaf_value=0.0045650486314955819 -0.0028992661210294401 -0.0033962204107357303 0.0068377628372135492 0.0022808534200661457 0.0036185167855460592 -0.0059188237413764005 0.0029212323102084073 -0.00067985195666551588 0.0020735360965456651 -0.003835702871438116 -0.001317921975195142 0.00039190896786749367 -0.0016001355819753372 -0.001521874127793126
leaf_weight=26 36 34 22 26 38 20 22 20 23 20 28 20 32 20
leaf_count=26 36 34 22 26 38 20 22 20 23 20 28 20 32 20
internal_value=9.98662e-05 -0.000221726 0.000108344 -0.000377057 0.000559629 -0.00184112 -0.000225762 -0.00101734 5.80446e-05 -0.000775237 0.000414822 -0.00166778 -0.000833965 -0.00110086
internal_weight=387 361 327 305 186 119 148 99 63 126 54 72 52 40
internal_count=387 361 327 305 186 119 148 99 63 126 54 72 52 40
is_linear=0
shrinkage=0.05


Tree=28
num_leaves=15
num_cat=0
split_feature=4 3 3 1 0 4 2 0 3 1 0 2 1 1
split_gain=0.200615 0.136551 0.385596 0.150994 0.161313 0.144305 0.0923874 0.0755705 0.0495187 0.0820513 0.0813189 0.0465515 0.0426157 0.095299
threshold=0.13422079762761391 0.76430136717472374 0.66832384814984425 0.35065742133839217 0.64752185953206431 0.6028106670155472 0.62634918558252117 0.2833889361330979 0.42987505723817626 0.48757113887616937 0.31678332352107458 0.39909727219205871 0.25762630557554361 0.31019820762739592
decision_type=2 2 2 2 2 2 2 2 2 2 2 2 2 2
left_child=-1 2 3 5 6 7 8 -2 9 11 -10 -5 -9 -14
right_child=1 -3 -4 4 -6 -7 -8 12 10 -11 -12 -13 13 -15
leaf_value=0.0043367960783563418 -0.0035508911802687431 -0.0032264094950412124 0.0064958746672015306 0.0015624799553982237 0.0034375909930340165 -0.0056228824891150003 0.0027751707493073562 -0.0015863165372248852 -0.00186786642880179 -0.0033077456243336203 0.0023386038574648815 -0.0016901949505237015 0.0029148254640555633 -0.0017584345169598236
leaf_weight=26 22 34 22 22 38 20 22 33 20 35 27 22 24 20
leaf_count=26 22 34 22 22 38 20 22 33 20 35 27 22 24 20
internal_value=9.48729e-05 -0.00021064 0.000102927 -0.000358204 0.000531647 -0.00174906 -0.000214474 -0.000966474 -0.000736475 -0.00150102 0.000548617 -6.38575e-05 -0.000228069 0.000790616
internal_weight=387 361 327 305 186 119 148 99 126 79 47 44 77 44
internal_count=387 361 327 305 186 119 148 99 126 79 47 44 77 44
is_linear=0
shrinkage=0.05


Tree=29
num_leaves=14
num_cat=0
split_feature=4 1 3 0 3 4 3 3 0 4 2 1 0
split_gain=0.182686 0.104164 0.208708 0.182331 0.157758 0.139201 0.14468 0.228285 0.161125 0.0510029 0.0356544 0.0240029 0.0160826
threshold=0.099583524127254117 0.12147576372080855 0.15316935958657685 0.82948474738884903 0.27193039837770661 0.21086544122456993 0.63270534877128715 0.76430136717472374 0.54978085955386946 0.52555548287215725 0.2841848193454134 0.48757113887616937 0.33497961230675305
decision_type=2 2 2 2 2 2 2 2 2 2 2 2 2
left_child=-1 -2 -3 4 -4 -6 8 -8 9 10 -7 12 -12
right_child=1 2 3 -5 5 6 7 -9 -10 -11 11 -13 -14
leaf_value=0.0047436855337582538 -0.0032140801893547179 0.0047794065036048947 -0.003771253102732932 0.0043662384431809188 -0.0039620457259430131 0.00013511933831740982 0.0054632734956926313 -0.0013819149118803797 0.0024880728276912125 0.00053442762322707235 -0.0024479252393715661 -0.0031498339440821097 -0.00083408776554279036
leaf_weight=20 26 22 34 20 22 23 29 21 38 35 26 33 38
leaf_count=20 26 22 34 20 22 23 29 21 38 35 26 33 38
internal_value=9.01292e-05 -0.000163471 6.91272e-05 -0.00025572 -0.000564881 -0.000153497 0.00019131 0.00258829 -0.000429671 -0.00114499 -0.00163482 -0.00205449 -0.00148971
internal_weight=387 367 341 319 299 265 243 50 193 155 120 97 64
internal_count=387 367 341 319 299 265 243 50 193 155 120 97 64
is_linear=0
shrinkage=0.05


Tree=30
num_leaves=17
num_cat=0
split_feature=0 2 0 0 2 4 2 4 4 1 1 2 1 3 3 0
split_gain=0.22898 0.189884 0.332405 0.145131 0.296863 0.115201 0.112764 0.0975491 0.195435 0.0960263 0.113409 0.0722385 0.0578744 0.0324809 0.0578436 0.0234651
threshold=0.10452236104751315 0.59353263121170508 0.78386864656243882 0.45846143782298693 0.51665903490983633 0.3519221124702907 0.20841237652907704 0.6724122893089991 0.3519221124702907 0.53117027539739659 0.47081398137851338 0.42987505723817626 0.37559146115435771 0.33448899936765442 0.48670984060530742 0.51346459955081669
decision_type=2 2 2 2 2 2 2 2 2 2 2 2 2 2 2 2
left_child=-1 2 3 4 6 15 -2 8 -3 10 12 -7 13 -8 -15 -5
right_child=1 7 -4 5 -6 11 9 -9 -10 -11 -12 -13 -14 14 -16 -17
leaf_value=0.0052125834267247812 0.0036209437153523882 -0.0048887266396460214 0.0064595006469806487 -0.0046732562803663315 0.0067308797771693215 0.0015607796287547579 0.00070044781081378459 -0.0051249591411934017 0.0010622094460838551 0.002831793167279102 -0.0043350492045283314 -0.0015923670478141271 0.0019917294180587584 -0.0036817504558712246 7.5454448926306908e-05 -0.0022512159217149019
leaf_weight=22 21 22 22 20 20 34 20 21 37 20 20 39 23 20 21 20
leaf_count=22 21 22 22 20 20 34 20 21 37 20 20 39 23 20 21 20
internal_value=0.000253101 -3.40265e-05 0.000543148 7.49472e-05 0.00102037 -0.00130553 0.00023271 -0.00219843 -0.00115678 -0.000341104 -0.000951276 -0.000123778 -0.000145616 -0.0009515 -0.00175733 -0.00346224
internal_weight=402 380 300 278 165 113 145 80 59 124 104 73 84 61 41 40
internal_count=402 380 300 278 165 113 145 80 59 124 104 73 84 61 41 40
is_linear=0
shrinkage=0.05


Tree=31
num_leaves=18
num_cat=0
split_feature=0 2 0 0 2 4 2 1 1 1 1 2 1 1 3 3 0
split_gain=0.206655 0.17137 0.299995 0.130981 0.267919 0.103969 0.10177 0.0947024 0.0866637 0.102351 0.072528 0.108387 0.0720585 0.0522317 0.0293141 0.0522038 0.0211773
threshold=0.10452236104751315 0.59353263121170508 0.78386864656243882 0.45846143782298693 0.51665903490983633 0.3519221124702907 0.20841237652907704 0.4518109068707617 0.53117027539739659 0.47081398137851338 0.35065742133839217 0.42879570877215939 0.5707136782887422 0.37559146115435771 0.33448899936765442 0.48670984060530742 0.51346459955081669
decision_type=2 2 2 2 2 2 2 2 2 2 2 2 2 2 2 2 2
left_child=-1 2 3 4 6 16 -2 -3 9 13 -7 -12 -9 14 -8 -16 -5
right_child=1 7 -4 5 -6 10 8 12 -10 -11 11 -13 -14 -15 15 -17 -18
leaf_value=0.0049519542520019139 0.0034398966380173252 -0.0040391511273836457 0.0061365256601923403 -0.0044395935442298655 0.0063943358242977413 -0.0026831629488151525 0.0006654252670705319 0.0014744379525919531 0.0026902034398517574 -0.0041182967368513347 0.0035345951836048203 -0.0010542532139938446 -0.0025281742721310133 0.0018921429918997961 -0.0034976629214361309 7.1681701090364224e-05 -0.0021386552613694219
leaf_weight=22 21 35 22 20 20 20 20 22 20 20 22 31 23 23 20 21 20
leaf_count=22 21 35 22 20 20 20 20 22 20 20 22 31 23 23 20 21 20
internal_value=0.000240446 -3.23252e-05 0.00051599 7.11998e-05 0.000969349 -0.00124026 0.000221075 -0.00208851 -0.000324049 -0.000903712 -0.000117589 0.000850552 -0.000571342 -0.000138335 -0.000903925 -0.00166946 -0.00328912
internal_weight=402 380 300 278 165 113 145 80 124 104 73 53 45 84 61 41 40
internal_count=402 380 300 278 165 113 145 80 124 104 73 53 45 84 61 41 40
is_linear=0
shrinkage=0.05


Tree=32
num_leaves=16
num_cat=0
split_feature=0 2 0 3 1 0 4 4 3 3 1 4 4 1 3
split_gain=0.186506 0.154662 0.270746 0.123106 0.118781 0.0958595 0.0871595 0.176962 0.0725052 0.182816 0.100934 0.0599819 0.075172 0.0617566 0.0218376
threshold=0.10452236104751315 0.59353263121170508 0.78386864656243882 0.23414229955735816 0.30749438520747485 0.42916639410392282 0.6724122893089991 0.3519221124702907 0.62634918558252117 0.51801094611979692 0.6028106670155472 0.27092736747999396 0.52555548287215725 0.40391618150498249 0.37892762914022809
decision_type=2 2 2 2 2 2 2 2 2 2 2 2 2 2 2
left_child=-1 2 3 -2 5 -5 7 -3 9 10 11 -6 13 -13 -15
right_child=1 6 -4 4 8 -7 -8 -9 -10 -11 -12 12 -14 14 -16
leaf_value=0.0047043565576049412 0.0030376259275081176 -0.0045506531663704669 0.0058296992528167647 -0.00054099265408391758 0.002351608779281378 -0.0048314235365504166 -0.004750379520867553 0.0011120462506959165 0.0026215688857649053 -0.0040695994785055522 0.0036809771162965759 0.00034293659743578998 0.0021910192386712878 -0.0037169653008459133 -0.0014579032628756503
leaf_weight=22 31 22 22 30 22 23 21 37 28 25 22 34 20 20 23
leaf_count=22 31 22 22 30 22 23 21 37 28 25 22 34 20 20 23
internal_value=0.000228424 -3.07089e-05 0.000490191 6.76398e-05 -0.000305112 -0.00240288 -0.00198408 -0.000999469 0.00026799 -0.000129 0.000569688 -5.50806e-06 -0.000540112 -0.0012495 -0.00250863
internal_weight=402 380 300 278 247 53 80 59 194 166 141 119 97 77 43
internal_count=402 380 300 278 247 53 80 59 194 166 141 119 97 77 43
is_linear=0
shrinkage=0.05


Tree=33
num_leaves=17
num_cat=0
split_feature=0 2 0 0 2 4 2 1 4 4 1 1 1 2 0 2
split_gain=0.168321 0.139582 0.244348 0.118378 0.239012 0.0947165 0.0897144 0.0845376 0.0758781 0.071232 0.0656885 0.0574217 0.053676 0.0340637 0.0183378 0.0169017
threshold=0.10452236104751315 0.59353263121170508 0.78386864656243882 0.45846143782298693 0.51665903490983633 0.3519221124702907 0.20841237652907704 0.4518109068707617 0.38493491201674629 0.6028106670155472 0.5707136782887422 0.33949325134645997 0.33042236322801516 0.43212097424827201 0.51346459955081669 0.40940014391312884
decision_type=2 2 2 2 2 2 2 2 2 2 2 2 2 2 2 2
left_child=-1 2 3 4 6 14 -2 -3 11 13 -9 -8 -10 -7 -5 -13
right_child=1 7 -4 5 -6 9 8 10 12 -11 -12 15 -14 -15 -16 -17
leaf_value=0.004469138747927817 0.0032335182100290526 -0.0037278658883380038 0.0055382142690095035 -0.0042086556099820887 0.006042076572775841 0.0026369840337429197 -0.0011303075245055168 0.0015018206089735032 0.00022253510542213917 -0.0021496156273685669 -0.0023197846750364357 0.0029806822516201511 -0.0028475228218095647 -0.00010770538938231766 -0.0020675242660217921 0.00097463519556359164
leaf_weight=22 21 35 22 20 20 20 23 22 24 27 23 21 35 26 20 21
leaf_count=22 21 35 22 20 20 20 23 22 24 27 23 21 35 26 20 21
internal_value=0.000217003 -2.91735e-05 0.000465681 6.42578e-05 0.000918106 -0.00118251 0.000211352 -0.00188488 -0.000300467 -0.000110963 -0.000451444 0.000877917 -0.00159869 0.00108564 -0.00313809 0.00197766
internal_weight=402 380 300 278 165 113 145 80 124 73 45 65 59 46 40 42
internal_count=402 380 300 278 165 113 145 80 124 73 45 65 59 46 40 42
is_linear=0
shrinkage=0.05


Tree=34
num_leaves=16
num_cat=0
split_feature=0 2 0 3 1 0 4 4 4 2 2 4 1 0 0
split_gain=0.15191 0.125973 0.220524 0.109405 0.105103 0.0835548 0.0778775 0.160237 0.0674522 0.0415873 0.0697417 0.0652319 0.10784 0.107327 0.0182167
threshold=0.10452236104751315 0.59353263121170508 0.78386864656243882 0.23414229955735816 0.30749438520747485 0.42916639410392282 0.6724122893089991 0.3519221124702907 0.6724122893089991 0.52178321449597709 0.47724646213558364 0.21983820675519508 0.53117027539739659 0.4241512396153595 0.31290203004731698
decision_type=2 2 2 2 2 2 2 2 2 2 2 2 2 2 2
left_child=-1 2 3 -2 5 -5 7 -3 9 10 11 -6 13 14 -13
right_child=1 6 -4 4 8 -7 -8 -9 -10 -11 -12 12 -14 -15 -16
leaf_value=0.0042456817982549017 0.002860895034222443 -0.0042391278368251566 0.0052613035669888961 -0.00052535916756217679 -0.0026727670221589508 -0.0045309734581362301 -0.0044054883133087842 0.0011493319626645867 0.0029987046867609025 -0.0019998303536946575 0.0029139703012160249 -0.0032972846599295738 0.0026936707432579365 0.0018439571633979751 -0.0013215386973960061
leaf_weight=22 31 22 22 30 22 23 21 37 20 24 21 20 33 26 28
leaf_count=22 31 22 22 30 22 23 21 37 20 24 21 20 33 26 28
internal_value=0.000206153 -2.77148e-05 0.000442397 6.10449e-05 -0.000290353 -0.00226364 -0.00179063 -0.000859924 0.000248742 -6.73459e-05 0.000241852 -0.000193144 0.000316685 -0.000743323 -0.00214477
internal_weight=402 380 300 278 247 53 80 59 194 174 150 129 107 74 48
internal_count=402 380 300 278 247 53 80 59 194 174 150 129 107 74 48
is_linear=0
shrinkage=0.05


Tree=35
num_leaves=17
num_cat=0
split_feature=0 4 0 3 4 2 3 0 2 4 3 0 4 2 2 3
split_gain=0.0705374 0.293681 0.465508 0.186995 0.095425 0.132671 0.172641 0.122837 0.0698781 0.10672 0.158736 0.086001 0.0552813 0.0472842 0.0737227 0.0173017
threshold=0.68865702884804092 0.56388870718039297 0.82948474738884903 0.14656243867338267 0.73358627155971323 0.2833889361330979 0.4615577505941868 0.20841237652907704 0.32548352630775618 0.29966638320141309 0.41702099823379346 0.44683936242122946 0.38493491201674629 0.54678266937048914 0.43475938160964661 0.42987505723817626
decision_type=2 2 2 2 2 2 2 2 2 2 2 2 2 2 2 2
left_child=3 2 -2 -1 5 6 -5 -7 -9 10 -10 12 -11 14 -13 -14
right_child=1 -3 -4 4 -6 7 -8 8 9 11 -12 13 15 -15 -16 -17
leaf_value=0.0050369202237925499 -0.0040960936141865596 -0.0055937966421389816 0.0064317429149966868 -0.00033518225253105927 0.0026932666333572518 -0.0045346621703356502 0.0049247376764049895 -0.0028049251030164736 0.00071555303166741919 0.0011982442949105192 -0.0052251608295509041 0.0030887621504786826 -0.002713339421011153 0.0038196887058967893 -0.0010529869828711858 -0.00072830991880239355
leaf_weight=20 21 26 21 39 31 20 26 27 23 27 22 21 21 22 22 23
leaf_count=20 21 26 21 39 31 20 26 27 23 27 22 21 21 22 22 23
internal_value=5.3984e-05 -0.0014175 0.00116782 0.000344859 5.52256e-05 -0.000223885 0.00176879 -0.00079197 -0.000432096 -7.81383e-05 -0.0021888 0.000620241 -0.000582798 0.00193433 0.000969728 -0.00167571
internal_weight=412 68 42 344 324 293 65 228 208 181 45 136 71 65 43 44
internal_count=412 68 42 344 324 293 65 228 208 181 45 136 71 65 43 44
is_linear=0
shrinkage=0.05


Tree=36
num_leaves=16
num_cat=0
split_feature=0 4 0 3 4 2 1 1 0 2 3 0 1 0 0
split_gain=0.06366 0.265047 0.420121 0.168763 0.0861211 0.119736 0.16144 0.113726 0.0848079 0.150368 0.0793252 0.110765 0.0379471 0.0377691 0.0586435
threshold=0.68865702884804092 0.56388870718039297 0.82948474738884903 0.14656243867338267 0.73358627155971323 0.2833889361330979 0.48948998059353266 0.65808639148732062 0.50093761583916629 0.32548352630775618 0.47039968600771903 0.37140489740738319 0.42673513442794531 0.29018119971217382 0.43963280347135913
decision_type=2 2 2 2 2 2 2 2 2 2 2 2 2 2 2
left_child=3 2 -2 -1 5 6 -5 8 9 -7 13 -12 -10 -11 -15
right_child=1 -3 -4 4 -6 7 -8 -9 12 10 11 -13 -14 14 -16
leaf_value=0.0047850741818547251 -0.0038912889503297356 -0.0053141067592570417 0.006110155892868837 -0.00042008522034034531 0.0025586032428808751 -0.0049082323287924137 0.0046365097018510656 -0.0043535805586725476 0.0030192669181685365 0.0022231461852788926 -0.0038873311962621909 0.00066991323449959363 0.00020756708545377478 -0.0012246042681046023 0.0021055069193243979
leaf_weight=20 21 26 21 38 31 21 27 20 21 25 30 24 28 39 20
leaf_count=20 21 26 21 38 31 21 27 20 21 25 30 24 28 39 20
internal_value=5.12848e-05 -0.00134663 0.00110943 0.000327616 5.24643e-05 -0.00021269 0.00168035 -0.000752372 -0.000406102 -0.000966577 -0.000366759 -0.00186189 0.00141258 0.000594396 -9.5753e-05
internal_weight=412 68 42 344 324 293 65 228 208 159 138 54 49 84 59
internal_count=412 68 42 344 324 293 65 228 208 159 138 54 49 84 59
is_linear=0
shrinkage=0.05


Tree=37
num_leaves=15
num_cat=0
split_feature=4 1 4 4 0 2 3 1 4 3 1 0 3 0
split_gain=0.0597896 0.15522 0.372931 0.117395 0.131186 0.160425 0.0666368 0.156848 0.0864774 0.105328 0.0642743 0.0450324 0.0763685 0.0118446
threshold=0.90937833889361341 0.36310808748173834 0.6332395717494167 0.72792786899544282 0.64752185953206431 0.2833889361330979 0.51388979743136887 0.52720176184557699 0.33022611805237573 0.36310808748173834 0.32925579468393634 0.29018119971217382 0.36789428926538892 0.78386864656243882
decision_type=2 2 2 2 2 2 2 2 2 2 2 2 2 2
left_child=1 2 10 4 5 -3 8 -8 -7 -10 11 -1 -13 -6
right_child=-2 3 -4 -5 13 6 7 -9 9 -11 -12 12 -14 -15
leaf_value=0.0018662610737186288 0.0027153469994664193 0.0025974294549833319 -0.0073884561652613982 0.0042439423390619813 0.0020409135400162389 0.0019500403944402935 0.00040540650105950511 -0.0054998685403362564 -0.0034339553586417632 0.00047065425688066549 -0.0024616645571465296 0.0011982818571568438 -0.0022873369487933816 0.0036884535336866977
leaf_weight=31 20 39 22 21 24 30 22 23 31 39 27 33 30 20
leaf_count=31 20 39 22 21 24 30 22 23 31 39 27 33 30 20
internal_value=4.87205e-05 -8.73318e-05 -0.00140024 0.000666665 0.000337179 -0.000249316 -0.00101499 -0.00261285 -0.000295959 -0.00125853 -0.000311468 0.000306141 -0.000461537 0.0027898
internal_weight=412 392 143 249 228 184 145 45 100 70 121 94 63 44
internal_count=412 392 143 249 228 184 145 45 100 70 121 94 63 44
is_linear=0
shrinkage=0.05


Tree=38
num_leaves=16
num_cat=0
split_feature=0 4 0 3 3 3 0 2 2 3 3 1 4 2 4
split_gain=0.0612242 0.228126 0.377675 0.148987 0.0806325 0.292452 0.11847 0.0627584 0.0512058 0.0816547 0.0748552 0.0568621 0.108144 0.0295113 0.0272316
threshold=0.68865702884804092 0.56388870718039297 0.82948474738884903 0.14656243867338267 0.62634918558252117 0.76430136717472374 0.15444495322823318 0.20841237652907704 0.33949325134645997 0.36789428926538892 0.47039968600771903 0.33042236322801516 0.4615577505941868 0.43212097424827201 0.30884629641743538
decision_type=2 2 2 2 2 2 2 2 2 2 2 2 2 2 2
left_child=3 2 -2 -1 6 -6 -5 -8 9 -9 11 -10 14 -12 -13
right_child=1 -3 -4 4 5 -7 7 8 10 -11 13 12 -14 -15 -16
leaf_value=0.0045054346299730243 -0.0037874163616271246 -0.0050054102249515176 0.0056953396504035312 -0.0039363964427528639 0.0050390896678436554 -0.0016693616285920144 0.0024636548437664044 0.00031806114805682056 0.0030195317994803194 -0.0033110045054326621 -9.8047325653689268e-05 0.0003191122692078352 -0.0019741324067581445 -0.0026405621729791167 0.0027009710508476325
leaf_weight=20 21 26 21 21 32 33 23 31 25 31 21 20 32 25 30
leaf_count=20 21 26 21 21 32 33 23 31 25 31 21 20 32 25 30
internal_value=4.62845e-05 -0.00132462 0.000953962 0.000317278 5.87494e-05 0.00163326 -0.000336398 -1.87512e-05 -0.000284311 -0.00149647 0.000206891 0.000932032 0.000295599 -0.00147985 0.00174823
internal_weight=412 68 42 344 324 65 259 238 215 62 153 107 82 46 50
internal_count=412 68 42 344 324 65 259 238 215 62 153 107 82 46 50
is_linear=0
shrinkage=0.05


Tree=39
num_leaves=17
num_cat=0
split_feature=0 2 4 4 0 3 2 4 0 2 3 1 1 3 2 2
split_gain=0.0579611 0.0663388 0.0687557 0.161548 0.131297 0.0760752 0.0530806 0.0680131 0.131628 0.0689299 0.0642687 0.0482761 0.0533992 0.0285206 0.0408172 0.0467991
threshold=0.081016550009812296 0.10452236104751315 0.73358627155971323 0.65352914240858251 0.78608185604326131 0.77244281633632073 0.22120102047491336 0.15997252567541054 0.26660997361592642 0.54019755347681042 0.37559146115435771 0.25762630557554361 0.33042236322801516 0.49709993240443956 0.437921109439393 0.34048537973441484
decision_type=2 2 2 2 2 2 2 2 2 2 2 2 2 2 2 2
left_child=-1 -2 3 4 5 6 -3 -8 -9 11 -11 -10 -13 14 15 -14
right_child=1 2 -4 -5 -6 -7 7 8 9 10 -12 12 13 -15 -16 -17
leaf_value=0.0026695046853274108 -0.0028239190046276366 0.0024086045715111227 0.0020507419144567582 -0.0043087302453138614 0.0036774630253300225 -0.0030696133949926923 -0.0028759102104231717 -0.0031035975087434055 -0.0022400098945945502 0.0043912464554887272 0.00058855516090989114 0.0026435678115707233 -0.0017258344125002621 0.0013099793278213059 -0.0022676749853417278 0.0013061076482491834
leaf_weight=20 21 22 39 22 24 21 21 28 20 20 25 22 20 28 24 35
leaf_count=20 21 22 39 22 24 21 21 28 20 20 25 22 20 28 24 35
internal_value=4.39703e-05 -8.99856e-05 6.47654e-05 -0.000168527 0.000125294 -0.00017279 5.67693e-05 -0.000156154 0.00010112 0.000563657 0.00227864 4.57087e-05 0.000400084 -6.11934e-05 -0.000547179 0.000203583
internal_weight=412 392 371 332 310 286 265 243 222 194 45 149 129 107 79 55
internal_count=412 392 371 332 310 286 265 243 222 194 45 149 129 107 79 55
is_linear=0
shrinkage=0.05


Tree=40
num_leaves=15
num_cat=0
split_feature=2 3 0 2 3 4 2 2 3 4 2 2 3 0
split_gain=0.188483 0.163819 0.16352 0.0819335 0.0703695 0.111733 0.21556 0.175118 0.137023 0.0550372 0.0480679 0.0450398 0.0541071 0.0142076
threshold=0.85574889339525972 0.65258062405965855 0.41766424630950044 0.21010226554152769 0.55516669937419605 0.58194780608796148 0.59353263121170508 0.47724646213558364 0.20955714005364037 0.23312836614988777 0.43475938160964661 0.36789428926538892 0.40391618150498249 0.45846143782298693
decision_type=2 2 2 2 2 2 2 2 2 2 2 2 2 2
left_child=1 3 -3 -1 5 6 8 -7 -5 -10 11 12 -11 -12
right_child=-2 2 -4 4 -6 7 -8 -9 9 10 13 -13 -14 -15
leaf_value=0.0019679727424916468 -0.0047297762709786187 0.0054333148058503871 0.00023832345210724848 0.003817432166542858 -0.0027946203524091594 -0.0011196897376794367 -0.0049548615397025757 0.0054969180840998893 0.001750359470977194 0.0004187603029148544 -0.0014744928062616573 0.0017711582879366525 -0.0026454166918992998 -0.0031285550119355323
leaf_weight=38 20 28 33 20 30 20 26 20 22 34 37 22 25 20
leaf_count=38 20 28 33 20 30 20 26 20 22 34 37 22 25 20
internal_value=-3.50338e-07 0.000251886 0.00262291 -0.000208727 -0.000508418 -0.000229613 -0.000699171 0.00218861 -8.44604e-05 -0.000572197 -0.00094246 -0.000159655 -0.00087962 -0.00205487
internal_weight=395 375 61 314 276 246 206 40 180 160 138 81 59 57
internal_count=395 375 61 314 276 246 206 40 180 160 138 81 59 57
is_linear=0
shrinkage=0.05


Tree=41
num_leaves=15
num_cat=0
split_feature=0 3 2 1 1 3 4 3 2 2 3 0 3 4
split_gain=0.180467 0.277915 0.117773 0.089012 0.158588 0.0775442 0.101316 0.0843788 0.075321 0.0639515 0.048645 0.0289695 0.0252658 0.0412149
threshold=0.22959595298837795 0.6028106670155472 0.78386864656243882 0.78608185604326131 0.59353263121170508 0.42987505723817626 0.27092736747999396 0.23414229955735816 0.437921109439393 0.57713525653605469 0.34006018185386272 0.49799393820457477 0.55787052179411722 0.50927803580384212
decision_type=2 2 2 2 2 2 2 2 2 2 2 2 2 2
left_child=1 -1 3 4 5 7 -7 -2 11 12 -10 -9 13 -8
right_child=2 -3 -4 -5 -6 6 9 8 10 -11 -12 -13 -14 -15
leaf_value=3.7834737061833348e-06 0.0010406645607285863 0.007354904338717461 -0.0038891014106490693 -0.0033285082628329598 0.0030554891603778267 0.0035717460877177395 -0.0015265433350577951 -0.0015595563183966521 -0.0053052172204479577 0.0020277695804543326 -0.0019968761727213861 0.00080234651977661997 -0.0020480481477691149 0.0014139471850781278
leaf_weight=36 31 20 23 21 38 22 26 37 20 25 25 20 29 22
leaf_count=36 31 20 23 21 38 22 26 37 20 25 25 20 29 22
internal_value=-3.32806e-07 0.00262918 -0.000434707 -0.00018328 4.06178e-05 -0.000405161 0.000494322 -0.00124378 -0.00193807 -0.000169436 -0.00346725 -0.000730818 -0.000882814 -0.000178819
internal_weight=395 56 339 316 295 257 124 133 102 102 45 57 77 48
internal_count=395 56 339 316 295 257 124 133 102 102 45 57 77 48
is_linear=0
shrinkage=0.05


Tree=42
num_leaves=14
num_cat=0
split_feature=0 3 2 1 1 3 4 3 2 2 3 2 1
split_gain=0.162871 0.250818 0.10629 0.0803334 0.143126 0.0699836 0.0914379 0.0761518 0.0679772 0.0577162 0.0439021 0.0292065 0.0245491
threshold=0.22959595298837795 0.6028106670155472 0.78386864656243882 0.78608185604326131 0.59353263121170508 0.42987505723817626 0.27092736747999396 0.23414229955735816 0.437921109439393 0.57713525653605469 0.34006018185386272 0.33949325134645997 0.38739887922199695
decision_type=2 2 2 2 2 2 2 2 2 2 2 2 2
left_child=1 -1 3 4 5 7 -7 -2 11 12 -10 -9 -8
right_child=2 -3 -4 -5 -6 6 9 8 10 -11 -12 -13 -14
leaf_value=3.5943466678468716e-06 0.00098863126491309126 0.0069871588796377188 -0.0036946462416697456 -0.0031620827725245843 0.0029027146585959649 0.0033931588394228713 -0.0017199297713187452 -0.0015263982821960708 -0.0050399563647806648 0.0019263810273259881 -0.0018970323689281943 0.00084514572808984671 6.577395711486277e-05
leaf_weight=36 31 20 23 21 38 22 39 37 20 25 25 20 38
leaf_count=36 31 20 23 21 38 22 39 37 20 25 25 20 38
internal_value=-3.16178e-07 0.00249772 -0.000412972 -0.000174116 3.85869e-05 -0.000384903 0.000469606 -0.00118159 -0.00184116 -0.000160964 -0.00329389 -0.000694278 -0.000838673
internal_weight=395 56 339 316 295 257 124 133 102 102 45 57 77
internal_count=395 56 339 316 295 257 124 133 102 102 45 57 77
is_linear=0
shrinkage=0.05


Tree=43
num_leaves=15
num_cat=0
split_feature=2 3 0 2 2 4 2 3 1 4 2 2 0 0
split_gain=0.155608 0.120977 0.126121 0.0686383 0.117582 0.278946 0.179592 0.099098 0.0772967 0.0661228 0.0486018 0.0435025 0.0217885 0.0121079
threshold=0.85574889339525972 0.65258062405965855 0.41766424630950044 0.55787052179411722 0.50403392861036622 0.62992520878306191 0.20841237652907704 0.28054338108632609 0.49361112928196077 0.23857962102876087 0.44619611434552242 0.32548352630775618 0.37559146115435771 0.4241512396153595
decision_type=2 2 2 2 2 2 2 2 2 2 2 2 2 2
left_child=1 3 -3 4 5 6 -1 -8 -5 -9 11 -11 -13 -6
right_child=-2 2 -4 8 13 -7 7 9 -10 10 -12 12 -14 -15
leaf_value=0.0040370322714027556 -0.0042975214001489811 0.0047345997166952924 0.0001722054150322396 -0.0034822484664618972 0.0017965796450152994 -0.0054908015942403479 0.0020790391140950047 -0.0035611298307776451 0.00028219902142882346 -0.0012574314938059875 -0.0023876030035316943 0.0022173971715594896 0.00015994608627572176 0.0035363985178992158
leaf_weight=28 20 28 33 30 20 23 35 20 25 35 25 22 31 20
leaf_count=28 20 28 33 30 20 23 35 20 25 35 25 22 31 20
internal_value=-3.00365e-07 0.000228885 0.00226642 -0.000166942 0.000173717 -0.000281584 0.000329702 -0.000288187 -0.00177114 -0.000911141 -0.000442116 0.000110579 0.00101398 0.00266649
internal_weight=395 375 61 314 259 219 196 168 55 133 113 88 53 40
internal_count=395 375 61 314 259 219 196 168 55 133 113 88 53 40
is_linear=0
shrinkage=0.05


Tree=44
num_leaves=15
num_cat=0
split_feature=0 3 2 1 1 3 4 3 2 2 3 0 3 4
split_gain=0.143558 0.214292 0.0859928 0.0721191 0.127309 0.0631709 0.0794523 0.0634784 0.0607178 0.05152 0.0395344 0.02605 0.0234853 0.0386567
threshold=0.22959595298837795 0.6028106670155472 0.78386864656243882 0.78608185604326131 0.59353263121170508 0.42987505723817626 0.27092736747999396 0.23414229955735816 0.437921109439393 0.57713525653605469 0.34006018185386272 0.49799393820457477 0.55787052179411722 0.50927803580384212
decision_type=2 2 2 2 2 2 2 2 2 2 2 2 2 2
left_child=1 -1 3 4 5 7 -7 -2 11 12 -10 -9 13 -8
right_child=2 -3 -4 -5 -6 6 9 8 10 -11 -12 -13 -14 -15
leaf_value=3.9593622689911473e-05 0.0008537754059709129 0.006494654273774359 -0.0033394612946405847 -0.0030039450419800627 0.002729912845442366 0.003166339982470328 -0.0014134602782388149 -0.0014317916706204415 -0.0047597410250455148 0.0018254501706687733 -0.0017772530205547811 0.00080793864442966871 -0.001910393092588618 0.0014343117702413689
leaf_weight=36 31 20 23 21 38 22 26 37 20 25 25 20 29 22
leaf_count=36 31 20 23 21 38 22 26 37 20 25 25 20 29 22
internal_value=-2.8535e-07 0.00234497 -0.000387703 -0.000172859 2.86755e-05 -0.000370729 0.000441123 -0.00112764 -0.00172984 -0.000146669 -0.0031028 -0.000645921 -0.000786968 -0.000108231
internal_weight=395 56 339 316 295 257 124 133 102 102 45 57 77 48
internal_count=395 56 339 316 295 257 124 133 102 102 45 57 77 48
is_linear=0
shrinkage=0.05


Tree=45
num_leaves=14
num_cat=0
split_feature=0 3 1 0 3 2 2 4 1 0 0 2 2
split_gain=0.0637949 0.076846 0.119309 0.167256 0.170321 0.12431 0.102193 0.12258 0.115224 0.0628133 0.106989 0.0270989 0.0447819
threshold=0.14812149756874038 0.16215302762695977 0.73094786419833857 0.64752185953206431 0.78386864656243882 0.48817077691284538 0.20841237652907704 0.54067726390615134 0.28487167746015141 0.48379887049998915 0.43250256208979315 0.49918571880246837 0.34898933734545701
decision_type=2 2 2 2 2 2 2 2 2 2 2 2 2
left_child=-1 -2 3 4 6 -5 -3 8 -8 10 11 12 -10
right_child=1 2 -4 5 -6 -7 7 -9 9 -11 -12 -13 -14
leaf_value=0.0025163286779489782 -0.0022304214004959379 0.0037978031051655614 -0.0023668914069182789 0.000777590976628874 -0.0043373344838619236 0.0062179586051830226 -0.0032754141516212762 0.0028449067420193131 0.0011056469016087554 -0.0015508049230377836 0.0039025114986791531 0.0013513118852503025 -0.0016675442117392214
leaf_weight=27 35 21 39 21 20 21 29 35 24 39 22 26 37
leaf_count=27 35 21 39 21 20 21 29 35 24 39 22 26 37
internal_value=0.000170228 -1.43824e-06 0.000232138 0.000575738 9.06572e-05 0.00349777 0.000470742 0.000141175 -0.000393461 0.000171246 0.000787392 -3.39094e-07 -0.000576453
internal_weight=396 369 334 295 253 42 233 212 177 148 109 87 61
internal_count=396 369 334 295 253 42 233 212 177 148 109 87 61
is_linear=0
shrinkage=0.05


Tree=46
num_leaves=14
num_cat=0
split_feature=0 3 1 0 3 2 2 4 1 0 0 1 3
split_gain=0.0575749 0.0693536 0.107676 0.150949 0.153715 0.11219 0.0922291 0.110628 0.10399 0.056689 0.0965576 0.0245097 0.0589722
threshold=0.14812149756874038 0.16215302762695977 0.73094786419833857 0.64752185953206431 0.78386864656243882 0.48817077691284538 0.20841237652907704 0.54067726390615134 0.28487167746015141 0.48379887049998915 0.43250256208979315 0.50963781862584778 0.40701249427618241
decision_type=2 2 2 2 2 2 2 2 2 2 2 2 2
left_child=-1 -2 3 4 6 -5 -3 8 -8 10 11 12 -10
right_child=1 2 -4 5 -6 -7 7 -9 9 -11 -12 -13 -14
leaf_value=0.0023905122152495166 -0.0021189003188296089 0.0036079128006739278 -0.0022485467365745884 0.00073871141676569267 -0.0041204678826034071 0.0059070606826848934 -0.0031116434509448451 0.0027026613840800046 0.0011885498464107515 -0.0014732647246908015 0.0037073859627443279 0.0015357155422680081 -0.0017945629934704788
leaf_weight=27 35 21 39 21 20 21 29 35 30 39 22 20 37
leaf_count=27 35 21 39 21 20 21 29 35 30 39 22 20 37
internal_value=0.000161716 -1.36634e-06 0.000220531 0.000546951 8.61243e-05 0.00332289 0.000447205 0.000134116 -0.000373788 0.000162683 0.000748023 -3.22121e-07 -0.000458841
internal_weight=396 369 334 295 253 42 233 212 177 148 109 87 67
internal_count=396 369 334 295 253 42 233 212 177 148 109 87 67
is_linear=0
shrinkage=0.05


Tree=47
num_leaves=15
num_cat=0
split_feature=4 0 2 0 4 2 2 4 1 0 0 0 1 3
split_gain=0.0587288 0.171396 0.184697 0.37984 0.162278 0.153168 0.104018 0.06696 0.0651297 0.0473396 0.0639305 0.0453163 0.0286291 0.0154435
threshold=0.69429362639279579 0.64752185953206431 0.39909727219205871 0.20841237652907704 0.27350035978282211 0.46559167920455291 0.68756677787226628 0.32731514794705746 0.28487167746015141 0.32925579468393634 0.46379276509452477 0.33042236322801516 0.49588339406031279 0.40219358496325858
decision_type=2 2 2 2 2 2 2 2 2 2 2 2 2 2
left_child=1 2 3 -1 -4 -2 9 -3 -5 -6 -11 -10 -13 -12
right_child=5 7 4 8 6 -7 -8 -9 11 10 13 12 -14 -15
leaf_value=0.0073102246837648144 -0.0044789490138140067 0.00090767773189803682 -0.0046745366949055879 -0.0020759730745164864 -0.0029288314199740336 0.00083634510065718187 0.0024203846920281651 0.0045889036450535063 0.0028653601882979276 0.0010501766740344466 -0.0028020179697445463 0.001027035216070913 -0.0011379564333205614 -0.00088445904936331008
leaf_weight=22 23 21 28 26 28 33 25 30 20 35 21 37 26 21
leaf_count=22 23 21 28 26 28 33 25 30 20 35 21 37 26 21
internal_value=0.00015363 0.000400747 -7.08451e-05 0.00131733 -0.0012218 -0.00134672 -0.000478135 0.0030731 0.000107755 -0.00116826 -0.00052805 0.000791815 0.000133547 -0.00184324
internal_weight=396 340 289 131 158 56 130 51 109 105 77 83 63 42
internal_count=396 340 289 131 158 56 130 51 109 105 77 83 63 42
is_linear=0
shrinkage=0.05


Tree=48
num_leaves=15
num_cat=0
split_feature=4 0 2 0 4 2 2 4 1 0 0 0 1 3
split_gain=0.0530027 0.154685 0.166689 0.342806 0.147447 0.138234 0.0792982 0.0604314 0.0587795 0.0556694 0.0690667 0.0419379 0.0551561 0.0146533
threshold=0.69429362639279579 0.64752185953206431 0.39909727219205871 0.20841237652907704 0.24943852074747611 0.46559167920455291 0.68756677787226628 0.32731514794705746 0.28487167746015141 0.32925579468393634 0.46379276509452477 0.37892762914022809 0.49588339406031279 0.40219358496325858
decision_type=2 2 2 2 2 2 2 2 2 2 2 2 2 2
left_child=1 2 3 -1 -4 -2 9 -3 -5 -6 -11 -10 -13 -12
right_child=5 7 4 8 6 -7 -8 -9 11 10 13 12 -14 -15
leaf_value=0.0069447135087102657 -0.0042550014773555826 0.00086229391495830246 -0.0050620151240201227 -0.0019721744794738839 -0.0029042558542641929 0.0007945277537642555 0.0019228137823609779 0.0043594583760326105 0.0021356699579028471 0.0011835087420574079 -0.0026867412073029715 0.0012523133877729035 -0.002112361289826887 -0.00084023611561860894
leaf_weight=22 23 21 21 26 32 33 26 30 33 36 22 29 21 21
leaf_count=22 23 21 21 26 32 33 26 30 33 36 22 29 21 21
internal_value=0.000145949 0.00038071 -6.73029e-05 0.00125146 -0.00116071 -0.00127939 -0.000562701 0.00291945 0.000102368 -0.00114489 -0.00043224 0.000752224 -0.00016085 -0.00178496
internal_weight=396 340 289 131 158 56 137 51 109 111 79 83 50 43
internal_count=396 340 289 131 158 56 137 51 109 111 79 83 50 43
is_linear=0
shrinkage=0.05


Tree=49
num_leaves=16
num_cat=0
split_feature=4 0 3 2 0 3 0 0 2 4 1 3 2 2 4
split_gain=0.047835 0.139603 0.153915 0.124756 0.0940557 0.129962 0.0713446 0.096992 0.0946479 0.0966701 0.0771758 0.0684573 0.0548575 0.0504299 0.019668
threshold=0.69429362639279579 0.64752185953206431 0.78386864656243882 0.46559167920455291 0.56711585006868581 0.56388870718039297 0.51346459955081669 0.45846143782298693 0.55787052179411722 0.37892762914022809 0.33195961710385735 0.38235101720416048 0.42505614792525243 0.39294825668868977 0.45899566080111642
decision_type=2 2 2 2 2 2 2 2 2 2 2 2 2 2 2
left_child=1 2 4 -2 5 6 7 8 9 10 -1 -9 -3 -12 -11
right_child=3 12 -4 -5 -6 -7 -8 11 -10 14 13 -13 -14 -15 -16
leaf_value=-0.00014324539983847541 -0.0040422515062939219 0.00073188678739825267 -0.0039880257828728014 0.00075480147568283214 -0.0030220569072116634 0.0033651893888600169 0.0025832014060579241 -0.0043858151217656474 -0.0027360529128816866 -0.0016363996815366242 0.0051976144629796708 -0.00039470907173712148 0.0040906319578718998 0.0017720870715989311 0.00024247035073737307
leaf_weight=23 23 20 23 33 20 35 25 21 21 26 21 22 31 22 30
leaf_count=23 23 20 23 33 20 35 25 21 21 26 21 22 31 22 30
internal_value=0.000138651 0.000361674 -6.39377e-05 -0.00121542 0.000275363 0.000543446 7.53844e-05 -0.000261688 0.000364418 0.000898106 0.00219456 -0.00234385 0.00277348 0.00344502 -0.000629862
internal_weight=396 340 289 56 266 246 211 186 143 122 66 43 51 43 56
internal_count=396 340 289 56 266 246 211 186 143 122 66 43 51 43 56
is_linear=0
shrinkage=0.05


Tree=50
num_leaves=16
num_cat=0
split_feature=3 3 3 0 3 3 2 1 4 4 3 1 1 4 0
split_gain=0.148454 0.130015 0.122357 0.122226 0.115055 0.114544 0.129774 0.140571 0.146397 0.100484 0.0824923 0.0762739 0.0629961 0.0341519 0.00855187
threshold=0.76430136717472374 0.66832384814984425 0.89798521619676863 0.19929787837160118 0.16215302762695977 0.23414229955735816 0.52178321449597709 0.63270534877128715 0.21086544122456993 0.49918571880246837 0.37140489740738319 0.48379887049998915 0.36789428926538892 0.42987505723817626 0.36099300058873557
decision_type=2 2 2 2 2 2 2 2 2 2 2 2 2 2 2
left_child=1 3 -2 -1 -5 -6 7 8 -7 -8 13 12 14 -10 -12
right_child=2 -3 -4 4 5 6 9 -9 10 -11 11 -13 -14 -15 -16
leaf_value=-0.0025211812958169065 -0.0052468329870506477 0.0042637835739878938 0.00010053064906969667 -0.0022628628662122148 0.0043288003642200715 0.0044240453432972905 -0.0034813895141269317 0.0046601084332602719 -0.00033471427037462444 0.00085134391227494109 0.0014739086048211902 -0.0013521680554661613 0.0037207477855392629 -0.0026734685835738976 0.00010978869848056799
leaf_weight=39 23 20 20 35 21 22 32 24 37 23 20 26 27 27 27
leaf_count=39 23 20 20 35 21 22 32 24 37 23 20 26 27 27 27
internal_value=2.48556e-05 0.000339949 -0.00275969 0.000121958 0.000443087 0.000774234 0.000492552 0.00105881 0.000594125 -0.00166952 8.03549e-05 0.000977463 0.00179598 -0.00132138 0.000690265
internal_weight=423 380 43 360 321 286 265 210 186 55 164 100 74 64 47
internal_count=423 380 43 360 321 286 265 210 186 55 164 100 74 64 47
is_linear=0
shrinkage=0.05


Tree=51
num_leaves=16
num_cat=0
split_feature=3 3 3 0 3 3 2 1 4 4 3 4 1 3 4
split_gain=0.13398 0.117338 0.110427 0.110309 0.103837 0.103376 0.117121 0.126865 0.132123 0.0906873 0.0744493 0.0714941 0.0809209 0.0451084 0.0308221
threshold=0.76430136717472374 0.66832384814984425 0.89798521619676863 0.19929787837160118 0.16215302762695977 0.23414229955735816 0.52178321449597709 0.63270534877128715 0.21086544122456993 0.49918571880246837 0.37140489740738319 0.55516669937419605 0.47081398137851338 0.4436994396109985 0.42987505723817626
decision_type=2 2 2 2 2 2 2 2 2 2 2 2 2 2 2
left_child=1 3 -2 -1 -5 -6 7 8 -7 -8 14 12 13 -12 -10
right_child=2 -3 -4 4 5 6 9 -9 10 -11 11 -13 -14 -15 -16
leaf_value=-0.0023951222535031728 -0.0049844915573687663 0.0040505944017786531 9.5504208002239468e-05 -0.0021497197289552009 0.0041123603143551875 0.0042028430912813006 -0.0033073200491344325 0.0044271030230447648 -0.00031797847957539097 0.00080877666807045116 0.0030377228699979327 0.0034459253603761849 -0.0024346935119302499 0.00012180551889792292 -0.0025397952094122216
leaf_weight=39 23 20 20 35 21 22 32 24 37 23 21 22 21 36 27
leaf_count=39 23 20 20 35 21 22 32 24 37 23 21 22 21 36 27
internal_value=2.36128e-05 0.000322951 -0.0026217 0.00011586 0.000420932 0.000735523 0.000467924 0.00100587 0.000564419 -0.00158604 7.63372e-05 0.00092859 0.000218572 0.00119609 -0.00125531
internal_weight=423 380 43 360 321 286 265 210 186 55 164 100 78 57 64
internal_count=423 380 43 360 321 286 265 210 186 55 164 100 78 57 64
is_linear=0
shrinkage=0.05


Tree=52
num_leaves=17
num_cat=0
split_feature=2 2 3 1 4 1 3 0 1 2 1 1 3 1 4 2
split_gain=0.121169 0.148857 0.195625 0.161471 0.138511 0.129211 0.0872488 0.0863644 0.129834 0.0841209 0.0547468 0.06 0.0373995 0.065772 0.0283386 0.0183616
threshold=0.081016550009812296 0.52178321449597709 0.51388979743136887 0.64271385272889836 0.15544798412594585 0.4518109068707617 0.61929526176925942 0.28205882994265286 0.32925579468393634 0.64271385272889836 0.26104969363947583 0.48379887049998915 0.37140489740738319 0.38739887922199695 0.39027714179804196 0.39909727219205871
decision_type=2 2 2 2 2 2 2 2 2 2 2 2 2 2 2 2
left_child=-1 3 5 4 -2 -3 7 8 -6 -4 -9 12 15 -14 -13 -12
right_child=1 2 9 -5 6 -7 -8 10 -10 -11 11 14 13 -15 -16 -17
leaf_value=-0.003680100447187821 0.0043648329004645344 -0.0018464278965962654 -0.0061855752067640421 0.0039193310189639804 0.00072838356951251634 0.0024569607906144214 0.0031765537452884021 -0.0018511407068357447 -0.004726314461246754 -0.0019704935303989572 0.0012536434183684402 -0.0022803554823622109 0.00074831730521362908 0.0043229886529099369 0.00032014859924939547 -0.00086322050075978048
leaf_weight=21 20 33 20 37 20 37 20 26 24 29 21 20 31 22 22 20
leaf_count=21 20 33 20 37 20 37 20 26 24 29 21 20 31 22 22 20
internal_value=2.24321e-05 0.000215848 -0.0012679 0.000839757 0.000376569 0.00042822 2.36256e-05 -0.000282484 -0.00224691 -0.00369094 0.000251063 0.000652955 0.00135495 0.00223214 -0.000918187 0.000221027
internal_weight=423 402 119 283 246 70 226 206 44 49 162 136 94 53 42 41
internal_count=423 402 119 283 246 70 226 206 44 49 162 136 94 53 42 41
is_linear=0
shrinkage=0.05


Tree=53
num_leaves=16
num_cat=0
split_feature=3 3 3 0 3 3 1 4 4 3 3 2 0 2 1
split_gain=0.11611 0.10696 0.100738 0.0946876 0.090616 0.0941256 0.127137 0.0851481 0.0889571 0.0692938 0.0564513 0.0584531 0.0416818 0.0297961 0.00677652
threshold=0.76430136717472374 0.66832384814984425 0.89798521619676863 0.19929787837160118 0.16215302762695977 0.55787052179411722 0.63270534877128715 0.58194780608796148 0.21086544122456993 0.25663417718758869 0.37140489740738319 0.437921109439393 0.39294825668868977 0.40219358496325858 0.40219358496325858
decision_type=2 2 2 2 2 2 2 2 2 2 2 2 2 2 2
left_child=1 3 -2 -1 -5 6 7 8 -6 -10 11 -11 14 -14 -12
right_child=2 -3 -4 4 5 -7 -8 -9 9 10 12 -13 13 -15 -16
leaf_value=-0.0022241546921670822 -0.0046980386437929199 0.0038589568436145786 0.00015398551127873361 -0.002016525768807956 0.003141963174989955 -0.0019227587065899804 0.0038414207150173543 0.0029422997697110989 0.0025208187521639051 -0.00061701195249602627 -0.00032052390277385716 -0.0038402710998938841 0.0025081261101624242 -3.6950556703073827e-05 -0.0016221114131622018
leaf_weight=39 23 20 20 35 22 31 34 32 20 39 20 22 23 23 20
leaf_count=39 23 20 20 35 22 31 34 32 20 39 20 22 23 23 20
internal_value=2.13106e-05 0.000299972 -0.00244128 0.000102251 0.000384899 0.000678779 0.000995045 0.000557141 0.000153304 -0.000240412 -0.000616089 -0.0017795 0.00020912 0.00123559 -0.000971318
internal_weight=423 380 43 360 321 286 255 221 189 167 147 61 86 46 40
internal_count=423 380 43 360 321 286 255 221 189 167 147 61 86 46 40
is_linear=0
shrinkage=0.05


Tree=54
num_leaves=16
num_cat=0
split_feature=2 2 4 3 1 1 4 3 0 2 1 0 1 3 1
split_gain=0.107377 0.128931 0.181973 0.15634 0.14614 0.14038 0.12223 0.0804833 0.0745126 0.0675087 0.0532992 0.0471193 0.0873424 0.0701353 0.0402446
threshold=0.081016550009812296 0.52178321449597709 0.30179237260417358 0.27632410981007832 0.37140489740738319 0.64271385272889836 0.15544798412594585 0.61929526176925942 0.20663526743856436 0.66389742918819927 0.26104969363947583 0.52720176184557699 0.48379887049998915 0.37140489740738319 0.36789428926538892
decision_type=2 2 2 2 2 2 2 2 2 2 2 2 2 2 2
left_child=-1 5 -3 -4 -5 6 -2 8 -8 -6 -10 12 13 -12 -15
right_child=1 2 3 4 9 -7 7 -9 10 -11 11 -13 -14 14 -16
leaf_value=-0.0034652067581191662 0.0040976284968201075 -0.0055286953272297981 0.0033121151707904495 -0.0048278546701608742 -0.0019698879138256116 0.0036543839617405797 -0.0031744247651658954 0.0030477606318891053 -0.00181940995498735 0.0015879025143415979 -0.00079828720190562314 0.0022389756844796499 -0.0020363749885881268 0.00083788704440190375 0.0036738361382793469
leaf_weight=21 20 20 23 22 24 37 20 20 32 30 37 29 37 29 22
leaf_count=21 20 20 23 22 24 37 20 20 32 30 37 29 37 29 22
internal_value=2.0245e-05 0.000202321 -0.00117856 -0.000299741 -0.0013928 0.000782973 0.000351094 1.95421e-05 -0.00027446 6.66232e-06 3.73645e-05 0.000423188 1.92495e-06 0.000858937 0.00206124
internal_weight=423 402 119 99 76 283 246 226 206 54 186 154 125 88 51
internal_count=423 402 119 99 76 283 246 226 206 54 186 154 125 88 51
is_linear=0
shrinkage=0.05


Tree=55
num_leaves=16
num_cat=0
split_feature=2 1 2 1 0 4 0 0 1 1 1 2 2 1 3
split_gain=0.113851 0.116325 0.0826801 0.129145 0.0988302 0.0757762 0.0709146 0.036099 0.0451629 0.0961461 0.0204245 0.0225102 0.0268026 0.0715655 0.0112091
threshold=0.14812149756874038 0.78386864656243882 0.6787575499880073 0.65258062405965855 0.52720176184557699 0.65352914240858251 0.64752185953206431 0.2160005233204684 0.25762630557554361 0.2993502104184384 0.34898933734545701 0.35313229105340055 0.42505614792525243 0.47818407797474982 0.38235101720416048
decision_type=2 2 2 2 2 2 2 2 2 2 2 2 2 2 2
left_child=-1 2 3 5 -4 6 7 -2 -9 -10 -11 14 -13 -14 -12
right_child=1 -3 4 -5 -6 -7 -8 8 9 10 11 12 13 -15 -16
leaf_value=0.0036092599336989225 0.0022621853230521084 -0.0027116005252482314 0.00022928242996225463 0.0044950842724314757 -0.0042002427810803062 -0.0018602096250106117 0.0035047693488498531 -0.0015083158403755197 0.0038242718845140191 0.0013076543419932327 2.2424949818979138e-05 -0.0018904985780994008 -0.0016890301506334385 0.0020317912780834983 0.0016409187112003565
leaf_weight=25 25 33 34 21 20 32 21 31 20 30 23 28 28 24 20
leaf_count=25 25 33 34 21 20 32 21 31 20 30 23 28 28 24 20
internal_value=0.000338294 0.000128616 0.000391157 0.000712384 -0.00141128 0.000430694 0.00072393 0.000468918 0.000249155 0.000564077 0.000137908 -0.000147396 -0.000643298 2.8272e-05 0.000775213
internal_weight=415 390 357 303 54 282 250 229 204 173 153 123 80 52 43
internal_count=415 390 357 303 54 282 250 229 204 173 153 123 80 52 43
is_linear=0
shrinkage=0.05


Tree=56
num_leaves=15
num_cat=0
split_feature=2 1 2 1 0 4 0 2 0 4 2 4 0 1
split_gain=0.10275 0.104983 0.0746188 0.116553 0.0891942 0.068388 0.0640004 0.034024 0.0906777 0.0751889 0.058471 0.0817276 0.042516 0.0328713
threshold=0.14812149756874038 0.78386864656243882 0.6787575499880073 0.65258062405965855 0.52720176184557699 0.65352914240858251 0.64752185953206431 0.40940014391312884 0.33195961710385735 0.3519221124702907 0.48262139944615257 0.34006018185386272 0.41449161596999634 0.38235101720416048
decision_type=2 2 2 2 2 2 2 2 2 2 2 2 2 2
left_child=-1 2 3 5 -4 6 7 8 -2 -10 -9 -12 -11 -13
right_child=1 -3 4 -5 -6 -7 -8 10 9 12 11 13 -14 -15
leaf_value=0.0034287968240678313 0.0030036421743436501 -0.0025760205942347196 0.00021781823803287222 0.0042703300226657167 -0.0039902307325974107 -0.00176719913361012 0.0033295309503695797 -0.0017502339423980376 -0.001599781883241785 -0.00033380740089342001 0.0032694619015923572 0.001028949891915545 0.0027077665293796199 -0.001667273190105334
leaf_weight=25 39 33 34 21 20 32 21 39 37 20 21 20 27 26
leaf_count=25 39 33 34 21 20 32 21 39 37 20 21 20 27 26
internal_value=0.000321379 0.000122186 0.0003716 0.000676765 -0.00134072 0.000409159 0.000687733 0.000445472 0.00101125 8.62097e-05 -0.000211043 0.000684904 0.00141348 -0.000495002
internal_weight=415 390 357 303 54 282 250 229 123 84 106 67 47 46
internal_count=415 390 357 303 54 282 250 229 123 84 106 67 47 46
is_linear=0
shrinkage=0.05


Tree=57
num_leaves=15
num_cat=0
split_feature=2 1 2 1 0 4 0 1 1 1 3 4 3 3
split_gain=0.0927321 0.0947475 0.0673435 0.105189 0.0804978 0.0633478 0.0740371 0.0882369 0.0517361 0.0451163 0.0362136 0.0620964 0.0712857 0.0144793
threshold=0.14812149756874038 0.78386864656243882 0.6787575499880073 0.65258062405965855 0.52720176184557699 0.21983820675519508 0.41449161596999634 0.34485728614727118 0.26104969363947583 0.43606768278057617 0.5076317568304225 0.48670984060530742 0.37559146115435771 0.47039968600771903
decision_type=2 2 2 2 2 2 2 2 2 2 2 2 2 2
left_child=-1 2 3 5 -4 -2 7 8 -7 -9 11 12 -8 -11
right_child=1 -3 4 -5 -6 6 10 9 -10 13 -12 -13 -14 -15
leaf_value=0.0032573571130633354 0.0023794927048896041 -0.0024472195274111899 0.00020692732513827436 0.0040568136343998576 -0.0037907192250713709 -0.0013247630186378955 -0.00078353630142865356 -0.0037097661678368848 0.0018469561706297101 -0.00018676915982117256 -0.0004122865360199392 0.0032687134400475773 0.0029215022223070264 -0.0020083542866632343
leaf_weight=25 35 33 34 21 20 20 37 24 36 24 34 32 20 20
leaf_count=25 35 33 34 21 20 20 37 24 36 24 34 32 20 20
internal_value=0.00030531 0.000116076 0.00035302 0.000642927 -0.00127368 0.000388701 0.000106605 -0.000755555 0.000714199 -0.00196594 0.000975775 0.00150605 0.000516477 -0.00101476
internal_weight=415 390 357 303 54 282 247 124 56 68 123 89 57 44
internal_count=415 390 357 303 54 282 247 124 56 68 123 89 57 44
is_linear=0
shrinkage=0.05


Tree=58
num_leaves=16
num_cat=0
split_feature=2 1 2 4 4 3 4 2 4 3 0 1 1 0 1
split_gain=0.0836907 0.0855096 0.0620664 0.102106 0.0822024 0.0854202 0.0576091 0.047493 0.135935 0.0594431 0.0454998 0.0380095 0.0214658 0.0402192 0.0358678
threshold=0.14812149756874038 0.78386864656243882 0.55787052179411722 0.20919735723163477 0.3519221124702907 0.29568696713983567 0.65352914240858251 0.48262139944615257 0.62992520878306191 0.47962320926277235 0.53364514511240502 0.52720176184557699 0.34485728614727118 0.37559146115435771 0.27263906151196016
decision_type=2 2 2 2 2 2 2 2 2 2 2 2 2 2 2
left_child=-1 2 3 -2 -4 -6 -7 8 10 -9 11 12 14 -14 -5
right_child=1 -3 4 7 5 6 -8 9 -10 -11 -12 -13 13 -15 -16
leaf_value=0.0030944891497492791 0.003426804564773075 -0.0023248585703020746 -0.0036076487234095109 -0.0009073070142351623 -0.0027982118632644418 0.0022408298502809235 -0.0011231070477515459 0.0032018751451938321 -0.0036897426174784249 -0.00029111330236663066 0.002333145320881158 0.0020618524579774766 -0.002758884867653251 0.00011702870861852481 0.0015615074760130339
leaf_weight=25 31 33 20 28 20 35 20 29 22 21 28 21 20 31 31
leaf_count=25 31 33 20 28 20 35 20 29 22 21 28 21 20 31 31
internal_value=0.000290045 0.000110272 0.000335369 0.000732355 -0.000759477 3.55539e-08 0.00101758 0.000370762 -6.04994e-06 0.00173482 0.000503643 0.000112605 -0.000259524 -0.00101078 0.000389867
internal_weight=415 390 357 262 95 75 55 231 181 50 159 131 110 51 59
internal_count=415 390 357 262 95 75 55 231 181 50 159 131 110 51 59
is_linear=0
shrinkage=0.05


Tree=59
num_leaves=17
num_cat=0
split_feature=2 1 2 4 4 3 4 2 4 3 2 1 4 1 3 4
split_gain=0.0755309 0.0771724 0.0560149 0.0921507 0.0741877 0.0770918 0.0519922 0.0428624 0.122681 0.0536474 0.0443014 0.0589865 0.0591593 0.0549172 0.033479 0.0115621
threshold=0.14812149756874038 0.78386864656243882 0.55787052179411722 0.20919735723163477 0.3519221124702907 0.29568696713983567 0.65352914240858251 0.48262139944615257 0.62992520878306191 0.47962320926277235 0.43212097424827201 0.52720176184557699 0.35041756612372177 0.31290203004731698 0.40701249427618241 0.28444647957959929
decision_type=2 2 2 2 2 2 2 2 2 2 2 2 2 2 2 2
left_child=-1 2 3 -2 -4 -6 -7 8 10 -9 11 12 15 -14 -15 -5
right_child=1 -3 4 7 5 6 -8 9 -10 -11 -12 -13 13 14 -16 -17
leaf_value=0.0029397646542638541 0.003255464369431138 -0.0022086156814387354 -0.0034272662689909341 -0.00025339218388710705 -0.0026583012426272036 0.002128788310635303 -0.0010669517703354359 0.0030417814208515762 -0.0035052554533732214 -0.00027655769843563791 -0.0014091785596414971 0.0033503795298747718 0.0032303703793634974 0.0015970664021248621 -0.0010724690278394796 -0.0019125751419258969
leaf_weight=25 31 33 20 21 20 35 20 29 22 21 26 20 24 24 23 21
leaf_count=25 31 33 20 21 20 35 20 29 22 21 26 20 24 24 23 21
internal_value=0.000275542 0.000104759 0.0003186 0.000695737 -0.000721503 3.37415e-08 0.000966701 0.000352224 -5.74746e-06 0.00164808 0.000478461 0.000847473 0.000404481 0.00128439 0.000290698 -0.00108298
internal_weight=415 390 357 262 95 75 55 231 181 50 159 133 113 71 47 42
internal_count=415 390 357 262 95 75 55 231 181 50 159 133 113 71 47 42
is_linear=0
shrinkage=0.05


Tree=60
num_leaves=17
num_cat=0
split_feature=0 2 3 3 2 3 2 0 1 4 1 3 4 2 3 0
split_gain=0.100037 0.142508 0.100097 0.186874 0.0946773 0.0684612 0.115535 0.0819862 0.068332 0.0519925 0.0406788 0.0560605 0.0486646 0.0348135 0.0342903 0.0203866
threshold=0.64752185953206431 0.66832384814984425 0.76430136717472374 0.65258062405965855 0.40940014391312884 0.34785547633065139 0.44619611434552242 0.41766424630950044 0.61929526176925942 0.42343167397134823 0.27263906151196016 0.55516669937419605 0.33115283138178414 0.35065742133839217 0.42505614792525243 0.4241512396153595
decision_type=2 2 2 2 2 2 2 2 2 2 2 2 2 2 2 2
left_child=2 4 3 5 -2 6 9 -8 10 15 -7 12 -12 -14 -15 -1
right_child=1 -3 -4 -5 -6 8 7 -9 -10 -11 11 -13 13 14 -16 -17
leaf_value=0.0010852801571176812 0.00054417898539792404 -0.0016547081099512679 -0.0030283220271979062 0.0040288951131515205 0.004893962338422265 -0.0026914109563222158 0.00031870741410745286 0.004639796720030496 -0.0038014887673356993 -0.0030641442770138385 0.0020067877611533429 -0.0028565335827443051 -0.0022528283975341104 0.0014681944660842419 -0.001039106411820588 -0.0010927082433010496
leaf_weight=22 22 24 35 24 29 24 23 21 22 20 24 20 22 25 30 21
leaf_count=22 22 24 35 24 29 24 23 21 22 20 24 20 22 25 30 21
internal_value=-0.000127271 0.00152245 -0.00049883 -0.000201742 0.00301759 -0.000572309 0.000415069 0.00238105 -0.00120494 -0.000957994 -0.000810981 -0.000438003 4.09144e-05 -0.000571825 0.000100576 2.16114e-05
internal_weight=408 75 333 298 51 274 107 44 167 63 145 121 101 77 55 43
internal_count=408 75 333 298 51 274 107 44 167 63 145 121 101 77 55 43
is_linear=0
shrinkage=0.05


Tree=61
num_leaves=16
num_cat=0
split_feature=0 2 3 3 2 0 1 3 4 2 1 2 0 3 4
split_gain=0.090283 0.128614 0.0903379 0.168654 0.0854462 0.067034 0.0990149 0.0606777 0.0556513 0.032903 0.0399264 0.0331206 0.0247726 0.0246481 0.015148
threshold=0.64752185953206431 0.66832384814984425 0.76430136717472374 0.65258062405965855 0.40940014391312884 0.19929787837160118 0.6787575499880073 0.23414229955735816 0.24943852074747611 0.33042236322801516 0.39294825668868977 0.41245284664529774 0.32925579468393634 0.42505614792525243 0.40391618150498249
decision_type=2 2 2 2 2 2 2 2 2 2 2 2 2 2 2
left_child=2 4 3 5 -2 -1 7 -7 -9 10 -10 14 -13 -14 -11
right_child=1 -3 -4 -5 -6 6 -8 8 9 11 -12 12 13 -15 -16
leaf_value=-0.0025545422383907463 0.00051697000056843869 -0.0015719725672776502 -0.002876905749684998 0.0038274503856276475 0.004649264121765335 0.0021476078831079988 -0.0032848517609333308 0.0022446838079486042 -0.0030932402781521282 8.2195001992989671e-05 -0.00014432676517489281 -0.0021080558107275031 0.00090489780952878037 -0.00129731731215846 0.0019596124156599955
leaf_weight=36 22 24 35 24 29 31 24 20 24 22 22 23 27 24 21
leaf_count=36 22 24 35 24 29 31 24 20 24 22 22 23 27 24 21
internal_value=-0.000120907 0.00144633 -0.000473888 -0.000191655 0.00286671 -0.000543693 -0.000239531 0.000102 -0.000244523 -0.000549948 -0.00168289 -0.000104517 -0.000745793 -0.000131439 0.000999073
internal_weight=408 75 333 298 51 274 238 214 183 163 46 117 74 51 43
internal_count=408 75 333 298 51 274 238 214 183 163 46 117 74 51 43
is_linear=0
shrinkage=0.05


Tree=62
num_leaves=14
num_cat=0
split_feature=4 4 0 3 1 1 0 2 0 0 0 2 3
split_gain=0.0845396 0.084103 0.137235 0.0850823 0.101437 0.0498308 0.0808879 0.0448377 0.106367 0.0974323 0.0857397 0.075592 0.0351654
threshold=0.90189921719979949 0.69429362639279579 0.64752185953206431 0.34785547633065139 0.70640631473365179 0.33949325134645997 0.44683936242122946 0.40940014391312884 0.32548352630775618 0.33042236322801516 0.43963280347135913 0.33949325134645997 0.46334576219445722
decision_type=2 2 2 2 2 2 2 2 2 2 2 2 2
left_child=1 2 3 5 7 -1 -7 8 -5 -9 -11 -10 -4
right_child=-2 -3 12 4 -6 6 -8 9 11 10 -12 -13 -14
leaf_value=0.0023845996058005237 0.0029748350758815097 -0.0025495304424013642 0.0033853072283693171 0.0026282899581490022 -0.0040611738543957472 -0.0014695269951167016 0.002219774301435488 -0.0035816036051873005 -0.0031321926079690456 0.0021061957731338529 -0.0018214814978736371 0.00068336354775561233 0.00096303152160779129
leaf_weight=31 21 37 29 29 25 39 24 33 25 24 33 27 31
leaf_count=31 21 37 29 29 25 39 24 33 25 24 33 27 31
internal_value=-0.000114862 -0.00028252 -4.28644e-05 -0.000493208 -0.00108631 0.000743464 -6.40789e-05 -0.000651384 0.000202054 -0.00141948 -0.000167723 -0.00115104 0.0021338
internal_weight=408 387 350 290 196 94 63 171 81 90 57 52 60
internal_count=408 387 350 290 196 94 63 171 81 90 57 52 60
is_linear=0
shrinkage=0.05


Tree=63
num_leaves=14
num_cat=0
split_feature=4 4 0 3 1 1 0 2 0 0 0 2 3
split_gain=0.076297 0.075903 0.123854 0.0767868 0.0915466 0.0449723 0.0730013 0.040466 0.0959959 0.0879327 0.0773801 0.0682218 0.0319044
threshold=0.90189921719979949 0.69429362639279579 0.64752185953206431 0.34785547633065139 0.70640631473365179 0.33949325134645997 0.44683936242122946 0.40940014391312884 0.32548352630775618 0.33042236322801516 0.43963280347135913 0.33949325134645997 0.48670984060530742
decision_type=2 2 2 2 2 2 2 2 2 2 2 2 2
left_child=1 2 3 5 7 -1 -7 8 -5 -9 -11 -10 -4
right_child=-2 -3 12 4 -6 6 -8 9 11 10 -12 -13 -14
leaf_value=0.0022653696884287543 0.0028260934299656326 -0.0024220539332442995 0.0031422700943245043 0.0024968754586458595 -0.0038581151943653824 -0.0013960506170032881 0.0021087856730446219 -0.003402523488109706 -0.0029755830243229867 0.002000885938226323 -0.001730407428024619 0.00064919540589606327 0.00083503854974847414
leaf_weight=31 21 37 31 29 25 39 24 33 25 24 33 27 29
leaf_count=31 21 37 31 29 25 39 24 33 25 24 33 27 29
internal_value=-0.000109119 -0.000268394 -4.07212e-05 -0.000468548 -0.00103199 0.000706291 -6.08749e-05 -0.000618815 0.000191952 -0.00134851 -0.000159337 -0.00109349 0.00202711
internal_weight=408 387 350 290 196 94 63 171 81 90 57 52 60
internal_count=408 387 350 290 196 94 63 171 81 90 57 52 60
is_linear=0
shrinkage=0.05


Tree=64
num_leaves=16
num_cat=0
split_feature=4 1 0 1 4 2 3 1 3 1 4 2 0 3 3
split_gain=0.068858 0.0778656 0.157183 0.151888 0.152108 0.148746 0.137825 0.0604699 0.0588259 0.0503814 0.0476118 0.075179 0.0677221 0.0644177 0.0117797
threshold=0.90189921719979949 0.27001155666034327 0.78608185604326131 0.70640631473365179 0.62992520878306191 0.37140489740738319 0.28317088593794298 0.20663526743856436 0.58548657901048828 0.33949325134645997 0.22353415756307105 0.2993502104184384 0.41449161596999634 0.39294825668868977 0.43212097424827201
decision_type=2 2 2 2 2 2 2 2 2 2 2 2 2 2 2
left_child=1 6 3 4 8 -5 -1 -8 9 -3 -11 -12 14 -14 -13
right_child=-2 2 -4 5 -6 -7 7 -9 -10 10 11 12 13 -15 -16
