tree
version=v4
num_class=1
num_tree_per_iteration=1
label_index=0
max_feature_idx=4
objective=regression
feature_names=Column_0 Column_1 Column_2 Column_3 Column_4
feature_infos=[0:1] [0:1] [0:1] [0:1] [0:1]
tree_sizes=1523 1523 1522 1532 1523 1449 1454 1536 1452 1452 1535 1619 1535 1542 1446 1540 1449 1539 1453 1538 1635 1635 1544 1546 1634 1455 1446 1367 1452 1548 1540 1458 1542 1450 1461 1546 1640 1552 1553 1556 1553 1380 1555 1638 1470 1461 1551 1462 1465 1553 1637 1640 1639 1640 1641 1543 1634 1547 1550 1468 1645 1561 1644 1558 1646 1634 1646 1721 1551 1554 1548 1550 1545 1548 1468 1547 1638 1551 1642 1641 1375 1731 1561 1376 1648 1552 1551 1459 1558 1643 1644 1641 1736 1732 1644 1562 1732 1475 1733 1473

Tree=0
num_leaves=17
num_cat=0
split_feature=1 3 0 4 1 1 2 4 4 2 2 3 2 4 0 0
split_gain=1.76745 1.06945 0.685208 0.634538 0.351898 0.740129 0.407885 0.221196 0.211185 0.203723 0.408586 0.310523 0.148389 0.13263 0.033711 0.0218725
threshold=0.39152119700748134 0.2698254364089776 0.56758104738154624 0.52379052369077328 0.87630922693266844 0.74423940149625945 0.23640897755610973 0.29975062344139652 0.38713216957605989 0.69933499581047387 0.51172069825436417 0.54563591022443891 0.26832917705735665 0.3296758104738155 0.27770573566084794 0.31730673316708236
decision_type=2 2 2 2 2 2 2 2 2 2 2 2 2 2 2 2
left_child=1 8 3 7 5 6 -2 14 12 10 11 13 -1 -8 -3 -9
right_child=4 2 -4 -5 -6 -7 9 15 -10 -11 -12 -13 -14 -15 -16 -17
leaf_value=0.39568694542451854 0.41600781955807181 0.39901628246504212 0.41465375565610885 0.41266358078042686 0.40401268660303763 0.41939028789872412 0.4106108945278803 0.40395934153908458 0.40355580863360957 0.41297247536997017 0.40293604679838396 0.41487904217494359 0.40036432900274427 0.40559896978184318 0.4017957504546939 0.40614092460849927
leaf_weight=39 20 24 20 20 23 21 22 20 20 20 34 20 30 33 20 27
leaf_count=39 20 24 20 20 23 21 22 20 20 20 34 20 30 33 20 27
internal_value=0.406325 0.403261 0.406135 0.4046 0.409817 0.410602 0.409364 0.402827 0.399032 0.408334 0.407483 0.409544 0.397721 0.407604 0.40028 0.405213
internal_weight=413 220 131 111 193 170 149 91 89 129 109 75 69 55 44 47
internal_count=413 220 131 111 193 170 149 91 89 129 109 75 69 55 44 47
is_linear=0
shrinkage=1


Tree=1
num_leaves=16
num_cat=0
split_feature=1 3 0 4 1 1 2 0 4 2 2 3 2 3 4
split_gain=1.59513 0.965176 0.6184 0.57267 0.317588 0.667966 0.368116 0.202793 0.190595 0.18386 0.368749 0.280247 0.133921 0.128 0.10454
threshold=0.39152119700748134 0.2698254364089776 0.56758104738154624 0.52379052369077328 0.87630922693266844 0.74423940149625945 0.23640897755610973 0.28568578553615964 0.38713216957605989 0.69933499581047387 0.51172069825436417 0.54563591022443891 0.26832917705735665 0.29476309226932673 0.30623441396508733
decision_type=2 2 2 2 2 2 2 2 2 2 2 2 2 2 2
left_child=1 8 3 7 5 6 -2 -3 12 10 11 13 -1 -8 -9
right_child=4 2 -4 -5 -6 -7 9 14 -10 -11 -12 -13 -14 -15 -16
leaf_value=-0.0099819301866377018 0.0093229005206376305 -0.0059859982152518478 0.0080365394987165929 0.0061458733538165694 -0.0020724761866680957 0.012536245167610191 0.0045299154135864236 -0.0040522714727558194 -0.0025065103406086567 0.0064393231039866806 -0.0030952840906513092 0.0082505615847185253 -0.0055384159196789073 -0.00048434236120166522 0.00052890824400960953
leaf_weight=39 20 38 20 20 23 21 20 20 20 20 34 20 30 35 33
leaf_count=39 20 38 20 20 23 21 20 20 20 20 34 20 30 35 33
internal_value=0.000124134 -0.00278631 -5.65735e-05 -0.00151479 0.00344174 0.00418779 0.00301116 -0.00319845 -0.00680425 0.00203259 0.00122402 0.0031821 -0.00804997 0.00133902 -0.00119984
internal_weight=413 220 131 111 193 170 149 91 89 129 109 75 69 55 53
internal_count=413 220 131 111 193 170 149 91 89 129 109 75 69 55 53
is_linear=0
shrinkage=0.05


Tree=2
num_leaves=16
num_cat=0
split_feature=1 0 4 2 1 1 2 3 4 1 3 0 1 1 2
split_gain=1.44124 1.01055 0.985556 0.355159 0.319561 0.555872 0.344769 0.210469 0.180663 0.17318 0.216221 0.148757 0.0836531 0.026058 0.0259767
threshold=0.40798004987531172 0.40798004987531172 0.38204488778054868 0.47152119700748135 0.87630922693266844 0.74423940149625945 0.29825436408977557 0.32219451371571078 0.54563591022443891 0.59361596009975071 0.43501246882793021 0.56059850374064846 0.26134663341645886 0.4777057356608479 0.21995012468827932
decision_type=2 2 2 2 2 2 2 2 2 2 2 2 2 2 2
left_child=1 2 7 11 5 6 -2 12 -4 10 -8 -3 14 -12 -1
right_child=4 3 8 -5 -6 -7 9 -9 -10 -11 13 -13 -14 -15 -16
leaf_value=-0.011073134619315778 0.0079767948281469544 0.0026928370052841134 -0.001342203553388666 -0.0024230087418919029 -0.0019688524265328178 0.01190943302852767 0.00028871869129177776 -0.0040974143883571604 0.0046664728581990028 -0.0017223321174522147 0.0042793094669468703 0.0084285247861407703 -0.0065429551216463254 0.0068316624977160251 -0.008721655769192654
leaf_weight=24 29 26 29 23 23 21 38 39 22 26 20 20 30 20 23
leaf_count=24 29 26 29 23 23 21 38 39 22 26 20 20 30 20 23
internal_value=0.000117928 -0.00244003 -0.00454313 0.00265007 0.00352854 0.00434958 0.00315592 -0.00709001 0.00124977 0.00181164 0.00298962 0.00518661 -0.00860574 0.00555549 -0.00992241
internal_weight=413 236 167 69 177 154 133 116 51 104 78 46 77 40 47
internal_count=413 236 167 69 177 154 133 116 51 104 78 46 77 40 47
is_linear=0
shrinkage=0.05


Tree=3
num_leaves=16
num_cat=0
split_feature=1 3 1 0 4 1 1 2 2 2 3 1 3 1 4
split_gain=1.30599 0.805439 0.566952 0.337665 0.291662 0.259486 0.54279 0.305172 0.165916 0.322823 0.243367 0.145787 0.119993 0.0996974 0.0602243
threshold=0.39152119700748134 0.2698254364089776 0.14613466334164588 0.40798004987531172 0.35495261845386539 0.87630922693266844 0.74423940149625945 0.23640897755610973 0.69933499581047387 0.51172069825436417 0.54563591022443891 0.24039900249376561 0.29476309226932673 0.13865336658354113 0.30174563591022446
decision_type=2 2 2 2 2 2 2 2 2 2 2 2 2 2 2
left_child=1 11 -3 4 -4 6 7 -2 9 10 12 13 -9 -1 -13
right_child=5 2 3 -5 -6 -7 -8 8 -10 -11 -12 14 -14 -15 -16
leaf_value=-0.0056500246367332616 0.0084744670568034069 0.0077213304350152619 -0.0063646407051680572 0.002398206255441581 -2.8873164110871803e-05 -0.0018704098345630844 0.011313961091495697 0.0042725902970414606 0.0060228236997500063 -0.0029728455811410268 0.0076238334039226176 -0.0060369331203401089 -0.00058231077223484015 -0.010265106946229936 -0.0022459287355145949
leaf_weight=22 20 20 39 38 34 23 21 20 20 34 20 20 35 25 22
leaf_count=22 20 20 39 38 34 23 21 20 20 34 20 20 35 25 22
internal_value=0.000112031 -0.00252146 -2.78185e-05 -0.00142406 -0.00341374 0.00311394 0.00378829 0.00272763 0.00183665 0.00106854 0.00290063 -0.00619188 0.00118311 -0.00810486 -0.00405117
internal_weight=413 220 131 111 73 193 170 149 129 109 75 89 55 47 42
internal_count=413 220 131 111 73 193 170 149 129 109 75 89 55 47 42
is_linear=0
shrinkage=0.05


Tree=4
num_leaves=16
num_cat=0
split_feature=1 0 4 2 1 1 2 3 1 3 4 1 1 2 1
split_gain=1.17953 0.850354 0.820234 0.315045 0.261059 0.451637 0.287251 0.176448 0.159424 0.187336 0.155446 0.140349 0.0696646 0.0232216 0.0206795
threshold=0.40798004987531172 0.40798004987531172 0.38204488778054868 0.47152119700748135 0.87630922693266844 0.74423940149625945 0.29825436408977557 0.32219451371571078 0.59361596009975071 0.43501246882793021 0.54563591022443891 0.28568578553615964 0.25835411471321695 0.21995012468827932 0.4777057356608479
decision_type=2 2 2 2 2 2 2 2 2 2 2 2 2 2 2
left_child=1 2 7 11 5 6 -2 12 9 -8 -4 -3 13 -1 -11
right_child=4 3 10 -5 -6 -7 8 -9 -10 14 -12 -13 -14 -15 -16
leaf_value=-0.010206199660087409 0.0072584406986575707 0.0073818430667743091 -0.0012564138398939294 -0.0023164153584967488 -0.0017768892985971078 0.01074826305599085 0.00024720242516578812 -0.0037202670059811611 -0.0017597073655521785 0.0040126991015858949 0.0043171699370511555 0.0018372036281063975 -0.006016161965559267 -0.0079593869088136638 0.0062864345195703213
leaf_weight=23 29 25 29 23 23 21 38 39 26 20 22 21 31 23 20
leaf_count=23 29 25 29 23 23 21 38 39 26 20 22 21 31 23 20
internal_value=0.00010643 -0.00220766 -0.00413688 0.00246159 0.00319189 0.00393398 0.00285804 -0.00646034 0.001631 0.00276124 0.00114788 0.00485059 -0.00784818 -0.00908279 0.00514957
internal_weight=413 236 167 69 177 154 133 116 104 78 51 46 77 46 40
internal_count=413 236 167 69 177 154 133 116 104 78 51 46 77 46 40
is_linear=0
shrinkage=0.05


Tree=5
num_leaves=15
num_cat=0
split_feature=1 0 4 4 3 4 2 4 0 2 0 4 3 1
split_gain=1.02763 0.755807 0.458712 0.381958 0.356299 0.270256 0.197595 0.149992 0.110039 0.107294 0.0880795 0.0666012 0.0569066 0.0295044
threshold=0.37925187032418956 0.44488778054862843 0.33965087281795514 0.68728179551122204 0.36059850374064839 0.28678304239401503 0.48159600997506241 0.36059850374064839 0.28678304239401503 0.55062344139650887 0.47152119700748135 0.14613466334164588 0.486284289276808 0.24039900249376561
decision_type=2 2 2 2 2 2 2 2 2 2 2 2 2 2
left_child=1 4 -3 5 7 6 -2 11 -7 10 -10 -1 -6 -13
right_child=3 2 -4 -5 12 8 -8 -9 9 -11 -12 13 -14 -15
leaf_value=-0.0049958542555104948 0.0065924292139243335 0.0083294385112822056 -0.0011148225422301847 0.0069380558888143349 0.00031516121506380541 -0.0030976217795306675 0.00043685537000948734 -0.0026651923287621081 0.0013940293908429643 0.0038143400684930388 -0.0025820423293715488 -0.0090646140065721494 -0.0030328041577542372 -0.0067874172031879426
leaf_weight=25 32 20 36 36 30 26 22 24 30 20 26 33 22 25
leaf_count=25 32 20 36 36 30 26 22 24 30 20 26 33 22 25
internal_value=-0.000362937 -0.00273716 0.00225813 0.0022957 -0.00449651 0.00122439 0.0040846 -0.00614653 -0.000289839 0.000670718 -0.000452004 -0.00715318 -0.00110129 -0.00808306
internal_weight=407 215 56 192 159 156 54 107 102 76 56 83 52 58
internal_count=407 215 56 192 159 156 54 107 102 76 56 83 52 58
is_linear=0
shrinkage=0.05


Tree=6
num_leaves=15
num_cat=0
split_feature=1 0 4 4 4 4 2 3 0 2 0 4 1 0
split_gain=0.927435 0.682116 0.413988 0.344717 0.323802 0.243906 0.178329 0.129981 0.0993103 0.096833 0.0794918 0.0601076 0.0597221 0.0295561
threshold=0.37925187032418956 0.44488778054862843 0.33965087281795514 0.68728179551122204 0.36059850374064839 0.28678304239401503 0.48159600997506241 0.36059850374064839 0.28678304239401503 0.55062344139650887 0.47152119700748135 0.14613466334164588 0.23640897755610973 0.20448877805486285
decision_type=2 2 2 2 2 2 2 2 2 2 2 2 2 2
left_child=1 4 -3 5 7 6 -2 11 -7 10 -10 -1 -6 -13
right_child=3 2 -4 -5 12 8 -8 -9 9 -11 -12 13 -14 -15
leaf_value=-0.0047460615835152571 0.0062628076513647109 0.0079129664599895486 -0.0010590815428359848 0.0065911532308544135 -0.0032097567915029472 -0.0029427406494505707 0.00041501267749646852 -0.0024728366554799407 0.0013243278779555114 0.0036236230470240121 -0.0024529401544266596 -0.0062865555318042075 0.00020113336476876585 -0.0085938865571681938
leaf_weight=25 32 20 36 36 21 26 22 22 30 20 26 23 33 35
leaf_count=25 32 20 36 36 21 26 22 22 30 20 26 23 33 35
internal_value=-0.00034479 -0.00260031 0.00214522 0.00218092 -0.00427169 0.00116317 0.00388037 -0.00588982 -0.000275347 0.000637182 -0.000429404 -0.00679552 -0.00112532 -0.00767891
internal_weight=407 215 56 192 159 156 54 105 102 76 56 83 54 58
internal_count=407 215 56 192 159 156 54 105 102 76 56 83 54 58
is_linear=0
shrinkage=0.05


Tree=7
num_leaves=16
num_cat=0
split_feature=1 0 4 4 3 4 0 4 0 2 0 4 3 3 2
split_gain=0.83701 0.61561 0.373624 0.311107 0.297226 0.220125 0.164833 0.117403 0.0899308 0.0853843 0.0761373 0.0546023 0.0537918 0.0509654 0.0340919
threshold=0.37925187032418956 0.44488778054862843 0.33965087281795514 0.68728179551122204 0.36059850374064839 0.28678304239401503 0.4219451371571073 0.36059850374064839 0.30354114713216956 0.55062344139650887 0.47152119700748135 0.13416458852867835 0.1665835411471322 0.486284289276808 0.20049875311720702
decision_type=2 2 2 2 2 2 2 2 2 2 2 2 2 2 2
left_child=1 4 -3 5 7 6 -2 11 -7 10 -10 -1 -13 -6 -14
right_child=3 2 -4 -5 13 8 -8 -9 9 -11 -12 12 14 -15 -16
leaf_value=-0.0041796451504342259 0.0064488109408153433 0.0075173182040452957 -0.0010061273889328327 0.0062615954343022574 0.00038339156841781614 -0.0026751561335653868 0.00092389729494849837 -0.0024851410656992813 0.0014272149327942837 0.0034424418886192147 -0.0023302931656452039 -0.009320601063081994 -0.0076916752150282264 -0.0027849892789328645 -0.0048690650045223865
leaf_weight=20 27 20 36 36 30 28 27 24 28 20 26 20 20 22 23
leaf_count=20 27 20 36 36 30 28 27 24 28 20 26 20 20 22 23
internal_value=-0.000327551 -0.00247029 0.00203796 0.00207187 -0.0040581 0.00110501 0.00368635 -0.00556514 -0.00026158 0.000651665 -0.000381956 -0.00645575 -0.00717832 -0.000957077 -0.00618191
internal_weight=407 215 56 192 159 156 54 107 102 74 54 83 63 52 43
internal_count=407 215 56 192 159 156 54 107 102 74 54 83 63 52 43
is_linear=0
shrinkage=0.05


Tree=8
num_leaves=15
num_cat=0
split_feature=1 0 4 4 4 4 2 3 0 2 3 1 4 0
split_gain=0.755402 0.555588 0.337432 0.280774 0.270856 0.198663 0.158496 0.10086 0.0812941 0.0787506 0.0676143 0.0532561 0.0503001 0.0273263
threshold=0.37925187032418956 0.44488778054862843 0.36458852867830427 0.68728179551122204 0.36059850374064839 0.28678304239401503 0.48159600997506241 0.36059850374064839 0.28678304239401503 0.55062344139650887 0.4777057356608479 0.23640897755610973 0.14613466334164588 0.20448877805486285
decision_type=2 2 2 2 2 2 2 2 2 2 2 2 2 2
left_child=1 4 -3 5 7 6 -2 12 -7 10 -10 -6 -1 -14
right_child=3 2 -4 -5 11 8 -8 -9 9 -11 -12 -13 13 -15
leaf_value=-0.0042581402574287499 0.0057480842559016311 0.0069467029578628992 -0.0010703220730647444 0.005948515700583812 -0.0029459060347151191 -0.0026618459150575709 0.00023505743381313301 -0.0023251593904040583 -0.001782289854000898 0.0032703198818489912 0.0017751078399462794 0.00027505140963264492 -0.0056022675991382297 -0.0078208548721990425
leaf_weight=25 32 21 35 36 21 26 22 22 34 20 22 33 23 35
leaf_count=25 32 21 35 36 21 26 22 22 34 20 22 33 23 35
internal_value=-0.000311173 -0.00234678 0.00193606 0.00196828 -0.0038552 0.00104976 0.00350204 -0.00533513 -0.000248501 0.000577117 -0.000384741 -0.000977543 -0.00613296 -0.00694107
internal_weight=407 215 56 192 159 156 54 105 102 76 56 54 83 58
internal_count=407 215 56 192 159 156 54 105 102 76 56 54 83 58
is_linear=0
shrinkage=0.05


Tree=9
num_leaves=15
num_cat=0
split_feature=1 0 4 4 3 1 1 4 3 3 3 4 3 2
split_gain=0.68175 0.501418 0.305519 0.253399 0.251701 0.196657 0.241861 0.108449 0.0983765 0.162473 0.0843162 0.0549299 0.0520204 0.0417842
threshold=0.37925187032418956 0.44488778054862843 0.33965087281795514 0.68728179551122204 0.38713216957605989 0.43192019950124694 0.49177057356608483 0.36059850374064839 0.50224438902743151 0.38204488778054868 0.486284289276808 0.13416458852867835 0.1665835411471322 0.20049875311720702
decision_type=2 2 2 2 2 2 2 2 2 2 2 2 2 2
left_child=1 4 -3 5 7 -2 -7 11 9 -8 -6 -1 -13 -14
right_child=3 2 -4 -5 10 6 8 -9 -10 -11 -12 12 13 -15
leaf_value=-0.0034562890905709496 0.0045620850995258099 0.0067941171443089837 -0.00091343975283153772 0.0056510900121389167 0.0018711856555282361 -0.0034849461671375838 0.00045601272910472852 -0.0020292584215684866 -0.00052849046785283737 0.0060024360098633114 -0.0025581516759385441 -0.0085257136030122641 -0.0071856759665977392 -0.0042352463089108438
leaf_weight=21 31 20 36 36 21 34 31 26 37 23 22 20 21 28
leaf_count=21 31 20 36 36 21 34 31 26 37 23 22 20 21 28
internal_value=-0.000295614 -0.00222944 0.00183926 0.00186986 -0.00366244 0.000997274 0.000113201 -0.00487365 0.00145756 0.00281838 -0.000394987 -0.00569536 -0.00637682 -0.00549972
internal_weight=407 215 56 192 159 156 125 116 91 54 43 90 69 49
internal_count=407 215 56 192 159 156 125 116 91 54 43 90 69 49
is_linear=0
shrinkage=0.05


Tree=10
num_leaves=16
num_cat=0
split_feature=3 0 3 3 3 1 4 3 4 2 0 2 3 0 0
split_gain=0.605391 0.423761 0.324396 0.25814 0.286414 0.208555 0.165011 0.151726 0.0949659 0.0894793 0.0893923 0.0858935 0.0546995 0.0304776 0.0342141
threshold=0.1665835411471322 0.49476309226932669 0.39152119700748134 0.30174563591022446 0.71022443890274312 0.39401496259351626 0.38204488778054868 0.41596009975062348 0.34613466334164594 0.38204488778054868 0.21995012468827932 0.39800498753117208 0.54563591022443891 0.29825436408977557 0.18254364089775563
decision_type=2 2 2 2 2 2 2 2 2 2 2 2 2 2 2
left_child=10 2 5 -3 7 6 13 -5 -4 -7 -1 -10 -13 14 -2
right_child=1 3 8 4 -6 9 -8 -9 11 -11 -12 12 -14 -15 -16
leaf_value=-0.0021210791403427722 -0.0041956946655938568 0.0078908475413918492 0.0037602935485275728 0.0038259724504314365 0.0070847436563954468 0.0032412153948098419 0.00017111853736898175 -0.0015305058824686478 0.0027664243344527983 -0.0013316302975315763 -0.0062902309268894098 0.0011315515691724916 -0.0021490921887258692 -0.0032590784946726426 -0.0070530928461812444
leaf_weight=20 22 25 35 20 21 20 23 39 30 23 36 24 27 22 20
leaf_count=20 22 25 35 20 21 20 23 39 30 23 36 24 27 22 20
internal_value=2.65628e-05 0.000796812 -0.00033821 0.003456 0.00207012 -0.00205334 -0.00346128 0.000285249 0.00158392 0.000795275 -0.00480125 0.000643512 -0.00060526 -0.00476667 -0.00555636
internal_weight=407 351 246 105 80 130 87 59 116 43 56 81 51 64 42
internal_count=407 351 246 105 80 130 87 59 116 43 56 81 51 64 42
is_linear=0
shrinkage=0.05


Tree=11
num_leaves=17
num_cat=0
split_feature=3 0 3 3 3 1 4 3 2 2 4 2 0 4 0 0
split_gain=0.546365 0.382444 0.292767 0.232972 0.258489 0.188221 0.148923 0.136933 0.0885343 0.228249 0.130873 0.0807551 0.0806765 0.0473527 0.027506 0.0308782
threshold=0.1665835411471322 0.49476309226932669 0.39152119700748134 0.30174563591022446 0.71022443890274312 0.39401496259351626 0.38204488778054868 0.41596009975062348 0.27431421446384047 0.39800498753117208 0.37157107231920206 0.38204488778054868 0.21995012468827932 0.57256857855361598 0.29825436408977557 0.18254364089775563
decision_type=2 2 2 2 2 2 2 2 2 2 2 2 2 2 2 2
left_child=12 2 5 -3 7 6 14 -5 -4 -10 -11 -7 -1 -12 15 -2
right_child=1 3 8 4 -6 11 -8 -9 9 10 13 -13 -14 -15 -16 -17
leaf_value=-0.0020150251500308516 -0.003985909922895106 0.0074963051136583102 -0.0010031743820204779 0.0036346738049178387 0.0067305065447553283 0.0030791547847911719 0.00016256264896820423 -0.0014539806481200057 0.0068219689186662441 0.0041399747709788028 0.00088098403066396715 -0.001265048778757615 -0.0059757192421885626 -0.0022996226008134813 -0.00309612452772192 -0.006700438247062266
leaf_weight=20 22 25 27 20 21 20 23 39 21 21 25 23 36 22 22 20
leaf_count=20 22 25 27 20 21 20 23 39 21 21 25 23 36 22 22 20
internal_value=2.52347e-05 0.000756971 -0.000321299 0.0032832 0.00196661 -0.00195067 -0.00328821 0.000270987 0.00150472 0.00226555 0.000858417 0.000755511 -0.00456119 -0.000607811 -0.00452834 -0.00527854
internal_weight=407 351 246 105 80 130 87 59 116 89 68 43 56 47 64 42
internal_count=407 351 246 105 80 130 87 59 116 89 68 43 56 47 64 42
is_linear=0
shrinkage=0.05


Tree=12
num_leaves=16
num_cat=0
split_feature=3 0 3 3 3 1 4 3 2 2 4 3 0 4 4
split_gain=0.493095 0.345156 0.264222 0.210257 0.233286 0.169869 0.134403 0.123582 0.0799022 0.205994 0.118113 0.0754059 0.0728105 0.0427358 0.0262854
threshold=0.1665835411471322 0.49476309226932669 0.39152119700748134 0.30174563591022446 0.71022443890274312 0.39401496259351626 0.38204488778054868 0.41596009975062348 0.27431421446384047 0.39800498753117208 0.37157107231920206 0.29975062344139652 0.21995012468827932 0.57256857855361598 0.21995012468827932
decision_type=2 2 2 2 2 2 2 2 2 2 2 2 2 2 2
left_child=12 2 5 -3 7 6 14 -5 -4 -10 -11 -7 -1 -12 -2
right_child=1 3 8 4 -6 11 -8 -9 9 10 13 -13 -14 -15 -16
leaf_value=-0.0019142738543450834 -0.0053152172244153922 0.007121489947661758 -0.00095301562471798186 0.0034529400593601173 0.0063939811840620156 0.0028608247748620457 0.0001544344583121331 -0.0013812815924981036 0.0064808703692896029 0.0039329760353125276 0.00083693491294980051 -0.0013279407877813687 -0.0056769333223605327 -0.0021846415496177296 -0.0032886217341001611
leaf_weight=20 32 25 27 20 21 21 23 39 21 21 25 22 36 22 32
leaf_count=20 32 25 27 20 21 21 23 39 21 21 25 22 36 22 32
internal_value=2.39729e-05 0.000719123 -0.000305234 0.00311904 0.00186828 -0.00185314 -0.0031238 0.000257438 0.00142949 0.00215227 0.000815496 0.000717735 -0.00433313 -0.00057742 -0.00430192
internal_weight=407 351 246 105 80 130 87 59 116 89 68 43 56 47 64
internal_count=407 351 246 105 80 130 87 59 116 89 68 43 56 47 64
is_linear=0
shrinkage=0.05


Tree=13
num_leaves=16
num_cat=0
split_feature=3 0 4 3 3 1 3 3 1 1 1 1 0 1 3
split_gain=0.445018 0.318786 0.393828 0.210458 0.174927 0.148169 0.0907676 0.173362 0.108193 0.0753323 0.0696545 0.0692769 0.0657115 0.0576888 0.0293602
threshold=0.1665835411471322 0.27152119700748134 0.16508728179551124 0.38713216957605989 0.73715710723192029 0.26134663341645886 0.32219451371571078 0.27152119700748134 0.49476309226932669 0.42921862014962592 0.45785536159600998 0.25835411471321695 0.21995012468827932 0.59361596009975071 0.43840399002493768
decision_type=2 2 2 2 2 2 2 2 2 2 2 2 2 2 2
left_child=12 3 -3 5 6 -2 7 -4 9 11 -5 -8 -1 -10 -13
right_child=1 2 4 10 -6 -7 8 -9 13 -11 -12 14 -14 -15 -16
leaf_value=-0.0018185601569712163 -0.0062612594972396712 0.0083542545279487977 -0.00016552946574331539 0.0026450160910220198 0.0047499840771446809 -0.0010086383703164757 -0.0026031790706126587 0.0050490981932463392 0.0037387415766716005 -0.0036394475034245734 -0.0013502910709939898 -0.00066794515476517732 -0.0053930866920078799 0.00018394363205879929 0.0018248029143756465
leaf_weight=20 29 20 37 24 28 25 23 28 21 23 20 21 36 25 27
leaf_count=20 29 20 37 24 28 25 23 28 21 23 20 21 36 25 27
internal_value=2.27743e-05 0.000683167 0.00162099 -0.00173794 0.00104302 -0.00382949 0.000536706 0.00208077 -0.000180182 -0.00115253 0.000828967 -0.000346905 -0.00411647 0.00180679 0.000734226
internal_weight=407 351 253 98 233 54 205 65 140 94 44 71 56 46 48
internal_count=407 351 253 98 233 54 205 65 140 94 44 71 56 46 48
is_linear=0
shrinkage=0.05


Tree=14
num_leaves=15
num_cat=0
split_feature=0 3 1 4 0 2 2 2 3 4 4 3 0 1
split_gain=0.422792 0.429112 0.218835 0.203253 0.156357 0.151713 0.149083 0.135919 0.092521 0.0896641 0.0913671 0.0603641 0.0473816 0.0272956
threshold=0.50224438902743151 0.38713216957605989 0.40798004987531172 0.38204488778054868 0.35760598503740648 0.63441396508728187 0.42921862014962592 0.36458852867830427 0.43192019950124694 0.31122194513715712 0.40548628428927691 0.54563591022443891 0.30354114713216956 0.24039900249376561
decision_type=2 2 2 2 2 2 2 2 2 2 2 2 2 2
left_child=1 2 6 8 -4 7 12 -5 -2 -3 -11 -12 13 -1
right_child=3 9 4 5 -6 -7 -8 -9 -10 10 11 -13 -14 -15
leaf_value=-0.0061161000568133138 0.0074808258441803254 0.0036042155780559105 0.00367243088898249 0.0026570940857345705 -0.002207949942049499 0.0045285537107182406 5.1384776915338915e-05 -0.0026642283285036685 0.0028309059701859952 -0.0024019161350138131 0.0028692753889652737 -6.8494410435151725e-05 -0.002988119886389801 -0.0040905652704231179
leaf_weight=39 23 31 20 20 26 21 22 30 20 21 34 36 35 29
leaf_count=39 23 31 20 20 26 21 22 30 20 21 34 36 35 29
internal_value=2.16356e-05 -0.00098357 -0.0025998 0.00260519 0.000348737 0.000962178 -0.00368486 -0.000535699 0.00531807 0.0012818 0.000490652 0.00135842 -0.0044829 -0.00525227
internal_weight=407 293 171 114 46 71 125 50 43 122 91 70 103 68
internal_count=407 293 171 114 46 71 125 50 43 122 91 70 103 68
is_linear=0
shrinkage=0.05


Tree=15
num_leaves=16
num_cat=0
split_feature=3 1 0 1 4 1 1 4 2 1 4 0 4 4 2
split_gain=0.684821 0.538865 0.348921 0.204932 0.153223 0.217977 0.14954 0.161748 0.132673 0.132256 0.111771 0.105444 0.087168 0.0622138 0.0432379
threshold=0.75610972568578561 0.39152119700748134 0.69933499581047387 0.43192019950124694 0.57256857855361598 0.49177057356608483 0.10832917705735663 0.47152119700748135 0.51770573566084799 0.26832917705735665 0.41596009975062348 0.29476309226932673 0.58294264339152124 0.18254364089775563 0.29975062344139652
decision_type=2 2 2 2 2 2 2 2 2 2 2 2 2 2 2
left_child=1 6 3 -3 5 -5 -1 9 10 13 -7 -11 -9 -8 -15
right_child=-2 2 -4 4 -6 8 7 12 -10 11 -12 -13 -14 14 -16
leaf_value=0.0013835008818142373 0.0071754808428094678 0.0046408061919334742 0.0067290092251884445 -0.0031161394272930919 -0.0035060705527519952 0.0067810100363567471 -0.0026022611046209935 0.0023994995408098806 -0.00057487898763307994 -0.0038889593289544188 0.0015582258258724497 -2.5640050635526058e-05 -0.002161360683385283 -0.0072870769537985332 -0.0041947933309711511
leaf_weight=29 34 28 30 25 26 20 20 22 24 33 21 38 20 26 20
leaf_count=29 34 28 30 25 26 20 20 22 24 33 21 38 20 26 20
internal_value=0.000375558 -0.000229671 0.00182355 0.000801577 -0.000125133 0.000851582 -0.00194727 -0.00248689 0.00237763 -0.00331909 0.00410593 -0.00182127 0.000227661 -0.00493038 -0.00594261
internal_weight=416 382 174 144 116 90 208 179 65 137 41 71 42 66 46
internal_count=416 382 174 144 116 90 208 179 65 137 41 71 42 66 46
is_linear=0
shrinkage=0.05


Tree=16
num_leaves=15
num_cat=0
split_feature=3 1 0 1 4 1 1 1 4 1 0 4 4 2
split_gain=0.618051 0.486326 0.314902 0.184951 0.139009 0.205927 0.183198 0.13496 0.145977 0.119361 0.0951629 0.0786691 0.0561479 0.0390222
threshold=0.75610972568578561 0.39152119700748134 0.69933499581047387 0.43192019950124694 0.44488778054862843 0.53965087281795521 0.6040399002493767 0.10832917705735663 0.47152119700748135 0.26832917705735665 0.29476309226932673 0.58294264339152124 0.18254364089775563 0.29975062344139652
decision_type=2 2 2 2 2 2 2 2 2 2 2 2 2 2
left_child=1 7 3 -3 5 -5 -6 -1 9 12 -11 -10 -9 -14
right_child=-2 2 -4 4 6 -7 -8 8 11 10 -12 -13 13 -15
leaf_value=0.0013143258972157694 0.0068167068735312895 0.0044087657996507391 0.006392558809796659 -0.0016745117332400948 0.00040353095354211911 0.0040229773757580137 -0.0056448823637938843 -0.0024721479820436799 0.0022795244987884708 -0.0036945113390119688 -2.4358062134859594e-05 -0.002053292754571885 -0.0069227231236604547 -0.0039850536081939931
leaf_weight=29 34 28 30 29 31 35 21 20 22 33 38 20 26 20
leaf_count=29 34 28 30 29 31 35 21 20 22 33 38 20 26 20
internal_value=0.00035678 -0.000218188 0.00173237 0.000761498 -0.000118877 0.0014413 -0.0020391 -0.0018499 -0.00236255 -0.00315313 -0.0017302 0.000216278 -0.00468386 -0.00564548
internal_weight=416 382 174 144 116 64 52 208 179 137 71 42 66 46
internal_count=416 382 174 144 116 64 52 208 179 137 71 42 66 46
is_linear=0
shrinkage=0.05


Tree=17
num_leaves=16
num_cat=0
split_feature=3 1 0 1 4 1 1 4 2 1 4 0 4 4 1
split_gain=0.557791 0.438909 0.284199 0.166919 0.127722 0.187123 0.121801 0.131744 0.119761 0.107723 0.0936588 0.0858845 0.0709989 0.0506735 0.0370143
threshold=0.75610972568578561 0.39152119700748134 0.69933499581047387 0.43192019950124694 0.57256857855361598 0.49177057356608483 0.10832917705735663 0.47152119700748135 0.51770573566084799 0.26832917705735665 0.41596009975062348 0.29476309226932673 0.58294264339152124 0.18254364089775563 0.20049875311720702
decision_type=2 2 2 2 2 2 2 2 2 2 2 2 2 2 2
left_child=1 6 3 -3 5 -5 -1 9 10 13 -7 -11 -9 -8 -15
right_child=-2 2 -4 4 -6 8 7 12 -10 11 -12 -13 -14 14 -16
leaf_value=0.001248609574897022 0.0064758715329363064 0.00418832745635882 0.0060729308775626127 -0.0028973872363567354 -0.003199733299418138 0.0062835416191956029 -0.0023485406878171488 0.0021655483404174449 -0.00061242990874840579 -0.0035097858466377318 0.0015026196205456342 -2.3140138211218934e-05 -0.001950628177728504 -0.0067815268493216967 -0.0039448765572160484
leaf_weight=29 34 28 30 25 26 20 20 22 24 33 21 38 20 23 23
leaf_count=29 34 28 30 25 26 20 20 22 24 33 21 38 20 23 23
internal_value=0.000338941 -0.000207278 0.00164575 0.000723423 -0.000112933 0.000778809 -0.00175741 -0.00224442 0.00219273 -0.00299548 0.00383478 -0.00164369 0.000205464 -0.00444967 -0.0053632
internal_weight=416 382 174 144 116 90 208 179 65 137 41 71 42 66 46
internal_count=416 382 174 144 116 90 208 179 65 137 41 71 42 66 46
is_linear=0
shrinkage=0.05


Tree=18
num_leaves=15
num_cat=0
split_feature=3 1 0 1 4 1 1 1 1 4 2 0 2 4
split_gain=0.503406 0.396115 0.256489 0.150644 0.116263 0.171112 0.164201 0.109926 0.11925 0.110732 0.138074 0.0739355 0.0601728 0.0379999
threshold=0.75610972568578561 0.39152119700748134 0.69933499581047387 0.43192019950124694 0.44488778054862843 0.53965087281795521 0.6040399002493767 0.10832917705735663 0.20049875311720702 0.38204488778054868 0.47152119700748135 0.29476309226932673 0.2139650872817955 0.20049875311720702
decision_type=2 2 2 2 2 2 2 2 2 2 2 2 2 2
left_child=1 7 3 -3 5 -5 -6 -1 12 11 -11 13 -9 -10
right_child=-2 2 -4 4 6 -7 -8 8 9 10 -12 -13 -14 -15
leaf_value=0.0011861789955532756 0.0061520778861663796 0.0039789111492739594 0.0057692842418327929 -0.0015206884634921907 0.00044912779853949631 0.0036728903651237488 -0.0052771126552085788 -0.0063137958979322803 -0.0025289615523070097 0.0019683446962004288 -0.0031414611393120145 -0.00093522342332803148 -0.0026489044064267851 -0.0055742515600286429
leaf_weight=29 34 28 30 29 31 35 21 21 20 39 20 34 24 21
leaf_count=29 34 28 30 29 31 35 21 21 20 39 20 34 24 21
internal_value=0.000321994 -0.000196914 0.00156346 0.000687252 -0.000107286 0.00131955 -0.00186339 -0.00166954 -0.0021322 -0.00138433 0.000236207 -0.00265915 -0.00435919 -0.00408874
internal_weight=416 382 174 144 116 64 52 208 179 134 59 75 45 41
internal_count=416 382 174 144 116 64 52 208 179 134 59 75 45 41
is_linear=0
shrinkage=0.05


Tree=19
num_leaves=16
num_cat=0
split_feature=3 1 0 1 4 1 2 1 4 1 4 0 4 4 2
split_gain=0.454324 0.357494 0.231482 0.135956 0.10638 0.160825 0.108068 0.0992079 0.111305 0.0916594 0.0785189 0.0700603 0.0650253 0.0460766 0.0310973
threshold=0.75610972568578561 0.39152119700748134 0.69933499581047387 0.43192019950124694 0.57256857855361598 0.49177057356608483 0.51770573566084799 0.10832917705735663 0.47152119700748135 0.26832917705735665 0.41596009975062348 0.29825436408977557 0.58294264339152124 0.18254364089775563 0.29975062344139652
decision_type=2 2 2 2 2 2 2 2 2 2 2 2 2 2 2
left_child=1 7 3 -3 5 -5 10 -1 9 13 -7 -11 -10 -9 -15
right_child=-2 2 -4 4 -6 6 -8 8 12 11 -12 -13 -14 14 -16
leaf_value=0.0011268702062681832 0.0058444742346182472 0.0037799655958744034 0.0054808200926830374 -0.0026961816302500667 -0.0029190469246644242 0.0058246720512397585 -0.0006419833380884181 -0.00205376262543723 0.0021020634477860191 -0.003107473392190193 0.0014471893814126295 3.6616067754457125e-05 -0.0018371502333320679 -0.0060686339283935152 -0.0034461747040040792
leaf_weight=29 34 28 30 25 26 20 24 20 22 34 21 37 20 26 20
leaf_count=29 34 28 30 25 26 20 24 20 22 34 21 37 20 26 20
internal_value=0.000305894 -0.000187069 0.00148529 0.00065289 -0.000101922 0.000711914 0.00202272 -0.00158606 -0.00202559 -0.00271593 0.00358255 -0.001469 0.000226247 -0.00405732 -0.00492843
internal_weight=416 382 174 144 116 90 65 208 179 137 41 71 42 66 46
internal_count=416 382 174 144 116 90 65 208 179 137 41 71 42 66 46
is_linear=0
shrinkage=0.05


Tree=20
num_leaves=17
num_cat=0
split_feature=0 3 1 2 1 0 2 2 4 0 4 0 1 4 0 3
split_gain=0.572734 0.311772 0.148762 0.142687 0.33772 0.146803 0.145318 0.13831 0.0851718 0.107919 0.0927076 0.112774 0.0664376 0.0442405 0.0438809 0.0168216
threshold=0.82114713216957613 0.38204488778054868 0.18254364089775563 0.75980049875311728 0.72059850374064849 0.55062344139650887 0.49027431421446382 0.37805486284289275 0.40548628428927691 0.37925187032418956 0.18503740648379055 0.29476309226932673 0.32817955112219449 0.24039900249376561 0.31122194513715712 0.2827930174563591
decision_type=2 2 2 2 2 2 2 2 2 2 2 2 2 2 2 2
left_child=1 2 13 4 5 6 7 14 10 -10 -4 -12 -8 -1 -3 -13
right_child=-2 3 8 -5 -6 -7 12 -9 9 -11 11 15 -14 -15 -16 -17
leaf_value=-0.0030868048212774422 0.0059214241063112729 -0.00175669353363143 9.8257675638486596e-05 0.0044346008005297999 0.0062176284240558748 -0.0043800492053497177 -0.0044084725994616748 0.0042837893554510979 0.0030689245928078889 -0.0015352550381794571 -0.0054731999553041533 -0.00048377121391240512 -0.00050651464844122531 -0.0061555412093487888 0.0012995429782439833 -0.0024873315340796995
leaf_weight=23 34 24 29 22 20 23 20 26 20 35 32 20 24 24 23 22
leaf_count=23 34 24 29 22 20 23 20 26 20 35 32 20 24 24 23 22
internal_value=-0.000300456 -0.000847081 -0.00218427 0.000659089 0.000139956 -0.000728283 -1.0414e-05 0.00135764 -0.00144965 0.000138992 -0.00229796 -0.00323702 -0.00228013 -0.00465382 -0.000261088 -0.00153326
internal_weight=421 387 205 182 160 140 117 73 158 55 103 74 44 47 47 42
internal_count=421 387 205 182 160 140 117 73 158 55 103 74 44 47 47 42
is_linear=0
shrinkage=0.05


Tree=21
num_leaves=17
num_cat=0
split_feature=0 3 1 2 1 0 2 2 4 0 4 0 1 4 0 3
split_gain=0.516893 0.281374 0.134257 0.128775 0.304792 0.13249 0.13115 0.124825 0.0768676 0.0973973 0.0836686 0.101778 0.0599599 0.0399271 0.0396025 0.0151815
threshold=0.82114713216957613 0.38204488778054868 0.18254364089775563 0.75980049875311728 0.72059850374064849 0.55062344139650887 0.49027431421446382 0.37805486284289275 0.40548628428927691 0.37925187032418956 0.18503740648379055 0.29476309226932673 0.32817955112219449 0.24039900249376561 0.31122194513715712 0.2827930174563591
decision_type=2 2 2 2 2 2 2 2 2 2 2 2 2 2 2 2
left_child=1 2 13 4 5 6 7 14 10 -10 -4 -12 -8 -1 -3 -13
right_child=-2 3 8 -5 -6 -7 12 -9 9 -11 11 15 -14 -15 -16 -17
leaf_value=-0.002932464555108353 0.0056253528975717289 -0.0016688588439440839 9.3344794907446567e-05 0.0042128705038604417 0.005906746916007251 -0.004161046738147928 -0.0041880489350296559 0.0040695997859494619 0.0029154783580452206 -0.0014584923482366971 -0.0051995399962834199 -0.00045958265895023942 -0.0004811890035246809 -0.0058477641665376726 0.0012345658736708372 -0.0023629649481418627
leaf_weight=23 34 24 29 22 20 23 20 26 20 35 32 20 24 24 23 22
leaf_count=23 34 24 29 22 20 23 20 26 20 35 32 20 24 24 23 22
internal_value=-0.000285433 -0.000804727 -0.00207505 0.000626135 0.000132958 -0.000691869 -9.89331e-06 0.00128975 -0.00137717 0.000132042 -0.00218306 -0.00307516 -0.00216613 -0.00442113 -0.000248034 -0.00145659
internal_weight=421 387 205 182 160 140 117 73 158 55 103 74 44 47 47 42
internal_count=421 387 205 182 160 140 117 73 158 55 103 74 44 47 47 42
is_linear=0
shrinkage=0.05


Tree=22
num_leaves=16
num_cat=0
split_feature=0 3 1 0 2 1 0 2 2 0 3 3 3 1 0
split_gain=0.466496 0.25394 0.122033 0.144345 0.11622 0.275075 0.119572 0.118362 0.112654 0.0966138 0.101146 0.0633499 0.0759528 0.0541138 0.0357412
threshold=0.82114713216957613 0.38204488778054868 0.15361596009975065 0.50224438902743151 0.75980049875311728 0.72059850374064849 0.55062344139650887 0.49027431421446382 0.37805486284289275 0.19201995012468831 0.16508728179551124 0.30354114713216956 0.2698254364089776 0.32817955112219449 0.31122194513715712
decision_type=2 2 2 2 2 2 2 2 2 2 2 2 2 2 2
left_child=1 2 -1 9 5 6 7 8 14 -4 -11 12 -12 -9 -3
right_child=-2 4 3 -5 -6 -7 -8 13 -10 10 11 -13 -14 -15 -16
leaf_value=-0.0046144609452716803 0.005344085341151667 -0.0015854159826024746 0.00023661265527275769 0.0023689771542029286 0.004002227184405043 0.0056114095496013761 -0.0039529943848838622 -0.0039786466117948298 0.003866119874090565 -0.005838268919892255 -0.0024280381681878243 -0.0035619250423199428 0.0014664732679236859 -0.00045712950134960313 0.0011728375866685225
leaf_weight=36 34 24 37 22 22 20 23 20 26 21 31 37 21 24 23
leaf_count=36 34 24 37 22 22 20 23 20 26 21 31 37 21 24 23
internal_value=-0.000271161 -0.000764491 -0.0019713 -0.00140826 0.000594828 0.00012631 -0.000657275 -9.39865e-06 0.00122527 -0.00197356 -0.00271698 -0.0019805 -0.000855255 -0.00205782 -0.000235632
internal_weight=421 387 205 169 182 160 140 117 73 147 110 89 52 44 47
internal_count=421 387 205 169 182 160 140 117 73 147 110 89 52 44 47
is_linear=0
shrinkage=0.05


Tree=23
num_leaves=16
num_cat=0
split_feature=0 3 1 0 0 0 3 1 3 0 3 0 2 1 0
split_gain=0.421012 0.229181 0.110135 0.130271 0.1093 0.130036 0.244851 0.172903 0.11824 0.0871939 0.0912843 0.0635887 0.0371288 0.0603517 0.0278752
threshold=0.82114713216957613 0.38204488778054868 0.15361596009975065 0.50224438902743151 0.63441396508728187 0.27152119700748134 0.72618453865336663 0.54563591022443891 0.54563591022443891 0.19201995012468831 0.16508728179551124 0.41596009975062348 0.46974231092269325 0.36645885286783042 0.31730673316708236
decision_type=2 2 2 2 2 2 2 2 2 2 2 2 2 2 2
left_child=1 2 -1 9 5 8 7 12 -3 -4 -11 14 13 -7 -12
right_child=-2 4 3 -5 -6 6 -8 -9 -10 10 11 -13 -14 -15 -16
leaf_value=-0.0043837378393315396 0.0050768810194259627 0.0011282761023418666 0.00022478188463562242 0.0022505282485243781 -0.0024362858181120831 0.0026043471397133545 0.0069841951376292859 0.0047465771112415083 -0.004077160879969597 -0.0055463554426318125 -0.0022895824663074957 -0.0041454577460409269 -0.0016647454102834067 -0.0012799708108650523 -0.00021045828103332929
leaf_weight=36 34 24 37 22 26 20 20 22 20 21 28 23 30 20 38
leaf_count=36 34 24 37 22 26 20 20 22 20 21 28 23 30 20 38
internal_value=-0.000257603 -0.000726266 -0.00187274 -0.00133785 0.000565086 0.00106532 0.00197012 0.000880107 -0.00123783 -0.00187488 -0.00258113 -0.00188147 -0.000335069 0.000662188 -0.00109251
internal_weight=421 387 205 169 182 156 112 92 44 147 110 89 70 40 66
internal_count=421 387 205 169 182 156 112 92 44 147 110 89 70 40 66
is_linear=0
shrinkage=0.05


Tree=24
num_leaves=17
num_cat=0
split_feature=0 3 2 1 0 2 3 1 2 3 2 3 0 1 4 1
split_gain=0.379964 0.206836 0.103448 0.244283 0.1064 0.104465 0.109735 0.100297 0.0904171 0.0667139 0.0932618 0.110194 0.0620367 0.0464027 0.0351759 0.0178074
threshold=0.82114713216957613 0.38204488778054868 0.75980049875311728 0.72059850374064849 0.55062344139650887 0.49027431421446382 0.57256857855361598 0.18254364089775563 0.28678304239401503 0.32817955112219449 0.45785536159600998 0.1665835411471322 0.20448877805486285 0.32817955112219449 0.24039900249376561 0.37157107231920206
decision_type=2 2 2 2 2 2 2 2 2 2 2 2 2 2 2 2
left_child=1 7 3 4 5 6 8 14 -3 10 11 -9 -13 -7 -1 -14
right_child=-2 2 -4 -5 -6 13 -8 9 -10 -11 -12 12 15 -15 -16 -17
leaf_value=-0.0024095715885303673 0.0048230368849437912 0.0022713332559347195 0.003751557010003704 0.0052637969853822145 -0.0037525122701797795 -0.0037355936784297232 0.0040790379203496157 -0.0039112460586087161 -0.0019794617321920293 -0.0031755250476470051 0.0018368645627372738 0.0020682534103980289 -0.00032544979864420991 -0.0004746192037904014 -0.0051459221285767853 -0.0022948431867090137
leaf_weight=23 34 22 22 20 23 20 22 30 29 33 29 20 24 24 24 22
leaf_count=23 34 22 22 20 23 20 22 30 29 33 29 20 24 24 24 22
internal_value=-0.000244723 -0.000689953 0.000536832 9.48075e-05 -0.00064362 -3.24697e-05 0.00112745 -0.0017791 -0.000145785 -0.0011759 -0.000648005 -0.00139864 -0.00025655 -0.00195688 -0.00380686 -0.00126733
internal_weight=421 387 182 160 140 117 73 205 51 158 125 96 66 44 47 46
internal_count=421 387 182 160 140 117 73 205 51 158 125 96 66 44 47 46
is_linear=0
shrinkage=0.05


Tree=25
num_leaves=15
num_cat=0
split_feature=3 0 4 2 0 4 0 3 1 4 2 2 0 4
split_gain=0.241959 0.143917 0.135297 0.181882 0.199374 0.132521 0.121884 0.102709 0.100296 0.190669 0.0667481 0.149281 0.0671626 0.0301579
threshold=0.12967581047381549 0.099351620947630934 0.16508728179551124 0.24239401496259355 0.75610972568578561 0.37925187032418956 0.64538653366583543 0.63012468827930179 0.29476309226932673 0.40548628428927691 0.30354114713216956 0.41596009975062348 0.40798004987531172 0.33965087281795514
decision_type=2 2 2 2 2 2 2 2 2 2 2 2 2 2
left_child=13 -2 -3 5 6 -4 7 8 9 -5 -10 -12 -13 -1
right_child=1 2 3 4 -6 -7 -8 -9 10 -11 11 12 -14 -15
leaf_value=-0.0051711991841875719 -0.003808876418916043 0.003407654410379159 -0.0043712101259381709 -0.0010886081798083108 0.0056181966187432413 0.00026168857644922266 -0.0033193344558821989 0.0035228049073464658 0.0020767716085538269 0.005219459548941814 -0.0042312916506219798 -0.0013679359136431507 0.0018731146510089598 -0.0024253871181281286
leaf_weight=20 20 37 33 23 20 29 20 29 20 25 27 33 31 20
leaf_count=20 20 37 33 23 20 29 20 29 20 25 27 33 31 20
internal_value=-0.000115981 0.000308493 0.00056032 0.000197039 0.00085001 -0.00220421 0.000391531 0.000786304 0.000287193 0.00219684 -0.000538602 -0.00111341 0.000201948 -0.00379829
internal_weight=387 347 327 290 228 62 208 188 159 48 111 91 64 40
internal_count=387 347 327 290 228 62 208 188 159 48 111 91 64 40
is_linear=0
shrinkage=0.05


Tree=26
num_leaves=15
num_cat=0
split_feature=3 0 3 3 3 1 4 0 1 1 1 2 1 1
split_gain=0.220358 0.158215 0.197952 0.168515 0.147148 0.22792 0.129405 0.18637 0.141994 0.150242 0.113301 0.0645706 0.046616 0.0613234
threshold=0.10832917705735663 0.27152119700748134 0.3536159600997506 0.69933499581047387 0.56359102244389037 0.56059850374064846 0.56359102244389037 0.5770573566084789 0.21226932668329176 0.43501246882793021 0.29975062344139652 0.43192019950124694 0.37157107231920206 0.29825436408977557
decision_type=2 2 2 2 2 2 2 2 2 2 2 2 2 2
left_child=-1 2 10 4 5 6 7 8 -3 12 -2 -4 13 -10
right_child=1 3 11 -5 -6 -7 -8 -9 9 -11 -12 -13 -14 -15
leaf_value=-0.0040179006794157125 -0.0010423017480848905 -0.0037778956603936177 -0.0051188302996646 0.0041532589242394479 -0.0030395337725403135 0.0043106696890810366 -0.0035231797109273352 0.0050607290236803241 0.0029200178543327469 -0.0028282781597226861 0.0037004326918395241 -0.0014511041296646 0.0038946504372039011 -0.00090108307832408518
leaf_weight=33 34 22 30 35 27 39 22 20 21 22 20 20 21 21
leaf_count=33 34 22 30 35 27 39 22 20 21 22 20 20 21 21
internal_value=-0.000110182 0.000254097 -0.00138477 0.000935867 0.000412106 0.00090782 1.71416e-05 0.000630426 -0.000197669 0.000728978 0.000714267 -0.00365174 0.0019712 0.00100947
internal_weight=387 354 104 250 215 188 149 127 107 85 54 50 63 42
internal_count=387 354 104 250 215 188 149 127 107 85 54 50 63 42
is_linear=0
shrinkage=0.05


Tree=27
num_leaves=14
num_cat=0
split_feature=3 0 3 3 4 2 0 1 1 2 3 3 3
split_gain=0.198873 0.142789 0.17879 0.152084 0.137491 0.107025 0.083191 0.149195 0.0873224 0.099128 0.0755129 0.102041 0.0143797
threshold=0.10832917705735663 0.27152119700748134 0.43192019950124694 0.69933499581047387 0.63012468827930179 0.26832917705735665 0.69157107231920212 0.21047381546134666 0.28568578553615964 0.25835411471321695 0.44488778054862843 0.29177057356608482 0.53017456359102255
decision_type=2 2 2 2 2 2 2 2 2 2 2 2 2
left_child=-1 2 5 4 6 -2 7 -3 -9 -10 11 -11 -12
right_child=1 3 -4 -5 -6 -7 -8 8 9 10 12 -13 -14
leaf_value=-0.0038170056280002677 -0.0017332290542045874 -0.0031388976436574016 -0.0041647695127822876 0.0039455960651061366 -0.0028106820769608024 0.0022357258945703506 0.0037778680054047567 0.0040198787263679234 0.0037966237784712573 0.0014641656222837893 0.0025533136236481368 -0.0028580709140644308 0.00065728548448532823
leaf_weight=33 35 24 36 35 29 33 22 22 20 22 20 36 20
leaf_count=33 35 24 36 35 29 33 22 22 20 22 20 36 20
internal_value=-0.000104673 0.000241392 -0.00131554 0.000889074 0.000391501 0.000192881 0.000890766 0.000503472 0.00112788 0.000588691 -6.59891e-05 -0.0012186 0.0016053
internal_weight=387 354 104 250 215 68 186 164 140 118 98 58 40
internal_count=387 354 104 250 215 68 186 164 140 118 98 58 40
is_linear=0
shrinkage=0.05


Tree=28
num_leaves=15
num_cat=0
split_feature=1 1 2 2 4 2 2 3 0 2 1 2 3 1
split_gain=0.18537 0.227492 0.1313 0.135211 0.099981 0.255958 0.149968 0.0908165 0.0813497 0.121796 0.135786 0.103326 0.087306 0.0387625
threshold=0.87630922693266844 0.71022443890274312 0.10832917705735663 0.71022443890274312 0.54563591022443891 0.48159600997506241 0.21695760598503744 0.1665835411471322 0.27431421446384047 0.49177057356608483 0.28568578553615964 0.36645885286783042 0.39401496259351626 0.22743142144638406
decision_type=2 2 2 2 2 2 2 2 2 2 2 2 2 2
left_child=1 2 -1 4 6 -6 13 -8 11 10 -10 -9 -12 -4
right_child=-2 -3 3 -5 5 -7 7 8 9 -11 12 -13 -14 -15
leaf_value=0.0034011312032816935 -0.0044527599162867536 0.0047785410284996036 -0.002288744989782572 0.0027000110160799759 0.0038172744981506295 -0.003203528324541237 -0.0038052109807904344 -0.0046205944958187285 0.0045761759451124822 -0.0021967459046705203 -0.0014320900462366441 0.00033939940899255732 0.0021975877586131293 -0.0052984989055877797
leaf_weight=24 23 25 20 31 34 21 20 21 24 33 37 21 30 23
leaf_count=24 23 25 20 31 34 21 20 21 24 33 37 21 30 23
internal_value=-9.94393e-05 0.000175633 -0.000163814 -0.000435429 -0.000777678 0.0011366 -0.00123744 -0.000622223 -0.00023873 0.000405451 0.0013491 -0.0021406 0.000193139 -0.00389861
internal_weight=387 364 339 315 284 55 229 186 166 124 91 42 67 43
internal_count=387 364 339 315 284 55 229 186 166 124 91 42 67 43
is_linear=0
shrinkage=0.05


Tree=29
num_leaves=16
num_cat=0
split_feature=3 0 3 4 4 3 3 3 2 4 3 4 4 4 1
split_gain=0.17371 0.117733 0.175004 0.222771 0.146736 0.127714 0.0977827 0.107172 0.317299 0.107878 0.097122 0.0786974 0.0559583 0.0521391 0.0109674
threshold=0.10832917705735663 0.27152119700748134 0.54563591022443891 0.41596009975062348 0.1665835411471322 0.34613466334164594 0.69933499581047387 0.56359102244389037 0.63441396508728187 0.56359102244389037 0.47431421446384042 0.30623441396508733 0.42921862014962592 0.20049875311720702 0.38713216957605989
decision_type=2 2 2 2 2 2 2 2 2 2 2 2 2 2 2
left_child=-1 2 3 5 -3 13 7 8 9 10 11 14 -13 -2 -6
right_child=1 4 -4 -5 6 -7 -8 -9 -10 -11 -12 12 -14 -15 -16
leaf_value=-0.0035640068521553821 0.0017195719693388258 0.0049249567789956929 -0.0053881921223364777 0.004422141339164228 -0.0029519225160280866 -0.0048195077330871888 0.0029787888383549272 -0.0028883826600374762 0.0058305246406234806 -0.003516152333063276 0.0030681741540320218 0.0021574867228346486 -0.00095604537227363508 -0.0017635221254419199 -0.0013159034517593682
leaf_weight=33 21 20 20 20 21 21 33 27 24 23 24 31 27 22 20
leaf_count=33 21 20 20 20 21 21 33 27 24 23 24 31 27 22 20
internal_value=-9.44673e-05 0.000228964 -0.00118478 -0.000183968 0.000817082 -0.00162338 0.000459876 3.79257e-05 0.000502692 -0.000373116 0.000214607 -0.000477167 0.000708084 -6.24762e-05 -0.00215386
internal_weight=387 354 104 84 250 64 230 197 170 146 123 99 58 43 41
internal_count=387 354 104 84 250 64 230 197 170 146 123 99 58 43 41
is_linear=0
shrinkage=0.05


Tree=30
num_leaves=16
num_cat=0
split_feature=1 1 1 3 3 2 3 0 1 1 0 0 3 2 3
split_gain=0.22726 0.222339 0.299825 0.354293 0.214535 0.182717 0.177801 0.240482 0.0548204 0.190722 0.0466185 0.0352761 0.0206805 0.0204308 0.0198333
threshold=0.091271820448877813 0.40798004987531172 0.87630922693266844 0.24039900249376561 0.63012468827930179 0.55062344139650887 0.47431421446384042 0.38204488778054868 0.29476309226932673 0.26134663341645886 0.47152119700748135 0.19900249376558604 0.40798004987531172 0.24039900249376561 0.25187032418952621
decision_type=2 2 2 2 2 2 2 2 2 2 2 2 2 2 2
left_child=-1 6 3 -3 5 10 8 -8 9 11 12 -2 -5 -13 -10
right_child=1 2 -4 4 -6 -7 7 -9 14 -11 -12 13 -14 -15 -16
leaf_value=0.0047262233849614862 -0.00087191851809620869 0.0081692285928875209 -0.0044013964311618893 0.00063395574644623009 0.0045999870740718414 0.0039007307252004035 -0.0023129897483158859 0.0043092769931937598 -0.00450744366125119 0.0024767741764662788 -0.0030423718987515683 -0.00454818749900109 -0.0015103251673281193 -0.0025411030015675354 -0.0026210183951709616
leaf_weight=25 20 20 21 23 31 21 26 29 22 24 27 21 22 32 38
leaf_count=25 20 20 21 23 31 21 26 29 22 24 27 21 22 32 38
internal_value=0.000109655 -0.000196483 0.00117988 0.00199381 0.00099778 -0.000202956 -0.00126771 0.00117875 -0.00212475 -0.00138993 -0.00139986 -0.00266117 -0.000414359 -0.00333636 -0.00331271
internal_weight=402 377 165 144 124 93 212 55 157 97 72 73 45 53 60
internal_count=402 377 165 144 124 93 212 55 157 97 72 73 45 53 60
is_linear=0
shrinkage=0.05


Tree=31
num_leaves=15
num_cat=0
split_feature=1 4 3 2 0 3 0 3 2 1 3 3 4 1
split_gain=0.205102 0.20583 0.218699 0.23087 0.483678 0.165149 0.0981139 0.0938627 0.118527 0.0862572 0.0803372 0.0618939 0.0493808 0.0270046
threshold=0.091271820448877813 0.71022443890274312 0.1665835411471322 0.21047381546134666 0.69157107231920212 0.31122194513715712 0.47152119700748135 0.47431421446384042 0.53965087281795521 0.4777057356608479 0.32817955112219449 0.39401496259351626 0.40548628428927691 0.28568578553615964
decision_type=2 2 2 2 2 2 2 2 2 2 2 2 2 2
left_child=-1 2 13 5 7 -4 -3 10 9 -9 12 -12 -5 -2
right_child=1 6 3 4 -6 -7 -8 8 -10 -11 11 -13 -14 -15
leaf_value=0.0044899122379720218 -0.002719471077646383 0.0055969379283487795 -0.00032101495263095085 -0.00079338719431114822 0.0071178532354533672 -0.0059565695808627287 0.00089846644247882062 0.00089833666409911783 -0.0014375106290182365 0.0051666061859577898 -0.0036231142145374583 -0.00072999307763223589 0.0021419505224279738 -0.0052261705887282177
leaf_weight=25 22 20 26 38 25 26 25 29 28 20 36 38 23 21
leaf_count=25 22 20 26 38 25 26 25 29 28 20 36 38 23 21
internal_value=0.000104172 -0.000186659 -0.00061678 -0.000121775 0.000540187 -0.00313879 0.00298668 -0.000235482 0.00115758 0.00264049 -0.00103004 -0.00213746 0.000313379 -0.00394367
internal_weight=402 377 332 289 237 52 45 212 77 49 135 74 61 43
internal_count=402 377 332 289 237 52 45 212 77 49 135 74 61 43
is_linear=0
shrinkage=0.05


Tree=32
num_leaves=16
num_cat=0
split_feature=3 0 1 1 1 3 2 3 2 0 3 3 2 2 3
split_gain=0.196093 0.279994 0.144567 0.173812 0.18675 0.212146 0.101553 0.0709126 0.139616 0.0782563 0.0448441 0.0721912 0.0398577 0.0377713 0.0279139
threshold=0.72618453865336663 0.43501246882793021 0.091271820448877813 0.40798004987531172 0.67132169576059864 0.27431421446384047 0.43501246882793021 0.1665835411471322 0.24039900249376561 0.25187032418952621 0.47431421446384042 0.3296758104738155 0.38713216957605989 0.41596009975062348 0.40997506234413966
decision_type=2 2 2 2 2 2 2 2 2 2 2 2 2 2 2
left_child=2 -2 -1 7 5 -5 14 -4 9 -9 11 12 -10 -13 -7
right_child=1 -3 3 4 -6 6 -8 8 10 -11 -12 13 -14 -15 -16
leaf_value=0.003731568787978696 -0.001200175541889621 0.0067369896997115574 -0.0035013082508359933 0.0063886349333361504 -0.002278527425045872 0.00045103791169822218 0.0026324830165034849 -0.0011418569809757172 0.001945775579661131 -0.005376680701738224 0.001412694753062996 -0.0038409871631301939 -0.0010488829924724997 -0.00076806897297501567 -0.002103050297085682
leaf_weight=21 20 25 36 21 36 20 38 20 25 24 33 20 20 20 23
leaf_count=21 20 25 36 21 36 20 38 20 25 24 33 20 20 20 23
internal_value=9.89638e-05 0.00320936 -0.000293103 -0.000544645 0.000817531 0.00191026 0.000749197 -0.00149404 -0.00104798 -0.00345176 -0.000151656 -0.000758993 0.000614816 -0.00230453 -0.000915102
internal_weight=402 45 357 336 138 102 81 198 162 44 118 85 45 40 43
internal_count=402 45 357 336 138 102 81 198 162 44 118 85 45 40 43
is_linear=0
shrinkage=0.05


Tree=33
num_leaves=15
num_cat=0
split_feature=3 0 0 4 2 1 0 3 0 2 0 3 3 0
split_gain=0.176974 0.252694 0.142637 0.330021 0.232252 0.218056 0.158467 0.157559 0.107755 0.125272 0.0926568 0.0845771 0.0453913 0.0396326
threshold=0.72618453865336663 0.43501246882793021 0.20049875311720702 0.486284289276808 0.1800498753117207 0.52379052369077328 0.12967581047381549 0.41596009975062348 0.29825436408977557 0.53965087281795521 0.40798004987531172 0.3296758104738155 0.38204488778054868 0.35760598503740648
decision_type=2 2 2 2 2 2 2 2 2 2 2 2 2 2
left_child=2 -2 3 6 -4 8 -1 -7 12 10 13 -12 -6 -10
right_child=1 -3 4 -5 5 7 -8 -9 9 -11 11 -13 -14 -15
leaf_value=-0.0035957956992867615 -0.0011401667061727494 0.00640014014672488 -0.0046485308530356956 0.007175916926935315 -0.0041912457702921761 0.0049869252283436562 0.0021208826846069082 -0.00044836532251792962 0.00017912449396174888 -0.0028989654500037433 0.0036975453334764162 0.00013205217959087653 -0.0011360046183108352 -0.0027893070173873147
leaf_weight=22 20 25 34 20 31 30 27 24 23 36 29 39 20 22
leaf_count=22 20 25 34 20 31 30 27 24 23 36 29 39 20 22
internal_value=9.40156e-05 0.00304889 -0.000278448 0.0017634 -0.000767641 -0.000248152 -0.000445789 0.00257124 -0.00100939 -0.000330395 0.000487911 0.00165263 -0.00299311 -0.00127211
internal_weight=402 45 357 69 288 254 49 54 200 149 113 68 51 45
internal_count=402 45 357 69 288 254 49 54 200 149 113 68 51 45
is_linear=0
shrinkage=0.05


Tree=34
num_leaves=15
num_cat=0
split_feature=1 4 3 2 0 3 0 0 3 0 3 3 4 1
split_gain=0.168942 0.161874 0.177787 0.176469 0.416534 0.145378 0.0896708 0.0857653 0.104914 0.200331 0.0436886 0.0426947 0.0385872 0.0270765
threshold=0.091271820448877813 0.71022443890274312 0.1665835411471322 0.21047381546134666 0.69157107231920212 0.31122194513715712 0.47152119700748135 0.17605985037406488 0.47431421446384042 0.46184538653366591 0.31730673316708236 0.39401496259351626 0.36059850374064839 0.28568578553615964
decision_type=2 2 2 2 2 2 2 2 2 2 2 2 2 2
left_child=-1 2 13 5 7 -4 -3 -5 10 -10 12 -12 -9 -2
right_child=1 6 3 4 -6 -7 -8 8 9 -11 11 -13 -14 -15
leaf_value=0.0040697084078565237 -0.0023298643471207471 0.005134955616667867 -0.00010374523878384096 -0.0032062927663156931 0.0065730328410863875 -0.0053912139121586322 0.00064319386135321122 -0.001235179291424257 0.0041451778276225659 -0.0013530169045103929 -0.0028207392132441915 -0.0003846757969743497 0.0015417592206584483 -0.0048398955237297786
leaf_weight=25 22 20 26 22 25 26 25 22 37 30 35 37 29 21
leaf_count=25 22 20 26 22 25 26 25 22 37 30 35 37 29 21
internal_value=8.93148e-05 -0.000174637 -0.000556076 -0.000109766 0.000468973 -0.00274748 0.00263953 -0.000250845 9.13646e-05 0.0016833 -0.000775787 -0.00156887 0.000343864 -0.00355569
internal_weight=402 377 332 289 237 52 45 212 190 67 123 72 51 43
internal_count=402 377 332 289 237 52 45 212 190 67 123 72 51 43
is_linear=0
shrinkage=0.05


Tree=35
num_leaves=16
num_cat=0
split_feature=0 1 2 1 2 4 2 2 4 3 3 2 3 4 3
split_gain=0.130921 0.135717 0.141608 0.122231 0.109465 0.119413 0.101382 0.117463 0.0813073 0.0788988 0.0584744 0.0391006 0.0591314 0.0453446 0.03381
threshold=0.85266832917705737 0.71022443890274312 0.71022443890274312 0.87630922693266844 0.52379052369077328 0.55062344139650887 0.12468827930174563 0.42921862014962592 0.1665835411471322 0.50224438902743151 0.40997506234413966 0.2698254364089776 0.42921862014962592 0.31122194513715712 0.3296758104738155
decision_type=2 2 2 2 2 2 2 2 2 2 2 2 2 2 2
left_child=1 2 4 -3 5 6 -1 8 -8 -6 -7 13 14 -10 -13
right_child=-2 3 -4 -5 9 10 7 -9 11 -11 -12 12 -14 -15 -16
leaf_value=0.0024453748343512419 0.0032953290782611945 0.0049390858201229064 0.0025277551784015756 -0.00027395437341924249 -0.0012483085777300099 0.0039269688585773111 0.00056961515469343535 0.0012113248234623154 -0.0019281761676001434 -0.0055004809974343524 0.00014933231951934952 -0.0016211087335250341 0.0002670316639033934 -0.0048279503202398443 -0.0042030475457154569
leaf_weight=20 29 23 34 22 24 20 28 38 26 20 21 32 26 28 21
leaf_count=20 29 23 34 22 24 20 28 38 26 20 21 32 26 28 21
internal_value=5.62178e-05 -0.000189041 -0.00053247 0.00239049 -0.000874732 -0.000484421 -0.000948058 -0.00128911 -0.00187927 -0.00318111 0.00199208 -0.00239483 -0.00168603 -0.00343176 -0.00264414
internal_weight=412 383 338 45 304 260 219 199 161 44 41 133 79 54 53
internal_count=412 383 338 45 304 260 219 199 161 44 41 133 79 54 53
is_linear=0
shrinkage=0.05


Tree=36
num_leaves=17
num_cat=0
split_feature=0 1 1 2 2 4 1 2 2 4 0 4 2 2 0 1
split_gain=0.118156 0.122485 0.128919 0.241638 0.112614 0.128631 0.110313 0.110037 0.094027 0.0757239 0.162835 0.0890562 0.0677658 0.0506523 0.0431407 0.0291829
threshold=0.85266832917705737 0.71022443890274312 0.63441396508728187 0.71022443890274312 0.10832917705735663 0.55062344139650887 0.87630922693266844 0.40548628428927691 0.20049875311720702 0.42921862014962592 0.50224438902743151 0.25835411471321695 0.42921862014962592 0.29476309226932673 0.45217955112219449 0.34613466334164594
decision_type=2 2 2 2 2 2 2 2 2 2 2 2 2 2 2 2
left_child=1 2 3 4 -1 8 -3 -7 -6 10 11 13 15 -10 -11 -13
right_child=-2 6 -4 -5 5 7 -8 -9 9 14 -12 12 -14 -15 -16 -17
leaf_value=0.0026589946335424551 0.0031305625504846205 0.0046921316033188745 -0.0043996011684066623 0.0040900426194200234 -0.0040141128784706515 0.0041158061918048633 -0.00026025661586159419 -0.0010663067130371928 -0.001334259040110434 -0.0013984072322210555 0.0037310359557159245 -0.00017966359155252576 0.001438666826013375 -0.0046967464765267711 -0.0042981016482530245 -0.0028807249991223216
leaf_weight=23 29 23 20 29 31 21 22 20 24 29 20 20 37 21 23 20
leaf_count=23 29 23 20 29 31 21 22 20 24 29 20 20 37 21 23 20
internal_value=5.34069e-05 -0.000179589 -0.000505846 -0.000260956 -0.000697561 -0.00098779 0.00227096 0.00158795 -0.00145715 -0.00104856 -0.000450777 -0.00113632 -0.000103599 -0.00290342 -0.00268096 -0.00153019
internal_weight=412 383 338 318 289 266 45 41 225 194 142 122 77 45 52 40
internal_count=412 383 338 318 289 266 45 41 225 194 142 122 77 45 52 40
is_linear=0
shrinkage=0.05


Tree=37
num_leaves=16
num_cat=0
split_feature=3 0 1 1 2 4 2 2 2 4 0 1 2 0 2
split_gain=0.110801 0.180349 0.131863 0.12565 0.18579 0.11682 0.196829 0.107643 0.131715 0.0735976 0.13106 0.0865279 0.0567456 0.0463487 0.0332915
threshold=0.11521197007481297 0.82114713216957613 0.71022443890274312 0.63012468827930179 0.71022443890274312 0.55062344139650887 0.39152119700748134 0.13865336658354113 0.20049875311720702 0.42921862014962592 0.50224438902743151 0.26832917705735665 0.42921862014962592 0.45217955112219449 0.30354114713216956
decision_type=2 2 2 2 2 2 2 2 2 2 2 2 2 2 2
left_child=-1 2 3 4 5 7 -7 -2 -9 10 11 -10 14 -11 -13
right_child=1 -3 -4 -5 -6 6 -8 8 9 13 -12 12 -14 -15 -16
leaf_value=-0.0025216506144620089 0.0025933974678628148 0.0042482733851540149 0.0028706338175753547 -0.0041593502040268501 0.0039710791880049959 0.0055456549534574151 -0.0013851134283911614 -0.0049046055752445354 -0.0028268451720627179 -0.0010539741762581147 0.0035444843486766332 0.00033366553751485692 0.0017207710508955643 -0.0040831964867918394 -0.0024817462611411299
leaf_weight=38 20 27 36 20 26 20 21 22 37 28 20 21 32 23 21
leaf_count=38 20 27 36 20 26 20 21 22 37 28 20 21 32 23 21
internal_value=5.07366e-05 0.000312102 5.82943e-06 -0.000325788 -6.23127e-05 -0.000458042 0.00199575 -0.000907173 -0.00125037 -0.000808645 -0.000181287 -0.000852597 0.000134527 -0.00242009 -0.00107404
internal_weight=412 374 347 311 291 265 41 224 204 182 131 111 74 51 42
internal_count=412 374 347 311 291 265 41 224 204 182 131 111 74 51 42
is_linear=0
shrinkage=0.05


Tree=38
num_leaves=16
num_cat=0
split_feature=3 0 1 1 2 4 2 2 2 4 0 4 3 0 3
split_gain=0.0999975 0.162765 0.119006 0.113399 0.167675 0.10543 0.177638 0.0971477 0.118873 0.0664218 0.118282 0.0800263 0.0524563 0.0418297 0.0224194
threshold=0.11521197007481297 0.82114713216957613 0.71022443890274312 0.63012468827930179 0.71022443890274312 0.55062344139650887 0.39152119700748134 0.13865336658354113 0.20049875311720702 0.42921862014962592 0.50224438902743151 0.25835411471321695 0.47431421446384042 0.45217955112219449 0.30354114713216956
decision_type=2 2 2 2 2 2 2 2 2 2 2 2 2 2 2
left_child=-1 2 3 4 5 7 -7 -2 -9 10 11 -10 14 -11 -13
right_child=1 -3 -4 -5 -6 6 -8 8 9 13 -12 12 -14 -15 -16
leaf_value=-0.0023955679688553669 0.002463727581780404 0.0040358596214058774 0.0027271020064492607 -0.0039513827569317072 0.0037725252918719963 0.0052683721389621503 -0.0013158577849112806 -0.0046593752853699372 -0.0026341103285980917 -0.001001275473806475 0.0033672600454883652 0.0004687695581789898 0.0022812975576103089 -0.0038790366875574643 -0.0016380366087625072
leaf_weight=38 20 27 36 20 26 20 21 22 39 28 20 23 21 23 28
leaf_count=38 20 27 36 20 26 20 21 22 39 28 20 23 21 23 28
internal_value=4.81997e-05 0.000296497 5.53794e-06 -0.000309498 -5.91971e-05 -0.00043514 0.00189596 -0.000861814 -0.00118785 -0.000768213 -0.000172223 -0.000809967 0.00017811 -0.00229909 -0.000687908
internal_weight=412 374 347 311 291 265 41 224 204 182 131 111 72 51 51
internal_count=412 374 347 311 291 265 41 224 204 182 131 111 72 51 51
is_linear=0
shrinkage=0.05


Tree=39
num_leaves=16
num_cat=0
split_feature=3 0 1 1 2 4 2 2 2 4 0 1 4 2 0
split_gain=0.0902477 0.146895 0.107403 0.102343 0.151327 0.0951505 0.160318 0.0876758 0.107283 0.0599457 0.106749 0.077649 0.109244 0.0530916 0.0377513
threshold=0.11521197007481297 0.82114713216957613 0.71022443890274312 0.63012468827930179 0.71022443890274312 0.55062344139650887 0.39152119700748134 0.13865336658354113 0.20049875311720702 0.42921862014962592 0.50224438902743151 0.30623441396508733 0.20448877805486285 0.42921862014962592 0.45217955112219449
decision_type=2 2 2 2 2 2 2 2 2 2 2 2 2 2 2
left_child=-1 2 3 4 5 7 -7 -2 -9 10 11 12 -10 -13 -11
right_child=1 -3 -4 -5 -6 6 -8 8 9 14 -12 13 -14 -15 -16
leaf_value=-0.0022757895496110189 0.0023405412584543228 0.003834066655555809 0.0025907470385492263 -0.0037538135785143826 0.0035838990499122213 0.0050049536162987355 -0.0012500648209381672 -0.0044264064958869391 -0.0050429103082569784 -0.000951211667104092 0.0031988970970269295 -0.00085317319724708795 -0.00043401564002528586 0.0022666761726140975 -0.0036850849308235492
leaf_weight=38 20 27 36 20 26 20 21 22 20 28 20 30 36 25 23
leaf_count=38 20 27 36 20 26 20 21 22 20 28 20 30 36 25 23
internal_value=4.57898e-05 0.000281672 5.26107e-06 -0.000294023 -5.62372e-05 -0.000413383 0.00180116 -0.000818724 -0.00112846 -0.000729802 -0.000163612 -0.000769469 -0.00208005 0.00056494 -0.00218413
internal_weight=412 374 347 311 291 265 41 224 204 182 131 111 56 55 51
internal_count=412 374 347 311 291 265 41 224 204 182 131 111 56 55 51
is_linear=0
shrinkage=0.05


Tree=40
num_leaves=16
num_cat=0
split_feature=1 0 2 4 0 1 2 3 1 0 0 4 2 0 1
split_gain=0.120159 0.245509 0.214605 0.071772 0.111205 0.112922 0.0818715 0.0852784 0.0832013 0.0675762 0.0474068 0.0884572 0.050392 0.0635675 0.0332325
threshold=0.87630922693266844 0.82114713216957613 0.69933499581047387 0.49027431421446382 0.12967581047381549 0.54563591022443891 0.53965087281795521 0.53017456359102255 0.37805486284289275 0.19321695760598506 0.50224438902743151 0.19321695760598506 0.24239401496259355 0.43192019950124694 0.28678304239401503
decision_type=2 2 2 2 2 2 2 2 2 2 2 2 2 2 2
left_child=1 2 3 4 -1 9 7 8 -5 -6 11 -11 -13 14 -14
right_child=-2 -3 -4 6 5 -7 -8 -9 -10 10 -12 12 13 -15 -16
leaf_value=-0.0041281499003094661 -0.0036811920094557784 0.0050130746269132949 0.0033320628397632392 0.0022638158047233116 0.0016184667064226234 0.0027591107413172723 -0.0022222700621932746 0.003886927234365747 -0.0021361389064363072 -0.0046496005283425687 0.00062966743565124022 -0.0030768777717769679 -0.0012929888077728127 -0.0029280019458383325 0.0011150348767650462
leaf_weight=27 22 24 38 22 20 21 20 23 21 23 23 28 23 22 38
leaf_count=27 22 24 38 22 20 21 20 23 21 23 23 28 23 22 38
internal_value=-9.03772e-05 0.000121414 -0.000214976 -0.000648376 -0.00111797 -0.000707494 0.00058022 0.00142946 0.000115001 -0.00111879 -0.00146748 -0.00182744 -0.00124267 -0.000623897 0.000207092
internal_weight=395 373 349 311 225 198 86 66 43 177 157 134 111 83 61
internal_count=395 373 349 311 225 198 86 66 43 177 157 134 111 83 61
is_linear=0
shrinkage=0.05


Tree=41
num_leaves=14
num_cat=0
split_feature=1 0 2 1 3 1 2 3 4 1 4 2 0
split_gain=0.108444 0.223628 0.286003 0.0752264 0.132179 0.0937439 0.0669998 0.0895959 0.0685815 0.06949 0.0838407 0.0725685 0.0280982
threshold=0.87630922693266844 0.72618453865336663 0.69933499581047387 0.18254364089775563 0.63012468827930179 0.11521197007481297 0.49027431421446382 0.47431421446384042 0.18503740648379055 0.43501246882793021 0.47152119700748135 0.28568578553615964 0.43840399002493768
decision_type=2 2 2 2 2 2 2 2 2 2 2 2 2
left_child=1 2 3 5 6 -1 7 8 -5 10 11 -10 -8
right_child=-2 -3 -4 4 -6 -7 12 -9 9 -11 -12 -13 -14
leaf_value=-0.0001661192099361316 -0.0034971324562899429 0.0038611208476747073 0.0039938797595511595 0.0014634313323767857 0.0024737488468150226 -0.0044741982369617163 -0.0040524632792221385 0.0019798325930511763 -0.0031963987635182482 -0.0033802691401968545 0.0018014861833459388 0.00018581580691810315 -0.0014020771253854037
leaf_weight=23 22 36 35 24 34 28 20 31 35 34 24 29 20
leaf_count=23 22 36 35 24 34 28 20 31 35 34 24 29 20
internal_value=-8.58583e-05 0.000115343 -0.0002848 -0.000780673 -0.00042496 -0.00253134 -0.000879136 -0.000461478 -0.000979839 -0.00146048 -0.000718746 -0.00166383 -0.00272727
internal_weight=395 373 337 302 251 51 217 177 146 122 88 64 40
internal_count=395 373 337 302 251 51 217 177 146 122 88 64 40
is_linear=0
shrinkage=0.05


Tree=42
num_leaves=16
num_cat=0
split_feature=1 0 2 4 0 1 2 3 1 0 0 4 2 0 1
split_gain=0.0978704 0.204072 0.170694 0.0589684 0.103139 0.101655 0.0735911 0.0745625 0.0731735 0.0611482 0.0414027 0.0785645 0.0437368 0.0591273 0.0295211
threshold=0.87630922693266844 0.82114713216957613 0.69933499581047387 0.49027431421446382 0.12967581047381549 0.54563591022443891 0.53965087281795521 0.53017456359102255 0.37805486284289275 0.19321695760598506 0.50224438902743151 0.19321695760598506 0.24239401496259355 0.43192019950124694 0.28678304239401503
decision_type=2 2 2 2 2 2 2 2 2 2 2 2 2 2 2
left_child=1 2 3 4 -1 9 7 8 -5 -6 11 -11 -13 14 -14
right_child=-2 -3 -4 6 5 -7 -8 -9 -10 10 -12 12 13 -15 -16
leaf_value=-0.0039082421645246172 -0.0033222758101394655 0.004569364979397506 0.0029662897865484032 0.0021212053192192055 0.0015995981363812464 0.0026751283190346192 -0.0021270015835762024 0.0036330276715528711 -0.0020050877350426856 -0.0043319800160015413 0.00062393680741281614 -0.0028300052076312052 -0.0011571348743492982 -0.0027669154615564784 0.0011124462012575302
leaf_weight=27 22 24 38 22 20 21 20 23 21 23 23 28 23 22 38
leaf_count=27 22 24 38 22 20 21 20 23 21 23 23 28 23 22 38
internal_value=-8.15654e-05 0.000109576 -0.000197115 -0.00058364 -0.00100929 -0.000613984 0.000529992 0.00133514 0.000106039 -0.00100422 -0.00133591 -0.00167231 -0.0011212 -0.000544738 0.000256703
internal_weight=395 373 349 311 225 198 86 66 43 177 157 134 111 83 61
internal_count=395 373 349 311 225 198 86 66 43 177 157 134 111 83 61
is_linear=0
shrinkage=0.05


Tree=43
num_leaves=17
num_cat=0
split_feature=2 0 2 1 1 3 2 4 1 1 4 0 3 0 2 1
split_gain=0.0899493 0.105219 0.11298 0.134129 0.110196 0.104934 0.0807401 0.0781405 0.125324 0.0679636 0.0630635 0.0634523 0.0319629 0.0376289 0.0198124 0.00724316
threshold=0.21695760598503744 0.72618453865336663 0.69933499581047387 0.56059850374064846 0.21226932668329176 0.63012468827930179 0.49027431421446382 0.21695760598503744 0.37157107231920206 0.19321695760598506 0.46184538653366591 0.26134663341645886 0.44488778054862843 0.41945137157107237 0.33965087281795514 0.29476309226932673
decision_type=2 2 2 2 2 2 2 2 2 2 2 2 2 2 2 2
left_child=9 2 4 -4 14 6 7 -6 15 -1 11 -11 13 -10 -2 -9
right_child=1 -3 3 -5 5 -7 -8 8 12 10 -12 -13 -14 -15 -16 -17
leaf_value=0.00052627330276601274 -0.001682733377965633 0.0030448989651631567 0.0053647071518935262 -0.00042600437765941026 0.0030894171819090843 0.0029788295022660383 -0.0024060173119467339 0.0024453189606512236 -0.0011295135966065573 -0.0016171041743031573 -0.0001120307040400803 -0.0055522503447718924 -9.3401888651507248e-05 -0.0040660557267256084 -0.0039082918316125873 0.0011471024386330764
leaf_weight=29 20 32 20 20 20 27 38 21 24 21 20 20 21 20 20 22
leaf_count=29 20 32 20 20 20 27 38 21 24 21 20 20 21 20 20 22
internal_value=-7.74871e-05 0.000332379 1.44275e-05 0.00246935 -0.000407019 8.8006e-05 -0.000382188 0.000218636 -0.00031299 -0.00146648 -0.00241385 -0.00353669 -0.00169832 -0.00246431 -0.00279551 0.00178112
internal_weight=395 305 273 40 233 193 166 128 108 90 61 41 65 44 40 43
internal_count=395 305 273 40 233 193 166 128 108 90 61 41 65 44 40 43
is_linear=0
shrinkage=0.05


Tree=44
num_leaves=15
num_cat=0
split_feature=1 0 3 2 3 2 1 4 2 1 1 0 4 4
split_gain=0.0886887 0.173762 0.150606 0.198073 0.140474 0.0508363 0.0673003 0.0680595 0.0629868 0.0532673 0.0381493 0.0283823 0.0251576 0.0346674
threshold=0.87630922693266844 0.82114713216957613 0.84588528678304242 0.69933499581047387 0.63012468827930179 0.38204488778054868 0.40798004987531172 0.42921862014962592 0.23640897755610973 0.19321695760598506 0.51770573566084799 0.40798004987531172 0.37805486284289275 0.20448877805486285
decision_type=2 2 2 2 2 2 2 2 2 2 2 2 2 2
left_child=1 2 3 4 5 6 8 -8 9 -1 11 -7 13 -10
right_child=-2 -3 -4 -5 -6 10 7 -9 12 -11 -12 -13 -14 -15
leaf_value=-5.699715212635372e-05 -0.0031585667853836312 0.0042236335963631673 -0.0040850737562362592 0.0039725481703256566 0.0030787213206557289 -0.0019337516233999619 0.0037349333415340881 -0.00029513722454959702 0.0011272589862346648 -0.0031725441270014816 -0.0032692789294136073 -1.369025006792263e-05 0.0015993954977020623 -0.0017190765861533179
leaf_weight=23 22 24 23 30 28 39 20 22 20 34 24 38 25 23
leaf_count=23 22 24 23 30 28 39 20 22 20 34 24 38 25 23
internal_value=-7.36127e-05 0.000108342 -0.000174658 0.00010123 -0.000291134 -0.000643208 -0.000107668 0.00162394 -0.000689489 -0.00191539 -0.00152871 -0.000986189 0.000338107 -0.0003952
internal_weight=395 373 349 326 296 268 167 42 125 57 101 77 68 43
internal_count=395 373 349 326 296 268 167 42 125 57 101 77 68 43
is_linear=0
shrinkage=0.05


Tree=45
num_leaves=15
num_cat=0
split_feature=3 4 3 2 4 2 0 4 1 2 4 4 0 1
split_gain=0.239459 0.177188 0.141136 0.196416 0.126895 0.142433 0.124455 0.144132 0.0893986 0.0870807 0.0447081 0.0733978 0.0420558 0.0231292
threshold=0.10832917705735663 0.11970074812967581 0.67132169576059864 0.52379052369077328 0.21226932668329176 0.63441396508728187 0.52379052369077328 0.4777057356608479 0.40798004987531172 0.35495261845386539 0.38204488778054868 0.31730673316708236 0.40102743142144642 0.29476309226932673
decision_type=2 2 2 2 2 2 2 2 2 2 2 2 2 2
left_child=-1 -2 4 -4 -3 6 8 -8 10 -10 11 -6 -11 -12
right_child=1 2 3 -5 5 -7 7 -9 9 12 13 -13 -14 -15
leaf_value=-0.0047303413339250255 0.0036024586364094705 -0.0027081695382292267 -1.6069775747676052e-05 -0.0057933710881375843 0.00018118911422789098 0.003472170220629778 0.00031429903770220424 -0.0056165613280609247 0.0046969027537852523 -0.0006932752944218616 0.0020043260434509389 -0.003365990390069783 0.0024112017569132152 -0.00037151528289541607
leaf_weight=32 28 39 31 28 35 32 21 20 20 24 21 25 20 20
leaf_count=32 28 39 31 28 35 32 21 20 20 24 21 25 20 20
internal_value=-0.000583532 -0.000218978 -0.000537431 -0.00275784 -6.44918e-05 0.000368716 -0.000113374 -0.0025788 0.000499248 0.0019613 -0.000427204 -0.0012968 0.000717851 0.000845379
internal_weight=396 364 336 59 277 238 206 41 165 64 101 60 44 41
internal_count=396 364 336 59 277 238 206 41 165 64 101 60 44 41
is_linear=0
shrinkage=0.05


Tree=46
num_leaves=16
num_cat=0
split_feature=3 3 2 1 2 1 0 4 1 3 0 3 2 0 3
split_gain=0.216112 0.16102 0.423501 0.240968 0.108763 0.0921888 0.100841 0.123468 0.0711229 0.0654571 0.061122 0.0574233 0.0484822 0.0362263 0.0328862
threshold=0.10832917705735663 0.54563591022443891 0.51172069825436417 0.56059850374064846 0.35495261845386539 0.10832917705735663 0.5770573566084789 0.51770573566084799 0.26832917705735665 0.25187032418952621 0.49476309226932669 0.38204488778054868 0.38713216957605989 0.29476309226932673 0.26134663341645886
decision_type=2 2 2 2 2 2 2 2 2 2 2 2 2 2 2
left_child=-1 3 4 5 -3 -2 7 8 14 -10 -4 -5 13 -11 -7
right_child=1 2 10 11 -6 6 -8 -9 9 12 -12 -13 -14 -15 -16
leaf_value=-0.0044938242412172263 0.002860018691386689 -0.00099799678286989079 -0.0039399846107698979 0.0021230512731043355 0.0034810333958138588 -0.00081067286216868803 -0.0035913012698680783 0.0031979588966351002 0.0026935165165923539 -0.0031721222655323802 -0.0078490122733637698 0.0058665810315869753 0.00087755336523211245 -0.00034164649774678625 -0.0032595819713355139
leaf_weight=32 22 33 20 21 23 26 24 24 20 20 20 20 36 26 29
leaf_count=32 22 33 20 21 23 26 24 24 20 20 20 20 36 26 29
internal_value=-0.000554356 -0.000208029 -0.0019651 0.000421371 0.000841605 -0.000215807 -0.000545896 -0.000142085 -0.000652665 0.000128794 -0.0058945 0.00394916 -0.000496748 -0.00157229 -0.00210192
internal_weight=396 364 96 268 56 227 205 181 157 102 40 41 82 46 55
internal_count=396 364 96 268 56 227 205 181 157 102 40 41 82 46 55
is_linear=0
shrinkage=0.05


Tree=47
num_leaves=15
num_cat=0
split_feature=3 4 3 2 2 4 2 0 1 3 0 0 2 0
split_gain=0.195041 0.158746 0.114437 0.158227 0.111533 0.0951667 0.0919608 0.0490686 0.0469249 0.0702473 0.0664463 0.0329122 0.0153203 0.0251847
threshold=0.10832917705735663 0.11970074812967581 0.67132169576059864 0.52379052369077328 0.42921862014962592 0.19900249376558604 0.19321695760598506 0.52379052369077328 0.40102743142144642 0.486284289276808 0.43840399002493768 0.23640897755610973 0.28678304239401503 0.39401496259351626
decision_type=2 2 2 2 2 2 2 2 2 2 2 2 2 2
left_child=-1 -2 4 -4 5 -3 -7 11 10 -10 -6 -8 -13 -14
right_child=1 2 3 -5 8 6 7 -9 9 -11 -12 12 13 -15
leaf_value=-0.0042691330949310219 0.0034194827878049443 -0.003859935146149086 -3.7609027969020029e-05 -0.0052229384168250752 0.0017122572637163103 0.001835888667763876 -0.002168487936918003 -0.003217085558836433 0.0034207298616437537 8.068675175309182e-06 -0.0021899585518985985 0.0011088290030048006 -0.00179123097941989 0.00057975826493930074
leaf_weight=32 28 23 31 28 24 35 24 22 38 25 20 21 21 24
leaf_count=32 28 23 31 28 24 35 24 22 38 25 20 21 21 24
internal_value=-0.000526638 -0.000197628 -0.000499053 -0.00249844 -7.31906e-05 -0.000869166 -0.000401223 -0.00110032 0.00119144 0.0020665 -6.14772e-05 -0.000582888 -6.30671e-06 -0.000526703
internal_weight=396 364 336 59 277 170 147 112 107 63 44 90 66 45
internal_count=396 364 336 59 277 170 147 112 107 63 44 90 66 45
is_linear=0
shrinkage=0.05


Tree=48
num_leaves=15
num_cat=0
split_feature=2 4 4 2 1 2 3 2 3 4 4 1 4 0
split_gain=0.176898 0.172494 0.146472 0.0850106 0.0780785 0.13213 0.107194 0.132784 0.0708175 0.121209 0.113075 0.0366714 0.0295632 0.00862914
threshold=0.86783042394014964 0.11970074812967581 0.19321695760598506 0.65695760598503739 0.64538653366583543 0.53965087281795521 0.49476309226932669 0.39152119700748134 0.3536159600997506 0.39152119700748134 0.3296758104738155 0.20448877805486285 0.4777057356608479 0.27770573566084794
decision_type=2 2 2 2 2 2 2 2 2 2 2 2 2 2
left_child=1 -1 -3 4 5 6 8 -8 9 11 -10 -4 -12 -13
right_child=-2 2 3 -5 -6 -7 7 -9 10 -11 12 13 -14 -15
leaf_value=0.003599664251561518 -0.0049660042238732181 -0.0036662577781552338 -0.0023923241330877595 0.0021495403471978054 -0.0029083358275238426 -0.0036572711709886791 -5.0974768819287419e-05 0.0049986195467088537 0.00095805114744087832 0.002958237747952808 -0.0019625325818829562 0.00083137152250856161 -0.0045572998711750625 -0.00053889712499868533
leaf_weight=27 21 34 23 34 30 25 30 23 26 32 23 20 21 27
leaf_count=27 21 34 23 34 30 25 30 23 26 32 23 20 21 27
internal_value=-0.000500306 -0.000250227 -0.000548926 -0.00021138 -0.000498063 -0.000208831 0.00017433 0.00214036 -0.000431482 0.000408994 -0.00165617 -0.000756375 -0.00320094 4.41959e-05
internal_weight=396 375 348 314 280 250 225 53 172 102 70 70 44 47
internal_count=396 375 348 314 280 250 225 53 172 102 70 70 44 47
is_linear=0
shrinkage=0.05


Tree=49
num_leaves=16
num_cat=0
split_feature=3 3 2 1 2 1 0 4 0 1 3 3 0 0 3
split_gain=0.175316 0.14056 0.346793 0.210182 0.0916906 0.0841884 0.0811518 0.111476 0.0572351 0.0567769 0.0572246 0.0525367 0.0434666 0.0515255 0.0303456
threshold=0.10832917705735663 0.54563591022443891 0.51172069825436417 0.56059850374064846 0.35495261845386539 0.10832917705735663 0.5770573566084789 0.51770573566084799 0.49476309226932669 0.26832917705735665 0.25187032418952621 0.38204488778054868 0.29476309226932673 0.45785536159600998 0.26134663341645886
decision_type=2 2 2 2 2 2 2 2 2 2 2 2 2 2 2
left_child=-1 3 4 5 -3 -2 7 9 -4 14 -11 -5 -12 -14 -7
right_child=1 2 8 11 -6 6 -8 -9 -10 10 12 -13 13 -15 -16
leaf_value=-0.0040234987893200012 0.0027689425422894685 -0.0009542437552502661 -0.0034694362863228892 0.0019727546106358723 0.0031582523582746151 -0.00066323505687670644 -0.0032178013549128085 0.0030501117658180495 -0.0072521320730447774 0.0024875031248666347 -0.0020940736185626261 0.0055534615111537278 0.0015656108022526359 -0.0016025796166754197 -0.0030156467061746737
leaf_weight=32 22 33 20 21 23 26 24 24 20 20 28 20 33 21 29
leaf_count=32 22 33 20 21 23 26 24 24 20 20 28 20 33 21 29
internal_value=-0.000475291 -0.000163361 -0.00180502 0.000424695 0.000734817 -0.000170391 -0.000485831 -0.000123581 -0.00536078 -0.000608732 8.94803e-05 0.00371944 -0.000495403 0.000333537 -0.0019036
internal_weight=396 364 96 268 56 227 205 181 40 157 102 41 82 54 55
internal_count=396 364 96 268 56 227 205 181 40 157 102 41 82 54 55
is_linear=0
shrinkage=0.05


Tree=50
num_leaves=17
num_cat=0
split_feature=4 0 2 0 2 0 4 3 1 2 4 4 0 3 2 4
split_gain=0.129095 0.227165 0.135243 0.103304 0.09693 0.0899086 0.108351 0.113082 0.0757548 0.0821525 0.0895038 0.0634155 0.0533996 0.0402717 0.0327613 0.0256126
threshold=0.54563591022443891 0.26832917705735665 0.10832917705735663 0.43192019950124694 0.18254364089775563 0.19201995012468831 0.1665835411471322 0.20049875311720702 0.63940149625935172 0.2698254364089776 0.34613466334164594 0.81416458852867846 0.43192019950124694 0.44488778054862843 0.33965087281795514 0.41596009975062348
decision_type=2 2 2 2 2 2 2 2 2 2 2 2 2 2 2 2
left_child=2 -2 -1 -3 -4 14 -7 -8 9 -9 13 -5 15 -11 -6 -12
right_child=1 3 4 11 5 6 7 8 -10 10 12 -13 -14 -15 -16 -17
leaf_value=0.0034233383640336493 0.0064922028886420392 -0.0023669836976166285 -0.0033350894477701294 0.0031327608210796661 -0.00095721265068277712 0.0032201533546098154 -0.0037777597663807686 -0.0027434620169784736 0.0026823098457848227 0.00067624064259386315 -0.00079560455121099958 -0.00038201827999381793 -0.0022326572311742762 0.0034571262111927829 -0.0038190870912512762 0.0014911475183907897
leaf_weight=24 21 21 27 33 20 26 20 27 26 30 25 21 35 23 20 24
leaf_count=24 21 21 27 33 20 26 20 27 26 30 25 21 35 23 20 24
internal_value=0.000283607 0.00189571 -0.000189671 0.000608694 -0.00047585 -0.000196142 0.000175385 -0.000201586 0.000174853 -0.00022267 0.000274128 0.0017659 -0.000741019 0.00188304 -0.00238815 0.000324437
internal_weight=423 96 327 75 303 276 236 210 190 164 137 54 84 53 40 49
internal_count=423 96 327 75 303 276 236 210 190 164 137 54 84 53 40 49
is_linear=0
shrinkage=0.05


Tree=51
num_leaves=17
num_cat=0
split_feature=4 0 2 0 2 0 4 3 1 2 4 3 3 3 2 2
split_gain=0.116508 0.205017 0.122057 0.0932322 0.0874794 0.0811426 0.0977871 0.102056 0.0683687 0.0741427 0.0808056 0.0587981 0.043026 0.0584875 0.040122 0.0295671
threshold=0.54563591022443891 0.26832917705735665 0.10832917705735663 0.43192019950124694 0.18254364089775563 0.19201995012468831 0.1665835411471322 0.20049875311720702 0.63940149625935172 0.2698254364089776 0.29825436408977557 0.46974231092269325 0.32219451371571078 0.40997506234413966 0.49027431421446382 0.33965087281795514
decision_type=2 2 2 2 2 2 2 2 2 2 2 2 2 2 2 2
left_child=2 -2 -1 -3 -4 15 -7 -8 9 -9 -11 -5 -12 -14 -15 -6
right_child=1 3 4 11 5 6 7 8 -10 10 12 -13 13 14 -16 -17
leaf_value=0.0032521715310091775 0.0061675929264830695 -0.002248634527703481 -0.0031683349627268467 0.0035930605686229212 -0.00090935209300369024 0.0030591458632933119 -0.0035888718446949498 -0.0026062889070965836 0.0025481943291826891 0.0021853352917764238 0.0012846351200714709 0.00025646425933847504 -0.0033457766536490194 0.00087866803041833927 -0.001976112690754235 -0.0036281328729819507
leaf_weight=24 21 21 27 23 20 26 20 27 26 39 25 31 21 32 20 20
leaf_count=24 21 21 27 23 20 26 20 27 26 39 25 31 21 32 20 20
internal_value=0.000269427 0.00180093 -0.000180187 0.000578259 -0.000452057 -0.000186335 0.000166616 -0.000191507 0.000166111 -0.000211537 0.000260422 0.00167761 -0.000505615 -0.00111871 -0.000219325 -0.00226874
internal_weight=423 96 327 75 303 276 236 210 190 164 137 54 98 73 52 40
internal_count=423 96 327 75 303 276 236 210 190 164 137 54 98 73 52 40
is_linear=0
shrinkage=0.05


Tree=52
num_leaves=17
num_cat=0
split_feature=4 0 2 0 2 0 4 4 1 4 3 4 2 0 1 1
split_gain=0.105149 0.185028 0.110156 0.084142 0.0789501 0.0732312 0.0882529 0.0973375 0.0913862 0.116078 0.0686069 0.0554882 0.0526356 0.0430813 0.0270124 0.0252139
threshold=0.54563591022443891 0.26832917705735665 0.10832917705735663 0.43192019950124694 0.18254364089775563 0.19201995012468831 0.1665835411471322 0.21226932668329176 0.63940149625935172 0.33965087281795514 0.44488778054862843 0.81416458852867846 0.29476309226932673 0.52379052369077328 0.26832917705735665 0.39800498753117208
decision_type=2 2 2 2 2 2 2 2 2 2 2 2 2 2 2 2
left_child=2 -2 -1 -3 -4 14 -7 -8 9 10 -9 -5 -11 15 -6 -14
right_child=1 3 4 11 5 6 7 8 -10 12 -12 -13 13 -15 -16 -17
leaf_value=0.0030895628355210648 0.0058592132137467471 -0.0021362028395136199 -0.0030099181936950321 0.0028723014800837547 -0.0034546425046573861 0.002906188495958654 -0.0030455992521288304 0.0003245149799006279 0.0031708726401278829 -0.0032145000591602491 0.0040151087590493259 -0.00041546200158163203 0.00095221828345933728 -0.002577641175594181 -0.00085596815682947641 -0.0010690668908258281
leaf_weight=24 21 21 27 33 20 26 26 34 23 24 20 21 36 20 20 27
leaf_count=24 21 21 27 33 20 26 26 34 23 24 20 21 36 20 20 27
internal_value=0.000255956 0.00171088 -0.000171178 0.000549346 -0.000429454 -0.000177018 0.000158285 -0.000181931 0.000222717 -0.000198448 0.0016914 0.00159373 -0.0011522 -0.000555877 -0.00215531 8.59532e-05
internal_weight=423 96 327 75 303 276 236 210 184 161 54 54 107 83 40 63
internal_count=423 96 327 75 303 276 236 210 184 161 54 54 107 83 40 63
is_linear=0
shrinkage=0.05


Tree=53
num_leaves=17
num_cat=0
split_feature=4 0 2 0 2 0 4 3 1 2 4 1 3 3 2 2
split_gain=0.0948968 0.166987 0.099416 0.0759978 0.0712525 0.0660911 0.0796482 0.0887523 0.0556644 0.061269 0.0711934 0.0545034 0.0399203 0.0513792 0.035695 0.0272239
threshold=0.54563591022443891 0.26832917705735665 0.10832917705735663 0.41945137157107237 0.18254364089775563 0.19201995012468831 0.1665835411471322 0.20049875311720702 0.63940149625935172 0.2698254364089776 0.29825436408977557 0.486284289276808 0.32219451371571078 0.40997506234413966 0.49027431421446382 0.33965087281795514
decision_type=2 2 2 2 2 2 2 2 2 2 2 2 2 2 2 2
left_child=2 -2 -1 -3 -4 15 -7 -8 9 -9 -11 -5 -12 -14 -15 -6
right_child=1 3 4 11 5 6 7 8 -10 10 12 -13 13 14 -16 -17
leaf_value=0.0029350846166683671 0.0055662523201178947 -0.0021175272343680264 -0.0028594223101174945 4.4818040138731406e-05 -0.00074312582495622342 0.0027608789342383928 -0.0033410299464594578 -0.0023570419427145412 0.0023100600519683212 0.0020557340419588561 0.0012543296376243233 0.0032058776197955012 -0.0031480022351301853 0.00081795664591481913 -0.0018747289199382068 -0.0033519543160218748
leaf_weight=24 21 20 27 30 20 26 20 27 26 39 25 25 21 32 20 20
leaf_count=24 21 20 27 30 20 26 20 27 26 39 25 25 21 32 20 20
internal_value=0.000243158 0.00162534 -0.000162619 0.000521879 -0.000407982 -0.000168167 0.000150371 -0.000172835 0.000160659 -0.000180099 0.000248933 0.00148166 -0.0004701 -0.00106066 -0.000217692 -0.00204754
internal_weight=423 96 327 75 303 276 236 210 190 164 137 55 98 73 52 40
internal_count=423 96 327 75 303 276 236 210 190 164 137 55 98 73 52 40
is_linear=0
shrinkage=0.05


Tree=54
num_leaves=17
num_cat=0
split_feature=4 0 2 0 2 0 4 4 4 1 1 4 2 1 2 1
split_gain=0.0856444 0.150706 0.0897229 0.068588 0.0643054 0.0596472 0.0718825 0.0879821 0.0771171 0.0848828 0.0491894 0.0457982 0.0515305 0.0341177 0.0514181 0.0248967
threshold=0.54563591022443891 0.26832917705735665 0.10832917705735663 0.41945137157107237 0.18254364089775563 0.19201995012468831 0.1665835411471322 0.21226932668329176 0.29177057356608482 0.63940149625935172 0.486284289276808 0.49476309226932669 0.29476309226932673 0.43840399002493768 0.47152119700748135 0.26832917705735665
decision_type=2 2 2 2 2 2 2 2 2 2 2 2 2 2 2 2
left_child=2 -2 -1 -3 -4 15 -7 -8 -9 11 -5 12 -10 14 -14 -6
right_child=1 3 4 10 5 6 7 8 9 -11 -12 -13 13 -15 -16 -17
leaf_value=0.0027883304521916824 0.005287939939825308 -0.002011650841450319 -0.0027164511968968096 4.2577239219099285e-05 -0.0031925775599665942 0.0026228351948352959 -0.0028867676603392916 0.0022959866321697418 -0.002245787806952229 0.0027449510025326163 0.0030455836821347477 -0.0027784337714800368 0.0028010296159967159 -0.00090633769180964343 -0.0005454652604054321 -0.00069774852250702689
leaf_weight=24 21 20 27 30 20 26 26 36 26 20 25 23 24 33 22 20
leaf_count=24 21 20 27 30 20 26 26 36 26 20 25 23 24 33 22 20
internal_value=0.000231 0.00154407 -0.000154488 0.000495785 -0.000387583 -0.000159759 0.000142852 -0.000164193 0.000220519 -0.000284325 0.00140758 -0.000757649 -0.000315001 0.000320447 0.00120053 -0.00194516
internal_weight=423 96 327 75 303 276 236 210 184 148 55 128 105 79 46 40
internal_count=423 96 327 75 303 276 236 210 184 148 55 128 105 79 46 40
is_linear=0
shrinkage=0.05


Tree=55
num_leaves=16
num_cat=0
split_feature=3 1 2 2 0 0 0 1 3 3 4 3 0 0 1
split_gain=0.115734 0.183073 0.182749 0.174768 0.137318 0.114584 0.123309 0.0672972 0.0466669 0.0908937 0.110938 0.0369857 0.0496539 0.0299175 0.0122625
threshold=0.56359102244389037 0.56059850374064846 0.65695760598503739 0.51172069825436417 0.43840399002493768 0.18254364089775563 0.099351620947630934 0.68019950124688278 0.22743142144638406 0.31122194513715712 0.36458852867830427 0.47431421446384042 0.38204488778054868 0.27770573566084794 0.27152119700748134
decision_type=2 2 2 2 2 2 2 2 2 2 2 2 2 2 2
left_child=1 2 5 4 -2 6 -1 -3 14 10 -10 12 13 -11 -7
right_child=3 7 -4 -5 -6 8 -8 -9 9 11 -12 -13 -14 -15 -16
leaf_value=-0.001027004544933637 -0.0028489768225699666 0.0048956954182358464 0.0043922206992283467 -0.0043028131278382764 0.0026172297791129465 -0.0016742006496146874 0.0042723186972105634 0.0014775765801055564 -0.00098557432323174835 -0.0022709075314924121 0.0039005269340815999 0.00010295715825311069 -0.003327885648940463 0.00034750505583360793 -0.0032452823067812817
leaf_weight=21 20 24 20 37 27 27 23 36 26 20 21 29 37 24 23
leaf_count=21 20 24 20 37 27 27 23 36 26 20 21 29 37 24 23
internal_value=-7.48702e-05 0.000345762 -0.000207536 -0.00173236 0.000291184 -0.00057405 0.0017431 0.00284482 -0.00106658 -0.000642917 0.00119758 -0.00142931 -0.0019779 -0.000842682 -0.0023969
internal_weight=415 331 271 84 47 251 44 60 207 157 47 110 81 44 50
internal_count=415 331 271 84 47 251 44 60 207 157 47 110 81 44 50
is_linear=0
shrinkage=0.05


Tree=56
num_leaves=17
num_cat=0
split_feature=3 1 2 2 0 0 0 1 3 3 4 4 3 0 0 0
split_gain=0.10445 0.165223 0.164931 0.157728 0.12393 0.103412 0.111287 0.0607357 0.0421169 0.0820315 0.100121 0.0334349 0.0460126 0.0175048 0.0242764 0.0118151
threshold=0.56359102244389037 0.56059850374064846 0.65695760598503739 0.51172069825436417 0.43840399002493768 0.18254364089775563 0.099351620947630934 0.68019950124688278 0.22743142144638406 0.31122194513715712 0.36458852867830427 0.53017456359102255 0.47431421446384042 0.38204488778054868 0.28568578553615964 0.29177057356608482
decision_type=2 2 2 2 2 2 2 2 2 2 2 2 2 2 2 2
left_child=1 2 5 4 -2 6 -1 -3 15 10 -10 12 13 14 -11 -7
right_child=3 7 -4 -5 -6 8 -8 -9 9 11 -12 -13 -14 -15 -16 -17
leaf_value=-0.00097565430305188616 -0.002706528096459806 0.0046509105838291971 0.0041726096428465103 -0.0040876725550136857 0.0024863681568401972 -0.0013357088062912227 0.0040587029845008385 0.0014036977301455208 -0.00093629560836304263 -0.0021573621174320579 0.0037055005629857383 -0.0031012710099193185 0.0010582979853180324 -0.0025920800022924181 0.00030619456432759765 -0.0029046163397530717
leaf_weight=21 20 24 20 37 27 20 23 36 26 20 21 22 22 26 20 30
leaf_count=21 20 24 20 37 27 20 23 36 26 20 21 22 22 26 20 30
internal_value=-7.11267e-05 0.000328474 -0.000197159 -0.00164574 0.000276625 -0.000545348 0.00165594 0.00270258 -0.00101325 -0.000610771 0.0011377 -0.00135784 -0.000921987 -0.00158208 -0.000925584 -0.00227705
internal_weight=415 331 271 84 47 251 44 60 207 157 47 110 88 66 40 50
internal_count=415 331 271 84 47 251 44 60 207 157 47 110 88 66 40 50
is_linear=0
shrinkage=0.05


Tree=57
num_leaves=16
num_cat=0
split_feature=3 1 2 2 0 0 0 0 3 3 4 2 4 1 4
split_gain=0.0942663 0.149114 0.14885 0.14235 0.111846 0.0933292 0.100436 0.0562438 0.0380105 0.0740335 0.0903596 0.0326886 0.0264852 0.0112029 0.0110206
threshold=0.56359102244389037 0.56059850374064846 0.65695760598503739 0.51172069825436417 0.43840399002493768 0.18254364089775563 0.099351620947630934 0.40102743142144642 0.22743142144638406 0.31122194513715712 0.36458852867830427 0.24837905236907729 0.36645885286783042 0.42921862014962592 0.25187032418952621
decision_type=2 2 2 2 2 2 2 2 2 2 2 2 2 2 2
left_child=1 2 5 4 -2 6 -1 -3 14 10 -10 -11 -13 -14 -7
right_child=3 7 -4 -5 -6 8 -8 -9 9 11 -12 12 13 -15 -16
leaf_value=-0.00092687163989813547 -0.002571201710961759 0.0045793801546096802 0.0039639791517402049 -0.0038832888359556328 0.0023620497619655607 -0.0030723478924483062 0.003855767721593704 0.0014026542548028949 -0.00088948084650417947 -0.0030643760847548648 0.003520225551688955 0.00010536076883092905 -0.00096962705969677447 -0.0024773777928203348 -0.0015571025029445689
leaf_weight=21 20 22 20 37 27 20 23 38 26 21 21 39 28 22 30
leaf_count=21 20 22 20 37 27 20 23 38 26 21 21 39 28 22 30
internal_value=-6.75704e-05 0.00031205 -0.000187301 -0.00156346 0.000262794 -0.00051808 0.00157314 0.00256745 -0.000962592 -0.000580232 0.00108081 -0.00128995 -0.000871267 -0.00163304 -0.0021632
internal_weight=415 331 271 84 47 251 44 60 207 157 47 110 89 50 50
internal_count=415 331 271 84 47 251 44 60 207 157 47 110 89 50 50
is_linear=0
shrinkage=0.05


Tree=58
num_leaves=16
num_cat=0
split_feature=3 3 1 2 3 2 0 0 1 0 0 4 1 0 2
split_gain=0.0850754 0.134989 0.134575 0.134337 0.111555 0.103788 0.0842296 0.0906435 0.055128 0.0380282 0.0568547 0.0391684 0.0262977 0.028935 0.0181773
threshold=0.56359102244389037 0.72618453865336663 0.56059850374064846 0.65695760598503739 0.86783042394014964 0.43501246882793021 0.18254364089775563 0.099351620947630934 0.68019950124688278 0.5770573566084789 0.40798004987531172 0.46974231092269325 0.21695760598503744 0.30623441396508733 0.29825436408977557
decision_type=2 2 2 2 2 2 2 2 2 2 2 2 2 2 2
left_child=2 5 3 6 -3 -2 7 -1 -4 10 12 -12 -8 14 -14
right_child=1 4 8 -5 -6 -7 9 -9 -10 -11 11 -13 13 -15 -16
leaf_value=-0.00088052801300017624 -0.0009679953864013607 0.0032574148103594784 0.0042952868694555949 0.0037657802825560791 -0.0020235643163323404 -0.005824771481142803 -0.0023793730503206866 0.003662979222217868 0.0012016104961124561 -0.0027025549314343015 -0.00033141223008415719 0.0024571502767503262 0.0011050708126276731 -0.0018600129597895856 -0.00077669118904988429
leaf_weight=21 22 20 24 20 20 22 36 23 36 26 34 20 21 37 33
leaf_count=21 22 20 24 20 20 22 36 23 36 26 34 20 21 37 33
internal_value=-6.41919e-05 -0.00148528 0.000296448 -0.000177936 0.000616925 -0.00339638 -0.000492176 0.00149449 0.00243908 -0.000914462 -0.000657609 0.000701389 -0.00123545 -0.00078291 -4.48949e-05
internal_weight=415 84 331 271 40 44 251 44 60 207 181 54 127 91 54
internal_count=415 84 331 271 40 44 251 44 60 207 181 54 127 91 54
is_linear=0
shrinkage=0.05


Tree=59
num_leaves=15
num_cat=0
split_feature=3 2 2 1 0 0 0 0 0 4 3 1 0 2
split_gain=0.0767805 0.124928 0.122063 0.115956 0.0993786 0.0760172 0.0818058 0.0343204 0.0513113 0.0353495 0.0341841 0.0237337 0.0261139 0.016405
threshold=0.56359102244389037 0.51172069825436417 0.65695760598503739 0.56059850374064846 0.43840399002493768 0.18254364089775563 0.099351620947630934 0.5770573566084789 0.40798004987531172 0.46974231092269325 0.38204488778054868 0.21695760598503744 0.30623441396508733 0.29825436408977557
decision_type=2 2 2 2 2 2 2 2 2 2 2 2 2 2
left_child=2 4 3 5 -2 6 -1 8 11 -10 -5 -7 13 -13
right_child=1 -3 -4 10 -6 7 -8 -9 9 -11 -12 12 -14 -15
leaf_value=-0.00083650161035447607 -0.0023715440882369878 -0.0035842589631273937 0.0030739064993602887 0.0010560861751437189 0.0022786223566745997 -0.0022604043947972567 0.0034798302358704744 -0.0025674271325652419 -0.00031484166461536118 0.0023342927917838099 0.0038294281973503528 0.0010498172736593655 -0.0017670123384812394 -0.00073785659580166934
leaf_weight=21 20 37 35 25 27 36 23 26 34 20 20 21 37 33
leaf_count=21 20 37 35 25 27 36 23 26 34 20 20 21 37 33
internal_value=-6.09823e-05 -0.00141102 0.000281625 -4.85429e-05 0.000299828 -0.000467567 0.00141976 -0.000868739 -0.000624729 0.000666319 0.00228868 -0.00117368 -0.000743764 -4.26501e-05
internal_weight=415 84 331 296 47 251 44 207 181 54 45 127 91 54
internal_count=415 84 331 296 47 251 44 207 181 54 45 127 91 54
is_linear=0
shrinkage=0.05


Tree=60
num_leaves=17
num_cat=0
split_feature=2 4 0 0 3 1 1 4 3 2 0 3 2 0 4 0
split_gain=0.137541 0.187621 0.0872208 0.0916516 0.220213 0.0658036 0.103641 0.0983971 0.0814176 0.0875764 0.0715296 0.0479158 0.0339547 0.0711418 0.0726481 0.0513689
threshold=0.86783042394014964 0.13416458852867835 0.87630922693266844 0.62144638403990038 0.43192019950124694 0.69157107231920212 0.58952618453865346 0.55062344139650887 0.47431421446384042 0.41596009975062348 0.43192019950124694 0.46974231092269325 0.37805486284289275 0.34613466334164594 0.3296758104738155 0.22743142144638406
decision_type=2 2 2 2 2 2 2 2 2 2 2 2 2 2 2 2
left_child=1 -1 3 5 -5 6 7 8 10 -10 12 -9 13 14 15 -3
right_child=-2 2 -4 4 -6 -7 -8 11 9 -11 -12 -13 -14 -15 -16 -17
leaf_value=0.0037768934882894561 -0.0036147110435801248 0.00060340758455612771 -0.0031869759517056603 0.0061351922806352384 -0.00096872023617227885 0.0025731040164828304 -0.0038618568523088471 0.0036093481735999539 -0.00064057209466617296 0.0036308546018387587 -0.0035983740892261266 0.00026304781902581454 0.00057873240347314431 0.001337129298952364 -0.0043554211344929757 -0.0027671174309216442
leaf_weight=35 24 26 21 20 24 20 20 23 28 21 25 20 38 21 22 20
leaf_count=35 24 26 21 20 24 20 20 23 28 21 25 20 38 21 22 20
internal_value=5.73978e-05 0.000286905 -6.30943e-05 0.00013691 0.00226033 -0.00019207 -0.000401553 -0.000117922 -0.000582333 0.00119004 -0.00115369 0.00205293 -0.000672453 -0.00120667 -0.00199225 -0.000862038
internal_weight=408 384 349 328 44 284 264 244 201 49 152 43 127 89 68 46
internal_count=408 384 349 328 44 284 264 244 201 49 152 43 127 89 68 46
is_linear=0
shrinkage=0.05


Tree=61
num_leaves=16
num_cat=0
split_feature=2 4 0 0 3 1 1 0 1 3 2 0 4 1 3
split_gain=0.12413 0.169328 0.0787168 0.0827156 0.198743 0.0593877 0.0935362 0.0932203 0.0690626 0.0899779 0.0641797 0.0444517 0.0291847 0.0293458 0.0239369
threshold=0.86783042394014964 0.13416458852867835 0.87630922693266844 0.62144638403990038 0.43192019950124694 0.69157107231920212 0.58952618453865346 0.13865336658354113 0.17605985037406488 0.47431421446384042 0.41596009975062348 0.25187032418952621 0.26134663341645886 0.43501246882793021 0.26134663341645886
decision_type=2 2 2 2 2 2 2 2 2 2 2 2 2 2 2
left_child=1 -1 3 5 -5 6 7 -3 -9 11 -11 -10 -13 14 -14
right_child=-2 2 -4 4 -6 -7 -8 8 9 10 -12 12 13 -15 -16
leaf_value=0.0035880487295383186 -0.0034339754250443857 0.0029925021962051027 -0.003027627111545631 0.0058284327760338784 -0.00092028419797619192 0.0024444488273002211 -0.0036687639390584081 -0.0024934216877548297 0.00113035411760211 2.1965305689567081e-05 0.0033821547403931618 -0.0027470230008475485 -0.0015070341480895877 -0.002152812360929182 0.00065037132525402647
leaf_weight=35 24 22 21 20 24 20 20 34 25 30 27 24 20 26 36
leaf_count=35 24 22 21 20 24 20 20 34 25 30 27 24 20 26 36
internal_value=5.45279e-05 0.000272559 -5.99396e-05 0.000130065 0.00214731 -0.000182467 -0.000381476 -0.000112026 -0.000419682 -4.46436e-05 0.00161363 -0.000766184 -0.00121348 -0.000764639 -0.000120131
internal_weight=408 384 349 328 44 284 264 244 222 188 57 131 106 82 56
internal_count=408 384 349 328 44 284 264 244 222 188 57 131 106 82 56
is_linear=0
shrinkage=0.05


Tree=62
num_leaves=17
num_cat=0
split_feature=2 4 0 0 3 1 1 4 3 2 0 3 0 2 4 0
split_gain=0.112028 0.152819 0.0710419 0.0746508 0.179365 0.0535974 0.0844164 0.086775 0.0668423 0.0732169 0.0632563 0.0454017 0.030273 0.0450221 0.0633318 0.0332731
threshold=0.86783042394014964 0.13416458852867835 0.87630922693266844 0.62144638403990038 0.43192019950124694 0.69157107231920212 0.58952618453865346 0.55062344139650887 0.47431421446384042 0.41596009975062348 0.43192019950124694 0.46974231092269325 0.36645885286783042 0.37805486284289275 0.3296758104738155 0.20448877805486285
decision_type=2 2 2 2 2 2 2 2 2 2 2 2 2 2 2 2
left_child=1 -1 3 5 -5 6 7 8 10 -10 12 -9 13 14 15 -3
right_child=-2 2 -4 4 -6 -7 -8 11 9 -11 -12 -13 -14 -15 -16 -17
leaf_value=0.0034086462735597577 -0.003262276646031145 0.00091371136659290642 -0.002876245824708825 0.0055370111018419269 -0.00087427003309130673 0.0023222264740616083 -0.0034853257627401033 0.0034472307473745038 -0.00061045453289157849 0.0032951213574657838 -0.0033592046573758128 0.00018990510609000923 0.00084386878609490987 0.00072297083248418789 -0.0038356399599449465 -0.0017372319904348718
leaf_weight=35 24 20 21 20 24 20 20 23 28 21 25 20 28 27 23 29
leaf_count=35 24 20 21 20 24 20 20 23 28 21 25 20 28 27 23 29
internal_value=5.18015e-05 0.000258931 -5.69426e-05 0.000123562 0.00203995 -0.000173343 -0.000362402 -0.000106424 -0.000542547 0.00106336 -0.00106024 0.0019322 -0.00060769 -0.00101823 -0.00167118 -0.000655214
internal_weight=408 384 349 328 44 284 264 244 201 49 152 43 127 99 72 49
internal_count=408 384 349 328 44 284 264 244 201 49 152 43 127 99 72 49
is_linear=0
shrinkage=0.05


Tree=63
num_leaves=16
num_cat=0
split_feature=2 4 0 0 3 1 1 0 1 3 2 0 2 0 2
split_gain=0.101105 0.137919 0.0641153 0.0673724 0.161877 0.0483755 0.0777966 0.0836417 0.0626323 0.0763822 0.0528164 0.0411746 0.0303438 0.060631 0.0532667
threshold=0.86783042394014964 0.13416458852867835 0.87630922693266844 0.62144638403990038 0.43192019950124694 0.68728179551122204 0.5770573566084789 0.13865336658354113 0.17605985037406488 0.47431421446384042 0.41596009975062348 0.25187032418952621 0.31122194513715712 0.36645885286783042 0.42921862014962592
decision_type=2 2 2 2 2 2 2 2 2 2 2 2 2 2 2
left_child=1 -1 3 5 -5 6 7 -3 -9 11 -11 -10 13 -13 -14
right_child=-2 2 -4 4 -6 -7 -8 8 9 10 -12 12 14 -15 -16
leaf_value=0.0032382140721061402 -0.0030991626549318127 0.0028377412246878854 -0.002732433511742524 0.0052601605915697297 -0.00083055656092862287 0.0021446847933388894 -0.0033465838624397296 -0.002369078399051967 0.0011183730885386467 4.605404714917919e-05 0.0030942941084504128 -0.00209090459626168 -0.0035122608537440773 0.0017128784929148176 -0.00057437501576108234
leaf_weight=35 24 22 21 20 24 21 20 34 25 30 27 20 27 22 36
leaf_count=35 24 22 21 20 24 21 20 34 25 30 27 20 27 22 36
internal_value=4.92114e-05 0.000245985 -5.40955e-05 0.000117383 0.00193795 -0.000164676 -0.000349074 -0.000102365 -0.000395046 -3.61306e-05 0.00148996 -0.000705261 -0.00113946 -9.84468e-05 -0.00183347
internal_weight=408 384 349 328 44 284 263 243 221 187 57 130 105 42 63
internal_count=408 384 349 328 44 284 263 243 221 187 57 130 105 42 63
is_linear=0
shrinkage=0.05


Tree=64
num_leaves=17
num_cat=0
split_feature=2 4 0 0 3 0 0 3 0 4 3 4 2 3 2 4
split_gain=0.0912473 0.124472 0.0578641 0.0608036 0.146094 0.0463338 0.0469484 0.0890617 0.0526589 0.0563273 0.0781641 0.151596 0.067249 0.033156 0.0269579 0.0187693
threshold=0.86783042394014964 0.13416458852867835 0.87630922693266844 0.62144638403990038 0.43192019950124694 0.53017456359102255 0.40798004987531172 0.40798004987531172 0.37925187032418956 0.22743142144638406 0.54563591022443891 0.52379052369077328 0.41246882793017459 0.36645885286783042 0.43840399002493768 0.3296758104738155
decision_type=2 2 2 2 2 2 2 2 2 2 2 2 2 2 2 2
left_child=1 -1 3 5 -5 6 8 -8 9 -3 11 12 13 15 -9 -11
right_child=-2 2 -4 4 -6 -7 7 14 -10 10 -12 -13 -14 -15 -16 -17
